#global bias W0
0.416074
#unary interactions Wj
-0.000690063
-0.000188756
0.00191943
-0.000770468
-0.00218025
-0.000976628
-0.000327504
-0.00132963
-0.000153701
-8.53079e-05
-3.01519e-05
0.00225649
0.000880289
-0.000301764
-0.00197728
-0.000690063
-0.000188756
0.00191943
-0.000770468
-0.00218025
-0.000976628
-0.000327504
-0.00132963
-0.000153701
-8.53079e-05
-3.01519e-05
0.00225649
0.000880289
-0.000301764
-0.00197728
0.245138
0.0358259
0
0
0
0.124732
0
0.249791
-0.0563326
0
0
0
0
0
0
0
0
-0.0563326
-0.0563326
0.0987908
0.0987908
0.0987908
0.0987908
0.0987908
0.0987908
0.0987908
-0.000871211
-0.000238306
0.0024233
-0.000972723
-0.00275259
-0.001233
-0.000413477
-0.00167867
-0.000194049
-0.000107702
-3.80671e-05
0.00284884
0.00111137
-0.000380981
-0.00249634
-0.000871211
-0.000238306
0.0024233
-0.000972723
-0.00275259
-0.001233
-0.000413477
-0.00167867
-0.000194049
-0.000107702
-3.80671e-05
0.00284884
0.00111137
-0.000380981
-0.00249634
0
0
0
0.249791
0
0
0
0
0
0
0
0.0650381
0.309489
0
0
0.124732
0
0.249791
0
-0.0563326
0
0
0
0
0
0
0
0
-0.0563326
-0.0563326
0.0786582
0.0786582
0.0786582
0.0786582
0.0786582
0.0786582
0.0786582
0.0786582
0.0786582
0.0786582
0.0786582
0.0786582
0.0786582
0.1223
0.0786582
0.0786582
0.0786582
0.0786582
0.0786582
-0.0237115
0.1223
0
0
0
0
0
0
0
0
0
0
0
0
0
0
0
0
0
0
0
0
0
0
0
0
0
0
0
0
0
0
0.126838
0.126838
0.124732
0.124732
0.16373
0.1223
#pairwise interactions Vj,f













































































































































































