#global bias W0
-11995.2
#unary interactions Wj
0
-105.286
-56.6174
27.2503
119.059
68.7232
13.5183
60.9358
-41.2952
-93.7499
18.583
-73.7959
-79.2103
5.25385
-71.5529
-79.2365
-18.0822
-83.0356
-25.8757
41.8959
-80.0384
45.957
-4.47107
12.9553
-74.361
-67.5441
-87.4358
9.54697
-1.56358
63.8949
112.238
-45.026
119.656
-67.0776
110.22
18.7486
65.2076
65.0327
-120.085
-50.4933
34.1252
29.3744
76.5402
-6.02082
80.9838
-6.88406
2.94619
-70.1185
46.113
59.3274
-84.9331
0.399816
-1.16734
-1.17569
-0.101153
-0.186116
-0.194193
0.219496
-1.01607
0.0760251
-0.589202
-0.267266
-0.442801
0.456526
0.262301
-0.906581
-0.674002
-0.24972
1.15107
0.0030274
0.644557
0.219438
0.208799
0.605366
-0.568498
-0.581769
-0.776208
-0.550747
-0.991636
0.0522866
0.60003
0.697403
0.825831
0.732562
-0.985286
0.279813
0.484056
0.873053
0.101283
-0.73745
0.295641
0.712104
-0.570452
-0.792506
1.03953
-0.185597
0.000767535
0.619377
0.846308
0.508292
-0.199739
0
-1.75087e+13
122.4
-1.75336e+13
122.4
1224
-9669.6
122.4
-1.75087e+13
66585.6
122.4
-12117.6
0
0
-11995.2
0
122.4
-12117.6
0
0
0
0
0
0
0
-11995.2
0
122.4
-1.75087e+13
-1.75087e+13
-7.88277e+06
-119952
-781103
-3.35168e+06
-307317
-120931
-7.81103e+06
-105.286
-56.6174
27.2503
119.059
68.7232
13.5183
60.9358
-41.2952
-93.7499
18.583
-73.7959
-79.2103
5.25385
-71.5529
-79.2365
-18.0822
-83.0356
-25.8757
41.8959
-80.0384
45.957
-4.47107
12.9553
-74.361
-67.5441
-87.4358
9.54697
-1.56358
63.8949
112.238
-45.026
119.656
-67.0776
110.22
18.7486
65.2076
65.0327
-120.085
-50.4933
34.1252
29.3744
76.5402
-6.02082
80.9838
-6.88406
2.94619
-70.1185
46.113
59.3274
-84.9331
0.399816
-1.16734
-1.17569
-0.101153
-0.186116
-0.194193
0.219496
-1.01607
0.0760251
-0.589202
-0.267266
-0.442801
0.456526
0.262301
-0.906581
-0.674002
-0.24972
1.15107
0.0030274
0.644557
0.219438
0.208799
0.605366
-0.568498
-0.581769
-0.776208
-0.550747
-0.991636
0.0522866
0.60003
0.697403
0.825831
0.732562
-0.985286
0.279813
0.484056
0.873053
0.101283
-0.73745
0.295641
0.712104
-0.570452
-0.792506
1.03953
-0.185597
0.000767535
0.619377
0.846308
0.508292
-0.199739
29865.6
0
-1.75087e+13
122.4
-1.75336e+13
122.4
1224
-9669.6
122.4
-1.75087e+13
66585.6
0
122.4
0
0
-11995.2
0
0
122.4
-12117.6
0
0
0
0
0
0
0
-11995.2
0
-12117.6
-1.75087e+13
-1.75087e+13
-7.88277e+06
-119952
-781103
-3.35168e+06
-307317
-120931
-7.81103e+06
-359856
-35985.6
-119952
-119.952
-839.664
-1.75087e+13
-1.75336e+13
-119952
0
-23990.4
-4.91803e+06
-11995.2
-1.75087e+13
-1.75087e+13
0
-46661.3
-13554.6
-1.00253e+07
-59976
-11995.2
#pairwise interactions Vj,f
0.111718 -0.00819716 0.193117 -0.0779397 -0.231093 0.0127291 0.022042 -0.0838461
nan nan nan nan nan nan nan nan
nan nan nan nan nan nan nan nan
nan nan nan nan nan nan nan nan
nan nan nan nan nan nan nan nan
nan nan nan nan nan nan nan nan
nan nan nan nan nan nan nan nan
nan nan nan nan nan nan nan nan
nan nan nan nan nan nan nan nan
nan nan nan nan nan nan nan nan
nan nan nan nan nan nan nan nan
nan nan nan nan nan nan nan nan
nan nan nan nan nan nan nan nan
nan nan nan nan nan nan nan nan
nan nan nan nan nan nan nan nan
nan nan nan nan nan nan nan nan
nan nan nan nan nan nan nan nan
nan nan nan nan nan nan nan nan
nan nan nan nan nan nan nan nan
nan nan nan nan nan nan nan nan
nan nan nan nan nan nan nan nan
nan nan nan nan nan nan nan nan
nan nan nan nan nan nan nan nan
nan nan nan nan nan nan nan nan
nan nan nan nan nan nan nan nan
nan nan nan nan nan nan nan nan
nan nan nan nan nan nan nan nan
nan nan nan nan nan nan nan nan
nan nan nan nan nan nan nan nan
nan nan nan nan nan nan nan nan
nan nan nan nan nan nan nan nan
nan nan nan nan nan nan nan nan
nan nan nan nan nan nan nan nan
nan nan nan nan nan nan nan nan
nan nan nan nan nan nan nan nan
nan nan nan nan nan nan nan nan
nan nan nan nan nan nan nan nan
nan nan nan nan nan nan nan nan
nan nan nan nan nan nan nan nan
nan nan nan nan nan nan nan nan
nan nan nan nan nan nan nan nan
nan nan nan nan nan nan nan nan
nan nan nan nan nan nan nan nan
nan nan nan nan nan nan nan nan
nan nan nan nan nan nan nan nan
nan nan nan nan nan nan nan nan
nan nan nan nan nan nan nan nan
nan nan nan nan nan nan nan nan
nan nan nan nan nan nan nan nan
nan nan nan nan nan nan nan nan
nan nan nan nan nan nan nan nan
nan nan nan nan nan nan nan nan
nan nan nan nan nan nan nan nan
nan nan nan nan nan nan nan nan
nan nan nan nan nan nan nan nan
nan nan nan nan nan nan nan nan
nan nan nan nan nan nan nan nan
nan nan nan nan nan nan nan nan
nan nan nan nan nan nan nan nan
nan nan nan nan nan nan nan nan
nan nan nan nan nan nan nan nan
nan nan nan nan nan nan nan nan
nan nan nan nan nan nan nan nan
nan nan nan nan nan nan nan nan
nan nan nan nan nan nan nan nan
nan nan nan nan nan nan nan nan
nan nan nan nan nan nan nan nan
nan nan nan nan nan nan nan nan
nan nan nan nan nan nan nan nan
nan nan nan nan nan nan nan nan
nan nan nan nan nan nan nan nan
nan nan nan nan nan nan nan nan
nan nan nan nan nan nan nan nan
nan nan nan nan nan nan nan nan
nan nan nan nan nan nan nan nan
nan nan nan nan nan nan nan nan
nan nan nan nan nan nan nan nan
nan nan nan nan nan nan nan nan
nan nan nan nan nan nan nan nan
nan nan nan nan nan nan nan nan
nan nan nan nan nan nan nan nan
nan nan nan nan nan nan nan nan
nan nan nan nan nan nan nan nan
nan nan nan nan nan nan nan nan
nan nan nan nan nan nan nan nan
nan nan nan nan nan nan nan nan
nan nan nan nan nan nan nan nan
nan nan nan nan nan nan nan nan
nan nan nan nan nan nan nan nan
nan nan nan nan nan nan nan nan
nan nan nan nan nan nan nan nan
nan nan nan nan nan nan nan nan
nan nan nan nan nan nan nan nan
nan nan nan nan nan nan nan nan
nan nan nan nan nan nan nan nan
nan nan nan nan nan nan nan nan
nan nan nan nan nan nan nan nan
nan nan nan nan nan nan nan nan
nan nan nan nan nan nan nan nan
nan nan nan nan nan nan nan nan
nan nan nan nan nan nan nan nan
-0.159292 0.109922 0.16845 0.0267219 0.0762901 0.000432686 -0.240392 0.0978438
nan nan nan nan nan nan nan nan
nan nan nan nan nan nan nan nan
nan nan nan nan nan nan nan nan
nan nan nan nan nan nan nan nan
nan nan nan nan nan nan nan nan
nan nan nan nan nan nan nan nan
nan nan nan nan nan nan nan nan
nan nan nan nan nan nan nan nan
nan nan nan nan nan nan nan nan
nan nan nan nan nan nan nan nan
nan nan nan nan nan nan nan nan
0.0749631 0.0391075 -0.0554649 -0.0592827 -0.0301879 -0.0314388 -0.0323565 0.082232
0.1311 0.0634081 -0.0106986 0.0992008 0.0345017 0.101843 0.0834215 0.129566
nan nan nan nan nan nan nan nan
-0.186604 0.0683335 -0.174396 -0.059562 0.208568 0.00104192 0.0385068 -0.047578
nan nan nan nan nan nan nan nan
nan nan nan nan nan nan nan nan
0.0192093 -0.0753458 0.0910735 -0.0897436 0.0662765 0.0647113 0.00694106 -0.0481934
0.114163 -0.126004 -0.0540252 -0.0069656 0.069619 0.110086 0.00301732 0.0411532
-0.0881234 -0.0139241 -0.183993 -0.18517 -0.127228 -0.0328817 0.026427 0.0151024
0.106085 -0.0485848 -0.157117 -0.029192 0.132599 0.0223549 0.18296 0.208555
0.0823788 -0.146795 0.0516198 0.0575409 -0.0825599 0.182258 0.102326 -0.135742
-0.018979 -0.23012 0.0281913 0.1701 -7.6244e-05 0.0177853 0.0568446 0.0466774
0.11894 -0.0214289 0.0906833 -0.0187738 -0.0227184 -0.0314272 -0.00838801 -0.0166692
nan nan nan nan nan nan nan nan
-0.0552287 0.0235464 0.000747561 -0.189031 0.104405 0.013895 -0.102207 0.128259
nan nan nan nan nan nan nan nan
nan nan nan nan nan nan nan nan
nan nan nan nan nan nan nan nan
nan nan nan nan nan nan nan nan
nan nan nan nan nan nan nan nan
nan nan nan nan nan nan nan nan
nan nan nan nan nan nan nan nan
nan nan nan nan nan nan nan nan
nan nan nan nan nan nan nan nan
nan nan nan nan nan nan nan nan
nan nan nan nan nan nan nan nan
nan nan nan nan nan nan nan nan
nan nan nan nan nan nan nan nan
nan nan nan nan nan nan nan nan
nan nan nan nan nan nan nan nan
nan nan nan nan nan nan nan nan
nan nan nan nan nan nan nan nan
nan nan nan nan nan nan nan nan
nan nan nan nan nan nan nan nan
nan nan nan nan nan nan nan nan
nan nan nan nan nan nan nan nan
nan nan nan nan nan nan nan nan
nan nan nan nan nan nan nan nan
nan nan nan nan nan nan nan nan
nan nan nan nan nan nan nan nan
nan nan nan nan nan nan nan nan
nan nan nan nan nan nan nan nan
nan nan nan nan nan nan nan nan
nan nan nan nan nan nan nan nan
nan nan nan nan nan nan nan nan
nan nan nan nan nan nan nan nan
nan nan nan nan nan nan nan nan
nan nan nan nan nan nan nan nan
nan nan nan nan nan nan nan nan
nan nan nan nan nan nan nan nan
nan nan nan nan nan nan nan nan
nan nan nan nan nan nan nan nan
nan nan nan nan nan nan nan nan
nan nan nan nan nan nan nan nan
nan nan nan nan nan nan nan nan
nan nan nan nan nan nan nan nan
nan nan nan nan nan nan nan nan
nan nan nan nan nan nan nan nan
nan nan nan nan nan nan nan nan
nan nan nan nan nan nan nan nan
nan nan nan nan nan nan nan nan
nan nan nan nan nan nan nan nan
nan nan nan nan nan nan nan nan
nan nan nan nan nan nan nan nan
nan nan nan nan nan nan nan nan
nan nan nan nan nan nan nan nan
nan nan nan nan nan nan nan nan
nan nan nan nan nan nan nan nan
nan nan nan nan nan nan nan nan
nan nan nan nan nan nan nan nan
nan nan nan nan nan nan nan nan
nan nan nan nan nan nan nan nan
nan nan nan nan nan nan nan nan
nan nan nan nan nan nan nan nan
nan nan nan nan nan nan nan nan
nan nan nan nan nan nan nan nan
nan nan nan nan nan nan nan nan
nan nan nan nan nan nan nan nan
nan nan nan nan nan nan nan nan
nan nan nan nan nan nan nan nan
nan nan nan nan nan nan nan nan
nan nan nan nan nan nan nan nan
nan nan nan nan nan nan nan nan
nan nan nan nan nan nan nan nan
nan nan nan nan nan nan nan nan
nan nan nan nan nan nan nan nan
nan nan nan nan nan nan nan nan
nan nan nan nan nan nan nan nan
nan nan nan nan nan nan nan nan
nan nan nan nan nan nan nan nan
nan nan nan nan nan nan nan nan
nan nan nan nan nan nan nan nan
nan nan nan nan nan nan nan nan
nan nan nan nan nan nan nan nan
nan nan nan nan nan nan nan nan
nan nan nan nan nan nan nan nan
nan nan nan nan nan nan nan nan
nan nan nan nan nan nan nan nan
nan nan nan nan nan nan nan nan
nan nan nan nan nan nan nan nan
nan nan nan nan nan nan nan nan
nan nan nan nan nan nan nan nan
nan nan nan nan nan nan nan nan
nan nan nan nan nan nan nan nan
nan nan nan nan nan nan nan nan
nan nan nan nan nan nan nan nan
nan nan nan nan nan nan nan nan
nan nan nan nan nan nan nan nan
nan nan nan nan nan nan nan nan
nan nan nan nan nan nan nan nan
nan nan nan nan nan nan nan nan
nan nan nan nan nan nan nan nan
nan nan nan nan nan nan nan nan
nan nan nan nan nan nan nan nan
nan nan nan nan nan nan nan nan
nan nan nan nan nan nan nan nan
nan nan nan nan nan nan nan nan
nan nan nan nan nan nan nan nan
nan nan nan nan nan nan nan nan
nan nan nan nan nan nan nan nan
nan nan nan nan nan nan nan nan
nan nan nan nan nan nan nan nan
nan nan nan nan nan nan nan nan
nan nan nan nan nan nan nan nan
nan nan nan nan nan nan nan nan
nan nan nan nan nan nan nan nan
0.0903226 -0.170847 -0.109731 0.102205 -0.146847 -0.155738 -0.17363 0.121612
nan nan nan nan nan nan nan nan
nan nan nan nan nan nan nan nan
nan nan nan nan nan nan nan nan
nan nan nan nan nan nan nan nan
nan nan nan nan nan nan nan nan
nan nan nan nan nan nan nan nan
nan nan nan nan nan nan nan nan
nan nan nan nan nan nan nan nan
nan nan nan nan nan nan nan nan
0.150912 -0.138748 0.0813845 -0.041866 -0.0283528 -0.0870958 0.0530109 0.0246353
nan nan nan nan nan nan nan nan
0.0314294 0.0146122 0.169667 -0.0772233 0.0227625 -0.0184866 0.0764401 0.0509305
0.107909 -0.0126745 -0.00714263 -0.171881 -0.118592 -0.0107642 0.043919 0.0330474
nan nan nan nan nan nan nan nan
-0.107599 0.199179 -0.0614297 -0.010613 0.000459148 0.0352104 -0.0905818 0.232168
0.193927 0.108053 0.0269246 0.0701446 0.156372 -0.213757 0.10576 -0.0589396
nan nan nan nan nan nan nan nan
nan nan nan nan nan nan nan nan
0.0410808 -0.10258 -0.0369512 0.0407074 0.00784934 0.0433523 -0.116776 0.102668
0.086242 0.0105582 -0.0237547 0.0473625 -0.0979113 -0.322111 -0.0187408 0.143
-0.11439 0.00752213 0.0953617 0.0868828 -0.053239 -0.091638 0.137551 -0.16645
0.0158947 0.0450709 -0.157902 -0.0507862 -0.0502906 -0.103514 0.078419 0.0232445
0.0727471 -0.149744 -0.0765408 0.000722049 0.00656667 0.079586 -0.071068 0.0500791
-0.183238 -0.0513361 0.00594495 0.0575863 0.0667591 -0.139324 0.116709 -0.0242008
-0.0930838 -0.0454371 -0.00981419 0.0451096 0.0574026 -0.0133195 -0.0300419 0.208208
nan nan nan nan nan nan nan nan
0.0916053 0.142896 0.0879284 0.0726756 0.0859757 -0.0886902 0.169507 0.000550109
nan nan nan nan nan nan nan nan
nan nan nan nan nan nan nan nan
nan nan nan nan nan nan nan nan
nan nan nan nan nan nan nan nan
nan nan nan nan nan nan nan nan
nan nan nan nan nan nan nan nan
nan nan nan nan nan nan nan nan
nan nan nan nan nan nan nan nan
nan nan nan nan nan nan nan nan
nan nan nan nan nan nan nan nan
nan nan nan nan nan nan nan nan
nan nan nan nan nan nan nan nan
nan nan nan nan nan nan nan nan
nan nan nan nan nan nan nan nan
nan nan nan nan nan nan nan nan
nan nan nan nan nan nan nan nan
nan nan nan nan nan nan nan nan
nan nan nan nan nan nan nan nan
-0.00203301 -0.035523 0.202947 0.0389844 0.0581543 0.0359848 -0.0158115 0.01567
nan nan nan nan nan nan nan nan
nan nan nan nan nan nan nan nan
nan nan nan nan nan nan nan nan
nan nan nan nan nan nan nan nan
nan nan nan nan nan nan nan nan
0.0336463 0.0213451 0.11979 -0.184081 -0.103919 -0.13208 0.012479 0.016317
nan nan nan nan nan nan nan nan
nan nan nan nan nan nan nan nan
nan nan nan nan nan nan nan nan
nan nan nan nan nan nan nan nan
nan nan nan nan nan nan nan nan
