#global bias W0
0
#unary interactions Wj
0
0
0
0
0
0
0
0
0
0
0
0
0
0
0
0
0
0
0
0
0
0
0
0
0
0
0
0
0
0
0
0
0
0
0
0
0
0
0
0
0
0
0
0
0
0
0
0
0
0
0
0
0
0
0
0
0
0
0
0
0
0
0
0
0
0
0
0
0
0
0
0
0
0
0
0
0
0
0
0
0
0
0
0
0
0
0
0
0
0
0
0
0
0
0
0
0
0
0
0
0
0
0
0
0
0
0
0
0
0
0
0
0
0
0
0
0
0
0
0
0
0
0
0
0
0
0
0
0
0
0
0
0
0
0
0
0
0
0
0
0
0
0
0
0
0
0
0
0
0
0
0
0
0
0
0
0
0
0
0
0
0
0
0
0
0
0
0
0
0
0
0
0
0
0
0
0
0
0
0
0
0
0
0
0
0
0
0
0
0
0
0
0
0
0
0
0
0
0
0
0
0
0
0
0
0
0
0
0
0
0
0
0
0
0
0
0
0
0
0
0
0
0
0
0
0
0
0
0
0
0
0
0
0
0
0
0
0
0
0
0
0
0
0
0
0
0
0
0
0
0
0
0
0
0
0
0
0
0
0
0
0
0
0
0
0
0
0
0
0
0
0
0
0
0
0
0
0
0
0
#pairwise interactions Vj,f
0.111718 0.0636568 -0.0513361 -0.0414892 0.18536 0.0104547 0.103413 0.0587809
0.0697145 -0.0411879 -0.0336556 0.0917521 0.0201333 0.0839204 0.0265714 0.0018263
-0.00419791 -0.0605331 -0.0487269 -0.015527 -0.0351251 0.0508026 0.00316037 0.100935
-0.0563263 -0.0185202 0.105844 0.0602821 0.148884 0.0607701 -0.0152376 -0.0457637
0.0685385 -0.0870951 0.00397647 0.0117594 -0.050812 0.0485358 0.0350571 -0.0929477
0.0300921 -0.00150587 0.00698318 0.125673 0.103577 0.122124 0.079243 -0.0200998
0.0397446 0.0699538 0.0909648 -0.0052906 0.0334785 0.0446526 -0.0469327 0.0813836
-0.0699141 -0.0297213 -0.0492237 0.114055 -0.000408383 -0.0632939 0.181287 0.0386703
-0.0806891 0.0764473 -0.0846471 -0.0455014 -0.0348431 -0.0641794 0.0393243 0.147645
0.127672 -0.108314 -0.110784 0.0199432 -0.0322507 0.00215022 0.0576776 -0.0238704
0.0675763 0.172239 -0.152333 0.0313787 0.0757042 -0.0601883 -0.0569683 -0.0820008
0.0679302 0.024922 -0.0606261 0.254042 -0.0159021 -0.0984691 0.103638 -0.0112236
0.0414858 -0.0430142 0.00555749 -0.02737 0.0408803 -0.0391289 -0.0499642 -0.0541363
-0.0442256 0.109175 -0.135926 -0.0175953 0.0692395 -0.0359555 0.0610375 -0.0261428
-0.0785346 0.15933 0.122109 0.0706351 0.0265836 0.0866597 0.041926 -0.0665105
-0.193647 -0.0295565 0.00502 -0.116959 0.0425521 -0.11172 -0.109877 0.14485
-0.0227665 0.22181 0.00658176 -0.0566943 0.0975967 -0.0485637 -0.0774727 0.0519335
0.0661836 -0.00607169 -0.0243528 0.00440346 0.136508 0.0590573 -0.000864977 0.0499804
0.0534492 -0.0950376 0.0288732 -0.00726944 0.0831363 -0.0101304 -0.0250746 -0.0253035
-0.00152273 0.0372039 0.0874955 0.0437637 -0.0105496 0.0977532 -0.0269786 -0.0151407
0.0206723 0.0222146 0.0528252 0.0651292 -0.0310104 0.0132842 0.0321962 0.0921136
0.0517922 0.102822 -0.0942256 -0.0241995 0.0101473 -0.0496783 -0.00327861 0.119227
-0.0130297 0.125053 -0.0263121 -0.0907093 -0.0571998 0.00212602 0.0827251 0.0723566
0.0814513 0.13308 0.0596482 0.00942341 -0.127313 0.0869427 -0.0693521 0.147867
-0.0195779 0.101627 0.128714 -0.0939944 0.08989 -0.0621545 -0.0066881 -0.0331674
-0.0882488 0.0446769 -0.0517775 -0.0575516 -0.00786109 0.0933407 0.0482225 -0.047319
-0.0204736 0.115795 -0.0377554 -0.103269 0.0519566 -0.0107538 0.00166356 0.098877
-0.154169 -0.0380158 -0.0845343 0.0194822 -0.0919859 -0.10877 -0.000487112 -0.0442105
-0.0212198 -0.00995973 0.0158105 -0.0319592 -0.0561292 -0.163269 -0.00369908 -0.0740109
-0.00722472 -0.0213248 0.00863411 -0.0174339 0.0301523 0.00254562 0.0964644 0.0431367
0.00593944 -0.0165963 -0.126243 0.100054 0.0350818 -0.0620049 -0.0279625 -0.0901894
0.0748308 0.16306 0.0389224 -0.0268065 0.0643547 -0.0233814 -0.0163753 -0.0526387
0.0084111 -0.0277983 -0.0556513 0.0492999 -0.0376177 -0.0387975 -0.0263042 -0.0407793
0.0525756 0.11266 0.0168198 -0.212346 0.000534827 -0.0738001 0.0126412 0.0743456
-0.216076 0.0175228 0.143043 0.0517825 0.0426546 -0.0582888 -0.135823 -0.0868589
0.11201 0.00946463 0.0688799 -0.149151 0.033413 0.00224956 -0.00880846 -0.136974
0.00538205 0.141447 -0.081806 0.00983125 -0.0498674 -0.0947086 -0.0669137 0.00362186
0.0507568 0.258852 -0.127188 0.114959 0.0538313 -0.0210011 -0.00838862 -0.1133
0.0586312 -0.035605 0.0251179 -0.144342 0.00103776 0.069719 -0.0110063 0.0495124
-0.114273 -0.0282018 -0.142744 0.150324 -0.115162 0.0168604 0.155496 0.102913
-0.102805 0.0209766 -0.0107162 -0.146288 0.0364156 -0.0878417 0.0142272 -0.0471384
0.099383 0.104682 -0.0418743 -0.014683 -0.0231379 -0.0157382 -0.0738231 0.069162
0.0780516 0.0461047 -0.0583064 -0.178336 0.070894 0.000340095 0.171086 0.0830825
-0.118168 -0.0092727 0.0371512 -0.0170865 -0.0788018 0.115826 -0.0502882 0.0862196
-0.077577 -0.00363114 -0.0497015 -0.147426 0.036041 0.0330609 -0.115356 -0.0952258
-0.123373 0.154648 -0.031572 0.0887296 -0.113474 -0.0634843 0.0822473 -0.0302436
-0.0528471 -0.00876596 0.109622 -0.0271235 0.0174683 0.00581406 -0.0155664 -0.00604036
-0.0299403 -0.0843787 0.0151356 -0.110007 -0.00405408 -0.0725236 -0.0589246 -0.0221308
0.0890674 -0.0948365 0.105744 -0.123434 0.0734551 -0.0394345 0.00823719 0.0184797
-0.053467 0.0995497 -0.0599542 0.0510161 -0.0281922 -0.0372506 -0.0503322 -0.075611
0.0595601 -0.0247146 0.0976987 0.0169486 -0.109072 0.00486398 -0.0462893 0.106672
0.010179 -0.171822 -0.0737764 -0.0577305 -0.0742129 0.0494489 0.122349 -0.0129916
0.0651607 -0.0110146 0.0900915 0.0366449 0.0268053 0.0425185 0.0363616 -0.0434917
0.144823 0.0445021 -0.0250391 -0.0193912 -0.0407345 -0.0440641 0.115372 0.0013764
-0.00707519 0.0162728 0.0562317 0.0475895 0.0674337 0.0636828 -0.0645125 0.00362151
-0.123114 0.0211197 -0.0287188 0.112905 0.0413507 -0.0590895 -0.00226772 0.0222029
0.100239 -0.00989978 -0.0951944 -0.0494072 0.028876 0.00114599 -0.0136932 0.106715
-0.0709248 -0.100301 0.170829 -0.030644 -0.0427771 -0.0887957 -0.00797314 -0.0966076
-0.14986 0.115032 -0.116117 0.0266164 0.0290956 0.108612 0.0401819 -0.164307
0.0232024 -0.0416395 0.0938798 -0.0217765 -0.0158095 0.0365441 0.0260806 0.133958
-0.0238711 0.0613567 -0.0372972 0.0704199 0.0267142 -0.0381996 -0.158331 0.0886619
-0.0504726 -0.0260385 -0.00921491 0.0187363 0.00406256 0.066937 0.0945755 -0.128609
-0.0582623 0.136632 -0.00918008 -0.0546066 -0.13635 -0.0165962 0.012191 -0.0450276
-0.0795535 -0.0272873 0.00834615 0.0100936 -0.115095 -0.0266797 0.0321113 0.0657651
0.0693227 -0.00889231 -0.145138 -0.129617 0.0219481 -0.0296321 -0.23859 0.0396067
-0.163779 -0.0992298 -0.128824 0.131318 0.136504 0.129701 -0.0678769 -0.00182314
0.0405075 0.0242929 0.00414803 -0.0683267 0.0607893 0.0206953 -0.0766736 0.00892392
0.00454576 -0.0126671 -0.0613583 -0.0679811 0.0469458 -0.0133455 0.0589499 0.0529038
0.0123838 -0.0522482 -0.0418209 0.0743916 -0.171172 0.0772018 -0.103198 0.0375089
-0.0472468 -0.0388345 0.216701 0.00508749 -0.0844073 0.0675114 -0.00986585 -0.0239588
0.0191753 -0.0277064 -0.0721829 -0.0414538 -0.126153 0.000942104 0.0112482 -0.111174
0.0962257 -0.0317155 0.0224777 0.101415 -0.0274017 -0.0793593 -0.0656935 0.0392655
-0.0599117 -0.00165106 -0.024607 -0.104732 0.206164 -0.0188889 0.0815832 -0.0655177
-0.00412149 -0.0481402 -0.114584 0.00986399 0.0957605 0.0430753 -0.0703893 0.0566197
-0.0395246 -0.0363702 0.114119 -0.0170757 0.00960305 -0.0222021 -0.00087781 0.0325311
-0.0104054 0.026597 0.21019 -0.0265338 -0.0169765 -0.152145 0.0311627 0.0168338
-0.00967448 0.162195 -0.142035 0.0488282 -0.0308048 -0.0268996 0.0150796 -0.0670946
-0.0359519 0.0290956 0.0469676 0.0634726 -0.271581 0.0288065 0.135241 0.0783375
0.0296227 -0.103833 -0.00124173 -0.0335998 0.165672 -0.0258829 0.00576833 -0.0553851
0.00881125 0.0196591 -0.0731023 -0.0185528 0.0853279 -0.0769733 0.0234319 -0.0311534
-0.000265368 -0.0778125 -0.0549015 0.038628 -0.112408 -0.0786451 0.0273365 -0.086497
0.00741454 0.153237 -0.02259 -0.0524206 0.000981931 0.134132 0.00192116 -0.0138815
0.146415 0.0415683 -0.132011 -0.0112654 -0.00471803 -0.0341964 -0.0394522 0.101885
-0.0488321 0.0222569 0.18269 0.0254528 -0.065409 0.0364084 0.0410482 0.0580855
0.0217304 0.0428325 0.080295 -0.0569268 0.0790005 -0.00199579 -0.0507655 -0.0526405
-0.107605 -0.0928513 -0.0642526 -0.0477754 0.207163 0.0094285 0.0527753 0.0864473
0.135015 -0.0490781 0.0258316 0.00194409 0.0725375 0.0370572 -0.031139 -0.0222522
0.0235092 0.0104906 0.0250593 0.0122759 0.030219 0.128266 0.0191061 -0.0663494
-0.00754912 -0.00657399 -0.226618 0.0771883 0.114722 -0.0265388 0.190363 0.125555
0.0278373 -0.0798437 -0.0286162 -0.0515434 -0.141796 0.0444237 -0.019536 0.119335
-0.0857601 0.00752427 -0.0123666 0.0257059 -0.0815458 0.0877533 0.0266542 -0.0112623
-0.019452 0.0980195 -0.0123901 -0.0782259 0.102399 -0.0925573 -0.0282154 0.0450046
0.08852 0.127783 -0.186002 -0.100444 -0.0469827 0.0525908 0.0545565 -0.0593559
0.0377134 0.0687786 0.036866 -0.058413 0.0126174 0.0299967 0.00686394 0.00854728
0.0342904 0.158397 -0.061192 0.039068 0.00380241 0.0438404 0.00980516 0.0100399
-0.0911384 -0.0441626 0.00833193 0.0556471 0.0248597 -0.0335154 0.00805476 -0.023647
-0.0479382 0.076471 0.07829 -0.0417526 -0.0432936 -0.0773586 -0.0978328 -0.0950053
0.149752 -0.0110379 -0.00639278 0.000331334 0.0110168 0.00693091 -0.00550628 -0.0211284
-0.0565351 -0.0272315 -0.12543 0.015726 -0.074163 -0.0482741 -0.0389328 0.0255363
-0.0210033 -0.188896 0.0609703 0.12808 0.106427 -0.0614762 -0.130946 0.171249
-0.146929 -0.0124902 -0.0392613 0.107616 0.0277192 -0.00142049 -0.00586264 0.0215763
-0.159292 0.102642 -0.0777605 -0.033182 -0.129632 0.0417168 0.0406634 -0.00184611
-0.122921 -0.0638975 -0.0168959 0.0294549 0.051604 0.00642123 0.0163266 -0.0964444
0.0618885 0.0427948 0.0201816 -0.0858567 -0.0168107 -0.15509 0.039821 0.0832745
0.0415414 -0.0457936 0.00108361 0.0574527 -0.0712428 -0.0597267 -0.00639938 -0.111375
0.0347214 -0.147956 -0.0277096 -0.00823632 -0.00304729 0.100436 -0.0215763 -0.0836839
-0.118723 0.0724276 0.0557925 -0.0839372 0.0332733 -0.0494649 0.114701 -0.0107957
-0.00381553 -0.0864132 0.0654167 0.0177029 0.0163056 -0.109911 -0.0415459 -0.0117117
-0.00486927 0.0012732 -0.0115962 -0.227603 -0.0626149 0.0325512 0.0346751 0.0139677
-0.041924 0.0668868 0.0193553 0.100029 0.0585717 0.00441853 -0.0817176 -0.140991
-0.0209566 0.0286017 -0.0536866 -0.033523 0.0821257 -0.0797728 0.0452673 0.0808996
0.0634649 -0.065868 0.154626 0.114775 0.0110206 0.0606707 -0.00624395 0.0710491
0.0924884 0.0635156 -0.135097 -0.164668 -0.108938 0.134392 -0.10561 0.115966
0.0749631 0.0377454 -0.00917712 -0.0398069 0.0504949 -0.14586 0.144878 0.012479
0.0971068 -0.0642247 0.032352 0.0127483 0.0974757 0.00805617 -0.00431112 0.102858
-0.0264315 -0.0804835 0.0693181 -0.0113558 -0.0141561 -0.0236464 0.0707973 0.127491
-0.186604 -0.16932 -0.153136 -0.038594 -0.173318 0.0551266 0.097026 -0.0171893
-0.153813 0.054378 -0.0171364 -0.034322 -0.00540665 0.131405 -0.0610789 -0.094929
0.0714341 0.0814203 0.120515 -0.0450294 -0.0351497 -0.0280391 0.115523 -0.0512718
0.0192093 -0.120875 0.0508043 -0.0814821 -0.0716138 -0.111298 -0.14788 -0.0838461
0.0845612 -0.0389646 -0.102506 0.0286331 -0.0989598 -0.0695409 -0.0125088 0.103548
-0.0652736 -0.065346 -0.0419941 -0.00403389 -0.112645 0.0353745 -0.0678068 0.0255574
0.0785776 -0.0229127 -0.019844 -0.0738909 -0.0156329 -0.0453395 0.12444 0.0553037
0.0610186 -0.0447279 -0.0254611 0.135984 0.0803404 0.0428499 0.0804352 -0.022611
-0.0140579 -0.0381709 0.0115484 0.0547076 0.0339254 -0.0257664 0.00420356 0.0846941
0.0880994 0.0270589 0.0330806 0.0104346 0.095332 0.00588215 -0.0284354 0.0697587
0.116487 -0.137685 -0.000626437 0.0372914 -0.109002 -0.0636375 -0.132496 0.0847218
-0.0409083 -0.0183107 0.00149699 -0.13808 0.0224089 0.131514 0.0597138 0.0303259
-0.0648156 0.0551841 -0.0770376 -0.0199909 0.0221685 0.193326 -0.0235422 0.160055
0.0443508 0.0488807 0.041073 -0.103618 0.0134448 -0.0383388 -0.0230115 0.064761
-0.090013 0.0289672 -0.0111451 -0.0191649 0.054246 -0.0937349 -0.0194333 0.0159832
-0.1629 0.0469668 -0.112205 -0.0754441 -0.059536 -0.0883554 0.0284111 -0.0881919
-0.000679912 -0.119427 0.0590469 0.0326329 0.127529 -0.105432 -0.0446874 -0.0810575
-0.0610097 0.0506151 0.0279631 -0.0425165 -0.0189998 -0.0224505 -0.0676565 -0.0453543
0.0589701 -0.00750496 0.0142911 0.125114 0.16731 0.0123708 -0.0357544 0.00131904
-0.0944101 -0.00950366 0.124772 0.0302028 -0.0169959 -0.102555 -0.0927475 -0.20387
-0.019338 -0.0558092 -0.169333 0.0400103 -0.0138385 0.0987603 -0.0138654 0.0392359
0.023737 -0.093332 -0.0268227 0.0169713 -0.0969899 0.081694 -0.0872796 -0.0630704
-0.0521861 -0.0103137 -0.0452815 -0.121181 0.0132698 0.0251471 0.0229901 0.0964507
0.0266035 -0.0359871 0.072657 0.0774106 0.074798 0.0455633 0.0650892 0.0020346
-0.172675 -0.108732 -0.105266 -0.0747599 -0.0229726 0.0823536 0.0347971 0.108241
0.0562961 -0.170452 0.0108668 0.123629 -0.0495649 -0.0546863 0.0372379 -0.00827494
-0.0151936 -0.0158726 0.0156773 0.065976 0.0922127 -0.0265921 0.0363578 -0.0206505
-0.0804189 0.0893352 0.0940549 -0.0322782 0.0598337 0.042433 -0.0388774 0.0447607
0.109789 0.017441 0.00313074 -0.0424574 -0.0491685 0.256973 0.0399264 -0.074451
-0.0700663 -0.00867304 -0.0365778 0.0614909 -0.0237704 0.127079 0.0545236 -0.0253439
0.0713162 0.0238926 -0.0426335 -0.0959643 -0.0344623 -0.0345991 0.10247 0.0600665
0.0265336 -0.0108352 -0.0410833 0.0565142 -0.0531486 -0.143025 -0.0871795 -0.0112301
0.0923343 0.013877 -0.00792452 0.0474755 -0.110084 -0.0489386 -0.0567534 -0.052266
-0.0181305 -0.0592255 0.152479 0.117427 -0.144796 0.0247625 -0.0595991 0.0386505
0.0107847 0.0703361 -0.129176 -0.0997966 -0.0221079 0.00735973 -0.052698 -0.0041789
0.040998 -0.0126983 0.0517325 -0.0562918 -0.0949771 -0.0770568 -0.062359 -0.0214573
-0.0661991 -0.0178149 -0.01829 0.0197931 0.0697369 0.0654186 0.00523203 0.0170144
-0.100614 -0.0731441 0.0674588 -0.010256 0.0533075 -0.0347049 0.0571648 0.0369378
-0.0163504 -0.011245 -0.0400169 0.0459485 -0.0251127 0.00819568 0.0449698 -0.0376784
0.116521 -0.109058 -0.136285 -0.0206664 -0.0266611 -0.0169535 -0.0386105 -0.0737923
0.0517079 -0.0310758 -0.116378 0.065901 -0.0732862 -0.148738 0.0335847 -0.00151925
0.068273 -0.0538131 0.0382352 0.0836065 0.0736387 0.115113 0.0745199 0.0173325
-0.0918072 -0.112238 0.0208815 0.0310844 0.0401908 0.0119903 -0.0241802 0.0496822
-0.0281821 -0.00841496 0.0671698 0.0614843 0.00316066 0.0987315 -0.012476 -0.0751768
0.0625752 -0.0699793 0.00373134 0.0451223 -0.000864914 -0.0956621 0.0562413 0.0841524
0.0320098 0.0935775 0.000553724 0.0626494 -0.0332994 0.0027225 -0.0214698 0.0431836
0.0893767 0.086222 -0.0775624 0.0263841 -0.087444 -0.0108505 0.140282 0.0011143
0.0782896 0.138206 0.0276281 0.00159978 0.177986 0.0501049 -0.0736798 -0.0288013
0.0814938 -0.0774875 0.119745 -0.0439111 0.0436626 -0.00360298 -0.0236474 0.00207563
0.0172495 0.0881624 -0.0573179 0.0734787 -0.137636 -0.0764141 -0.0158902 0.0716303
-0.0566983 -0.0700946 0.00451486 0.066335 -0.0648601 0.0440553 0.0238842 -0.0763448
0.124052 -0.0200213 0.03883 -0.044118 -0.051427 -0.0668193 0.00610107 0.0431476
-0.0842659 0.0139383 0.106493 0.100416 0.0902294 0.0837276 -0.00501963 0.118731
0.0155737 0.049615 -0.109774 -0.0711815 0.0565086 0.0234243 0.00838094 0.0809667
-0.0431336 -0.0789798 0.00415591 -0.0664737 -0.074661 0.0265191 0.0487351 0.0183886
0.0569161 0.0378931 -0.104695 -0.00515947 0.0569858 -0.0114708 -0.0232691 0.0295323
0.119959 -0.0525749 -0.0643 -0.137157 0.00572549 -0.0011348 -0.00580782 0.0519721
-0.0552463 0.0564485 0.0645758 -0.0216227 0.0269935 -0.00669504 0.0703795 0.0464406
0.121499 -0.1918 0.157302 0.042621 0.0119474 -0.0253169 0.0240975 0.0231419
-0.121437 -0.152207 -0.0109771 0.125995 0.0107247 0.0514722 -0.0327624 0.00631569
-0.0823924 0.111279 0.0097405 -0.0139059 -0.0156327 0.136509 -0.0422059 0.115869
0.017672 -0.0651339 0.078952 0.0305856 0.0157413 0.0248671 0.0228255 -0.0966792
0.0882292 0.0708101 0.0636579 -0.140016 -0.0386883 0.113973 -0.0208924 -0.0515544
0.0754585 -0.133164 -0.07336 0.035572 -0.0649751 -0.000724762 -0.0434985 -0.0427581
0.0225076 0.0431678 -0.0454731 0.0299002 -0.059848 -0.0531205 -0.0330606 0.122321
0.13529 0.0772711 0.108661 0.0216665 -0.0247133 -0.0754276 0.0193645 0.046891
0.0319126 0.047894 -0.0685001 0.143892 0.0282448 0.039189 0.0920902 -0.042259
-0.0638569 -0.0840479 0.0129762 0.0785532 -0.0585163 0.0600719 0.0544601 0.00732561
0.146825 -0.00578307 0.0622841 0.000124678 0.170744 0.0754517 0.0629593 -0.0384073
0.0283713 0.0656269 -0.00704151 -0.185691 0.00430191 0.156851 -0.0940671 -0.0391846
-0.128359 -0.074946 0.00511729 -0.0252678 0.0510007 0.000354218 0.0158268 0.058399
-0.0750899 -0.0410138 0.0102822 -0.0215627 0.0542572 -0.0595089 -0.0680705 -0.000588445
-0.0382771 0.0257905 0.00485916 -0.00287349 0.0569935 0.0513865 -0.105083 0.0178673
0.0432561 -0.211266 -0.0368199 -0.0799442 -0.104155 0.182108 0.0176312 0.085904
-0.0552789 0.0532041 0.0403473 -0.0413445 0.108552 -0.0299455 -0.0397601 -0.0462815
0.118073 0.0293875 0.0730279 -0.0605564 -0.0675875 -0.125507 -0.0465103 -0.0703445
-0.132851 0.0247614 -0.107952 -0.0653963 -6.24171e-05 -0.106266 -0.047343 0.00736656
0.102746 0.0108571 -0.0141256 0.0399101 -0.0185984 0.0094741 -0.0834335 -0.0621129
-0.123918 -0.173349 -0.16661 0.0485164 -0.101584 -0.0484297 0.0742104 -0.0584433
-0.0278592 0.0853273 -0.0380828 -0.0457481 0.0854712 -0.0469994 -0.0148484 0.0959489
0.0257371 -0.0309907 0.000872199 0.115467 0.0353368 -0.00268939 -0.0634448 0.121901
0.109737 0.0550758 -0.117554 0.0459584 -0.0453534 0.0902182 -0.0738348 0.143714
0.0735877 0.0491359 -0.0318009 -0.14952 0.0958825 -0.0257373 0.187873 0.151379
-0.040881 -0.0243513 0.0681201 -0.0857144 0.00102468 0.083374 0.000674768 -0.0221212
-0.0952038 -0.0751906 0.0690804 0.0367456 0.0641942 0.0841507 -0.0158802 -0.0550158
-0.00123104 0.119344 0.0854492 -0.133274 -0.202647 0.00085297 -0.153088 -0.00900754
-0.108958 -0.0053875 -0.0780328 -0.0302334 0.0839369 -0.0235295 0.113354 0.0963839
0.00336828 -0.0656577 -0.0443661 0.0113091 -0.0334876 0.120308 -0.196797 -0.0639746
0.0804155 -0.0240667 -0.0498956 -0.0711946 -0.0369393 0.0529759 -0.0283 -0.0452244
0.0703262 -0.164607 0.00741554 0.0484809 0.0297892 0.090122 -0.0582445 0.0987841
0.101988 0.0126478 -0.0607537 -0.0881878 0.0490177 -0.0269185 -0.119538 -0.00705534
0.0037452 -0.0170121 -0.0138094 -0.0634086 0.0510077 0.0183008 -0.106565 -0.0365702
-0.073109 -0.0312278 -0.0978579 0.0699432 -0.0908604 0.149206 -0.0521894 0.057234
0.00106971 0.102598 -0.014135 0.0323613 0.00351211 0.0145599 0.103452 -0.00947314
-0.155724 -0.121561 0.108718 -0.0681893 -0.12865 -0.0257278 0.0815835 -0.0336454
0.039178 -0.224258 -0.00626622 0.0837583 -0.101565 -0.0738215 0.0277181 -0.158279
0.1697 0.0227601 0.0319469 -0.118641 0.0929417 0.0113751 -0.0281058 -0.00695193
-0.0216116 0.0359292 -0.0797522 0.0575353 0.0267324 -0.107931 -0.0136293 -0.052535
-0.12866 0.142721 -0.141601 0.137389 0.119323 -0.0448986 0.00606176 0.0420354
-0.08353 0.0456941 0.10331 -0.173141 -0.0965938 0.0311459 -0.0264886 -0.143724
0.0172737 -0.0276402 0.0371558 0.0328693 0.101918 0.0480027 0.0682929 0.0470332
-0.185218 -0.127927 0.016705 -0.0195295 0.0156266 -0.106552 0.0444348 0.185823
-0.00714196 0.0360965 0.0985542 -0.06015 0.0142423 0.102778 0.0315235 0.110441
0.0493692 0.122492 -0.0438616 0.0210769 0.0107523 0.000259718 0.0167294 -0.0708834
-0.0388281 0.0818661 0.141554 0.0168023 0.154022 -0.0471711 0.107224 0.0800997
0.025054 0.0841959 0.0585484 0.0110952 0.115858 0.0365542 0.00568229 -0.195931
0.121733 0.0434476 0.0356259 -0.104503 -0.0697912 -0.185595 0.00247012 0.108189
0.0920039 -0.0404562 -0.0467272 -0.0856775 -0.0427015 0.106807 0.0216344 0.0681736
-0.0159191 0.0801525 -0.0873841 -0.0243752 -0.0776063 -0.112047 0.14978 -0.018594
0.0966589 -0.0254942 -0.0616582 -0.0642426 -0.0554482 0.102793 0.0837687 0.150762
-0.0941334 0.140107 0.0512673 -0.192937 0.028072 0.140273 0.0465358 -0.0244985
0.0874861 -0.134455 0.101648 -0.0785288 0.0483413 0.0149303 -0.00686683 -0.0116665
0.122895 0.109749 0.039127 0.0512845 0.175674 -0.00747204 -0.043073 -0.150954
0.0191613 -0.0527692 -0.0356198 -0.0443881 -0.0276887 -0.087307 -0.0757057 -0.0262674
-0.119345 0.10146 -0.0217032 0.00457797 -0.0619511 9.69289e-05 0.098305 -0.127135
0.0937708 0.111893 0.0798212 -0.0146853 -0.0168995 -1.10275e-05 -0.00041878 0.0155175
-0.0235229 -0.0751729 0.0317546 0.0801418 -0.0325346 0.0179126 0.133888 0.0673191
-0.113244 -0.131071 -0.0417143 0.0871014 -0.0157914 -0.0176436 0.0465601 0.0959703
-0.150981 0.122701 -0.0346749 0.0494841 0.0747005 -0.0448848 -0.0908411 -0.132992
0.103288 -0.070981 -0.160619 -0.110923 -0.00107946 0.0109753 0.0701783 -0.0389497
0.0331302 -0.0260473 -0.0399126 -0.00391539 0.0556547 -0.0287611 0.111495 -0.0734529
0.0756458 0.0635126 -0.107859 0.213373 0.0312068 -0.0325771 0.135586 -0.185164
-0.0485544 0.0516604 -0.0541619 0.133722 -0.0413149 -0.127079 0.00865543 -0.0356972
0.0669026 0.0708482 0.0748326 -0.0036294 0.0454566 0.096797 0.0222532 0.0304825
-0.221865 0.0896899 -0.0525467 0.0994163 0.115277 -0.112735 -0.040702 0.0136646
0.00421532 -0.255407 0.109912 0.0304294 -0.0889634 -0.0656896 0.156714 0.188699
0.0532394 0.047415 -0.0759869 0.111824 -0.0685003 -0.0341217 0.0557994 -0.135742
-0.1812 -0.0533567 -0.116955 0.053474 0.054582 0.0642815 -0.0107469 0.0382124
-0.0459128 -0.207579 -0.0311237 -0.0203051 0.138075 0.0498678 -0.0512582 -0.0150822
0.196279 -0.181928 -0.0912058 -0.0170355 0.0381842 0.158812 -0.0341705 0.149856
-0.00966258 0.105929 0.0772984 -0.0795714 -0.0288841 -0.0929939 0.040374 0.104999
0.0827405 0.0220915 0.0117679 -0.0028136 0.000198489 0.0321146 0.170542 0.0498645
-0.167241 0.0339977 0.116964 -0.167058 -0.0293804 -0.144748 0.0677912 0.0305852
0.123544 0.104621 -0.0676199 0.0866625 0.0418792 -0.0124793 0.00514369 -0.126291
-0.0866564 0.10102 0.0497261 0.101514 -0.00873006 0.0964571 0.0114666 0.0237776
0.0232799 0.0462641 -0.130256 0.126868 0.0828178 0.135005 0.0151919 0.0163239
0.0799292 -0.12056 -0.0369008 -0.00307644 -0.14095 0.0736533 -0.0252917 -0.0307453
0.00651675 -0.139663 0.115364 -0.0228886 0.000466355 -0.0238833 -0.0543887 -0.0674288
-0.0796993 0.0317162 -0.0452656 0.121127 -0.0686081 -0.0529734 0.112332 0.123607
0.143643 -0.0960258 -0.0596635 0.0184976 0.00153258 -0.118378 0.0341835 0.0737821
-0.0132927 -0.126547 -0.0996263 -0.0780044 0.0511173 -0.145182 0.197301 0.143707
-0.139646 0.149296 -0.23915 0.0752585 -0.0275443 0.0505267 -0.0449566 0.126717
0.0304289 0.028125 -0.0805905 0.0612243 -0.0919224 0.0859573 -0.189975 0.0446849
0.06388 -0.0792239 -0.119649 0.0549903 0.0183722 0.0935308 0.054189 -0.0238269
-0.0847295 -0.0988815 0.0814093 -0.145885 0.0737625 0.0287175 -0.00656071 0.0543733
0.0117733 0.0758622 -0.045585 -0.109439 -0.0142155 0.034051 -0.0936172 0.0421853
0.0538843 0.0416029 -0.0355729 -0.0396392 0.0551745 -0.029111 0.07337 -0.0499583
-0.135725 0.0653323 0.000303423 0.0126775 0.0305319 -0.0294747 -0.0366011 -0.081588
-0.0689478 -0.0133374 0.035319 -0.0388798 -0.0832752 0.0586032 -0.0228294 0.0625619
-0.0718608 0.00581285 -0.0332746 0.0582715 -0.106458 0.0200543 0.0370779 -0.00313232
0.0828838 -0.125538 0.00197792 0.0676788 0.0669838 -0.0610893 -0.0274391 0.0779902
0.0311802 0.0893695 0.0330988 0.0687005 0.014353 0.0109548 0.00554411 0.0377988
0.055092 0.0119623 -0.0885711 -0.0690097 0.0839932 -0.01228 -0.183288 -0.0154044
-0.112347 -0.00938811 -0.0856122 0.0102892 -0.00862615 0.028326 -0.0111009 0.0839446
0.0062001 -0.126267 -0.0677498 0.0387176 -0.0221196 -0.0636558 -0.015003 0.035649
0.0900539 0.147533 -0.0321855 0.120443 0.0549442 -0.0585289 -0.131245 0.0946891
0.0301691 0.0977654 -0.0778063 -0.00192577 0.0212591 -0.0674687 -0.0111256 0.0148438
0.089399 -0.12232 -0.0812789 0.0192602 0.0522526 0.126941 -0.0601451 -0.0631445
-0.0404116 -0.0407094 0.149413 -0.112864 0.0383189 0.129472 -0.0395063 0.0814262
-0.0382021 -0.0759815 0.0734208 -0.0222264 -0.0612836 -0.147103 -0.0184251 -0.0176055
-0.0496224 0.00782053 0.0475804 0.043782 -0.0431557 -0.0823129 0.0289217 -0.0425133
0.0536165 0.0055717 -0.0765371 -0.161164 0.0845844 0.0165928 -0.0122262 -0.123232
0.122315 0.0407798 -0.0130718 0.0459977 0.0187517 -0.0368193 -0.141885 -0.0795886
-0.0519592 -0.135487 -0.0773377 -0.0317004 0.118742 -0.0864456 -0.0546224 -0.0994306
