#global bias W0
-1903.24
#unary interactions Wj
0
0
0
0
0
0
0
0
0
0
0
0
0
0
0
0
0
0
0
0
0
0
0
0
0
0
0
0
0
0
0
0
0
0
0
0
0
0
0
0
0
0
0
0
0
0
0
0
0
0
0
0
0
0
0
0
0
0
0
0
0
0
0
0
0
0
0
0
0
0
0
0
0
0
0
0
0
0
0
0
0
0
0
0
0
0
0
0
0
0
0
0
0
0
0
0
0
0
0
0
-566.669
-638.192
0
-580.995
-401.074
-641.725
-550.891
-633.061
-632.613
0
0
0
0
0
0
0
-561.82
-569.001
-8.79359e+14
-8.7941e+14
-84063.3
-913.557
-53934.6
-12623.1
-4989.92
-913.557
-84063.3
0
0
0
0
0
0
0
0
0
0
0
0
0
0
0
0
0
0
0
0
0
0
0
0
0
0
0
0
0
0
0
0
0
0
0
0
0
0
0
0
0
0
0
0
0
0
0
0
0
0
0
0
0
0
0
0
0
0
0
0
0
0
0
0
0
0
0
0
0
0
0
0
0
0
0
0
0
0
0
0
0
0
0
0
0
0
0
0
0
0
0
0
0
0
0
0
0
0
0
0
-714688
-9494.33
0
-555.286
-630.571
-553.792
-550.187
-580.219
0
-539.766
-6.88128e+07
0
-2414.37
-2414.37
-579.94
0
-539.09
-139702
-541.181
-565.712
-541.181
-565.949
-466.263
-641.725
-541.181
-555.927
-632.67
-632.613
0
0
0
0
0
0
0
-583.644
-484.512
-583.644
-269.527
-336.562
-638.291
-583.644
-319.965
0
-638.291
-115654
-560.047
-105082
-33752.6
-5080.23
-560.047
-115654
-289363
-422.536
-2.09754e+06
-422.536
-289363
-591.859
0
-609.811
0
-86379.9
-1.71586e+07
-13057.1
0
-11837.7
-579.39
0
-591.859
0
-634.826
-637.707
-634.199
-630.567
-614.808
-641.988
0
-299.474
0
0
-520.991
0
0
-610.101
0
0
0
0
-519.702
-628.705
0
0
-634.476
-630.666
-624.121
0
0
0
-3067.31
-6886.6
0
-5593.68
-2271.89
#pairwise interactions Vj,f
-116.905 -18.594 -2.07851 13.3876 207.769 -71.0549 -251.516 -37.1397 16.9061 46.3855
-11.3185 8.65891 -108.693 -15.2043 -49.2584 8.03754 -119.699 80.0846 64.977 -207.084
141.395 -13.7985 109.564 60.2495 -77.5934 -104.078 -28.9476 52.6644 11.8395 33.3174
-23.4565 -46.5765 9.76031 -4.318 102.54 53.4142 138.996 88.2762 125.642 110.238
-147.073 16.2933 -48.6851 -47.5556 58.5237 -149.112 -74.7602 110.784 35.9316 123.625
38.5018 87.9497 -121.002 -100.728 37.7869 93.2538 154.823 -88.0806 24.7228 -154.551
-24.7787 -29.8656 37.5635 -296.215 -95.0148 102.888 -117.344 16.171 -3.48545 179.642
78.8694 -111.712 -137.438 163.54 -123.645 68.0946 19.3538 -85.4574 -243.909 101.857
-36.3118 -26.686 131.718 30.2784 4.74123 156.909 -122.903 -77.8579 56.5774 -50.7505
28.1398 5.64098 -147.384 -89.0558 151.831 75.0761 132.99 128.695 -95.0687 -84.4772
153.733 -157.812 -139.302 -98.4414 144.247 59.746 -29.6973 205.079 30.2027 21.8604
-7.46962 76.9395 -166.12 43.8041 156.926 -49.9816 -9.09279 15.2363 -176.103 -58.7713
71.8449 -43.8599 -71.9782 -66.1078 -153.382 153.342 -118.595 143.072 130.812 70.0048
161.109 -73.7826 -66.1359 32.2439 97.0039 103.055 -210.709 -148.964 2.31725 -8.78308
-25.4711 118.668 13.1555 109.053 85.8181 163.173 35.7176 -95.3057 -84.8063 -89.8152
-82.5232 -71.2751 -221.478 47.4105 0.849965 -60.8307 -115.217 -101.331 142.413 -54.1144
118.661 -13.3954 49.3144 -23.5818 86.1801 72.9049 -74.8327 -31.041 -185.945 -79.6985
-174.268 -108.689 -7.53096 -106.012 -65.3041 101.034 55.168 23.4955 -48.0729 -2.65245
-166.533 5.54083 -199.23 98.373 -184.306 52.4371 112.721 -68.3107 -31.7963 104.619
19.1507 119.031 10.7101 140.236 -158.233 -53.4389 -56.1705 217.708 -128.138 -61.5071
38.6802 -37.6225 2.30959 101.003 -102.566 24.8381 -72.3743 49.3602 -16.3367 -17.4493
112.447 88.056 37.4996 81.2596 49.3914 11.4445 196.884 -66.1896 116.009 -133.203
-292.889 -49.241 42.5318 -156.081 22.1619 -65.6095 -169.471 16.1976 -41.4129 69.8289
-52.821 -107.812 -41.8159 118.77 -52.7226 -6.41981 -63.2869 -134.177 -5.35706 93.0426
-18.6531 -115.102 -47.2254 29.1984 -108.606 -114.426 -57.5365 -43.0229 -193.4 9.58446
73.4198 33.3503 -116.589 117.422 98.1346 -63.9234 103.638 16.0203 -104.898 90.2373
-239.18 5.75031 84.0018 -27.2627 -71.2563 116.821 102.726 136.101 -49.9764 -7.26652
107.976 -13.0876 0.676622 157.677 73.976 -97.5292 -199.992 1.70682 135.936 -83.4202
182.318 65.4598 108.465 -47.3987 46.9777 -25.9313 -89.1652 -19.3981 -200.347 10.4495
68.4918 -172.252 -1.25963 -30.6293 -148.727 -87.8152 -239.088 -78.1106 -108.522 -63.1018
-56.3102 -28.5668 70.6441 -135.408 147.801 81.1986 -41.4838 -250.795 48.57 -128.282
73.4943 11.44 18.5043 -44.3693 124.034 19.6303 -90.2739 -115.325 -165.609 31.4992
30.7767 -56.5161 242.229 -139.726 -36.8371 -14.0822 255.386 134.998 -114.446 -106.029
-87.8531 -203.262 39.5659 79.9818 -232.943 -177.506 -84.1518 36.5978 77.8459 88.4262
-79.2939 16.6948 -119.062 -132.516 26.0537 63.981 -23.6539 -47.0148 -99.6558 -58.636
-33.9648 19.8534 -229.254 -137.704 -85.5738 -13.8826 25.401 71.7646 -58.9841 100.808
-219.767 -91.2798 -22.6402 50.979 41.7216 181.171 87.1346 81.4173 -6.87629 -17.5818
-24.6633 0.812392 -110.752 140.959 28.8337 -150.543 -159.977 107.436 -71.2073 111.479
18.1473 -71.5254 -18.1642 -171.807 8.48744 35.6089 -60.5449 103.505 -46.4187 -17.7269
78.247 5.27842 -49.8563 38.4947 187.713 76.8403 -77.8166 -60.0487 -61.8196 197.018
-69.292 169.402 52.3181 -82.8932 63.2428 -78.8917 72.8822 11.8198 65.5836 204.278
34.899 -27.4074 150.514 30.4158 -98.5085 -75.4677 118.088 160.065 -69.002 89.5328
-164.689 -193.734 215.433 -31.5562 31.6583 -87.2121 31.5679 24.4173 -103.44 79.7494
-70.3458 49.5242 56.236 -71.7195 -214.617 -72.6859 -29.5392 18.4583 6.61341 163.976
36.2366 42.905 121.313 43.1612 -60.1166 166.432 18.1798 60.5487 104.353 31.6532
148.584 -188.396 126.514 -194.168 48.001 -13.8692 -226.083 -183.177 41.5071 -72.8317
215.054 -87.3256 -49.735 -127.022 -183.479 -5.34035 -57.7225 -117.559 169.243 285.767
-146.791 -21.4245 -52.0978 86.9222 -2.69667 85.055 -40.2705 -5.48919 118.331 145.922
142.48 135.357 -22.8457 -118.972 236.934 -114.943 -248.822 23.2399 120.766 157.556
135.276 -63.1385 70.1271 99.9622 59.6552 -82.8253 39.3609 -93.2225 196.47 -115.128
-9.37769 -55.9848 -62.1427 -55.8782 -97.1659 44.0419 130.767 -104.817 -8.69205 33.6024
-130.221 -11.3789 138.451 82.9302 -78.9921 35.2719 -7.80301 26.8407 9.52315 -33.0958
-132.519 108.372 47.0153 -66.4766 -26.0475 -37.8995 -30.8952 -96.7689 105.887 -25.2277
168.568 213.027 -53.3837 -28.5021 -11.8979 31.1868 66.8604 55.3638 19.4819 -54.0329
89.0392 109.41 45.8306 36.9439 -28.9187 -16.5961 -16.1133 -38.4666 2.10527 -20.1241
51.6472 174.678 -147.967 71.628 11.6154 92.3803 76.17 -189.144 -60.2938 -42.1254
90.6935 -91.5502 65.0606 13.5036 86.1581 -93.2917 -5.59818 42.1376 115.761 -108.341
-255.531 -68.1903 -101.894 -131.582 -38.1296 91.8747 -106.815 -127.145 1.76512 19.8002
-163.57 -0.00753466 -3.10287 224.653 -60.917 -38.8796 138.272 -53.2192 -64.8705 -221.304
-82.9528 -93.1879 56.2996 19.9695 39.756 -166.409 38.8176 23.6925 160.087 45.832
-114.871 -70.1203 -178.596 61.1266 -55.1768 5.47908 66.7838 -43.9546 -80.9061 2.03379
225.612 -29.0023 37.9785 -130.44 -27.9473 60.4415 114.554 -15.0032 -62.8455 240.253
-163.168 175.206 46.9322 26.2022 -226.77 52.3602 -27.2941 -187.795 100.677 -133.368
48.9409 20.8549 104.566 69.5482 87.3437 91.2391 34.3031 45.0916 42.4959 -214.388
147.033 107.559 43.184 57.8614 -9.91722 -23.116 55.9764 -63.3747 12.4345 -73.7488
-51.1784 215.827 -77.7189 115.776 72.9617 -223.485 111.345 -113.476 -113.84 -8.89019
-104.707 -4.372 71.6201 -119.649 120.664 4.88923 -8.46323 -30.3817 85.6558 -11.5068
-230.735 -179.636 31.1536 -71.3753 18.761 -78.0407 -158.165 -25.5754 -25.8945 -51.5259
178.953 23.4794 97.8322 -74.9976 -20.4893 -79.6414 61.5423 -12.6602 -21.4746 -75.4147
125.994 -42.0519 29.2179 59.397 -182.674 133.482 -35.9995 47.6482 35.879 -25.1012
2.71082 -42.0122 -94.3469 55.8548 -56.4729 -116.813 -22.7289 0.367906 -98.4642 75.6004
-208.731 -20.748 -133.139 59.3667 -47.1834 41.6313 93.0045 -78.4412 89.7032 -143.891
175.76 14.3813 -159.193 7.91404 43.8645 -15.3416 24.8573 222.964 -47.7272 59.9773
-10.2851 -52.5127 -33.2284 -128.711 59.7697 -32.3085 13.3408 17.826 -35.6364 -35.7145
-15.9227 45.3665 81.3512 2.02726 2.62241 -108.074 197.486 78.7741 -69.952 -124.446
184.03 -183.441 2.65813 85.4172 38.4132 -219.351 46.2397 50.0826 -52.2439 79.2641
-118.193 -120.81 -110.974 112.196 55.3167 -47.5273 121.302 -62.5356 -141.282 31.1399
189.987 74.7785 -20.5919 19.9447 -3.12581 28.7598 125.985 -0.0245782 70.3213 -64.438
-49.1801 77.4301 44.2605 -12.289 -25.3641 -17.7373 43.7691 91.6555 40.4721 28.0411
-105.928 -51.4202 -69.2384 33.1417 -209.506 195.389 -35.6301 -106.824 -96.4541 -112.028
104.659 30.2092 -36.3535 -94.6652 -176.205 185.711 -29.8445 58.4602 16.1802 -20.4152
119.12 -107.769 -20.923 -29.0191 44.9535 86.2819 -38.0704 128.102 -3.79645 161.968
69.5976 81.5228 156.964 114.847 -105.918 194.708 1.90196 -94.2378 -20.3807 55.2799
-22.0609 53.6966 -175.651 -105.362 -15.0562 -81.8843 -77.5357 66.4208 16.853 -114.637
19.1003 25.5079 -20.6375 -62.3389 109.71 39.3057 37.7109 74.4249 43.6657 -0.257935
-27.4443 117.005 -18.3674 -69.6434 -12.5096 -196.456 -26.9419 -12.6701 122.202 39.1274
52.3279 -30.8712 116.36 -20.4145 -245.995 -51.1328 -13.9301 116.258 35.2988 79.4668
182.221 179.928 -59.6766 38.806 11.1923 10.0892 161.975 -163.692 11.3953 -29.8369
43.6264 -60.1593 -135.153 -208.886 26.0206 36.9845 79.1686 -95.7958 -162.378 93.7114
-77.2713 -41.831 22.8118 -94.5373 74.6944 9.98461 -45.8714 104.249 -132.559 -124.885
70.9176 -65.274 69.9572 -21.7053 74.3193 -38.027 -41.0628 6.54681 41.6717 -154.028
37.0623 104.866 41.7605 -71.9209 62.6825 55.3337 62.9102 -3.92694 106.151 -165.934
-102.724 -69.6148 -41.8969 -21.1318 22.2228 147.556 1.50718 54.617 54.1778 -10.3742
1.81959 130.695 -33.1028 18.8026 143.718 59.2529 -32.8996 -89.1375 -152.481 12.382
82.6119 35.4496 140.902 36.8533 22.1423 -4.38635 71.3781 17.5452 -22.8177 180.399
-15.2066 -98.1513 105.127 -86.1989 18.9177 36.454 -44.2718 61.9168 5.43487 -2.61237
-104.038 -91.4409 -225.312 111.88 -120.428 -163.416 -47.419 -138.675 74.0417 -92.9106
89.758 82.3559 104.895 41.9097 16.8899 -110.427 10.3812 91.0208 105.794 -10.4394
176.061 -108.09 163.092 -67.248 -142.179 4.46622 93.8757 -31.6058 112.592 -21.4902
-69.371 73.6797 -1.73661 18.6674 27.896 132.777 111.145 74.5782 -130.037 14.8145
-nan -nan -nan -nan -nan -nan -nan -nan -nan -nan
-nan -nan -nan -nan -nan -nan -nan -nan -nan -nan
-0.48063 109.507 -73.3702 17.2325 -115.152 41.5255 220.294 29.4818 70.0443 89.1155
-nan -nan -nan -nan -nan -nan -nan -nan -nan -nan
-nan -nan -nan -nan -nan -nan -nan -nan -nan -nan
-nan -nan -nan -nan -nan -nan -nan -nan -nan -nan
-nan -nan -nan -nan -nan -nan -nan -nan -nan -nan
-nan -nan -nan -nan -nan -nan -nan -nan -nan -nan
-nan -nan -nan -nan -nan -nan -nan -nan -nan -nan
-45.5982 193.69 115.586 39.836 33.9287 62.0862 158.903 107.375 -95.9982 -34.7649
56.1355 4.00501 24.6214 144.713 -7.70182 -142.128 -77.0714 -98.3001 -101.875 57.8646
15.5942 -131.202 77.6948 -139.369 -99.7013 123.551 -200.085 41.6814 47.489 -164.826
48.9614 108.423 41.5019 19.4771 -192.073 -110.82 85.3336 130.105 -37.9344 86.7108
118.838 -0.508802 -71.3852 -160.172 -78.529 60.2194 -60.8371 93.9876 95.5832 -225.606
-148.691 103.754 2.30451 75.5497 -55.1565 -286.273 57.5368 37.2964 -306.535 59.7783
-59.993 -57.957 -38.5205 160.924 180.618 90.9095 70.2457 -223.374 104.924 4.16568
-nan -nan -nan -nan -nan -nan -nan -nan -nan -nan
-nan -nan -nan -nan -nan -nan -nan -nan -nan -nan
-nan -nan -nan -nan -nan -nan -nan -nan -nan -nan
-nan -nan -nan -nan -nan -nan -nan -nan -nan -nan
-nan -nan -nan -nan -nan -nan -nan -nan -nan -nan
-nan -nan -nan -nan -nan -nan -nan -nan -nan -nan
-nan -nan -nan -nan -nan -nan -nan -nan -nan -nan
-nan -nan -nan -nan -nan -nan -nan -nan -nan -nan
-nan -nan -nan -nan -nan -nan -nan -nan -nan -nan
-nan -nan -nan -nan -nan -nan -nan -nan -nan -nan
-nan -nan -nan -nan -nan -nan -nan -nan -nan -nan
109.582 -2.55796 57.5799 135.211 195.311 -0.782094 18.2095 -73.7246 107.404 18.9175
-203.597 -25.8689 -143.037 131.738 -227.393 -121.173 -147.923 150.274 -94.6873 48.5117
32.5496 132.312 -92.4575 70.8161 -79.4602 -54.405 -0.71745 -35.1071 -0.78649 -46.5198
27.3423 23.9375 180.191 -0.535362 -91.1863 13.1329 -35.8525 -31.4867 5.32782 14.3431
64.3825 -176.993 23.6626 -37.3251 -154.138 -115.026 -2.89085 65.6722 -81.1502 -69.6954
-70.8137 212.167 12.2989 -111.265 -198.403 92.1352 -33.6247 -22.356 -112.269 -211.343
57.7746 -100.104 51.5231 24.4178 77.9646 53.1393 -33.6377 -253.242 -128.995 -124.195
-66.632 -63.8239 12.5623 16.3994 4.08993 -18.2997 -141.849 7.28921 -40.0146 10.8885
140.642 -42.8213 -50.751 4.83317 74.5775 -10.8609 -31.0276 96.3195 -32.6169 20.2232
15.4154 31.3341 202.811 -48.4179 -48.8575 38.7733 -144.274 74.451 18.2492 -119.218
0.738798 53.5599 -5.40136 -114.234 222.808 -10.4892 -217.758 -40.4995 5.36032 76.1474
21.9323 222.618 -16.8274 -106.926 129.096 20.4461 -30.9952 161.7 -99.1188 -79.504
60.6749 15.8472 -53.7352 -41.336 -39.541 -125.173 -344.35 -173.537 -114.701 -17.427
-22.9333 34.0869 -21.433 -134.839 -174.932 107.241 1.68794 -159.553 -0.480007 71.5142
76.4938 8.5614 179.115 108.499 -17.7132 89.5542 20.5726 -1.78769 125.385 17.1993
46.443 175.197 175.578 -86.727 -52.1874 -53.2226 -19.4052 -6.75133 -0.589432 53.1277
154.21 -133.487 106.349 -12.925 147.707 -35.0588 44.369 9.75996 -32.1763 -166.849
99.0404 -55.9219 193.927 34.419 -100.647 21.812 132.727 8.98424 -42.0845 -3.02608
71.4245 3.47962 60.7622 40.1382 10.9859 69.5514 51.0816 90.9203 0.225957 -84.7569
-35.7826 190.725 -95.908 -14.4339 -41.4187 -277.134 -34.5982 -176.281 68.2592 -91.4942
89.5096 59.6471 -62.2665 204.018 36.8462 -74.6636 37.4995 -188.758 -192.718 87.328
93.5135 110.843 57.3198 57.3502 -251.858 225.095 -47.286 -217.977 -33.5614 -31.3429
128.075 -89.795 93.2238 -3.63046 -53.8414 -86.0457 54.1973 40.9532 139.234 0.923866
-112.867 -58.2005 43.6513 -88.968 -168.735 46.8208 -0.654916 65.2887 84.3221 56.3691
-175.397 65.9604 101.823 48.5054 242.483 -7.002 231.059 -52.1527 -150.413 -154.446
68.0936 -103.583 148.258 109.467 -70.5268 118.828 -48.5367 -93.965 82.3684 143.287
17.9179 156.606 109.721 74.4796 64.6307 -84.1881 119.083 -66.9969 203.187 -169.229
63.9584 -142.51 271.079 -29.0448 125.384 -105.217 -1.86036 290.297 111.031 -121.746
-136.65 -51.4624 -40.091 13.1836 47.6496 185.172 91.4193 -38.1917 -9.63855 77.8838
68.2011 -0.0492335 171.657 80.8281 -163.403 -83.5981 -58.4986 -154.468 151.078 -61.8925
6.40872 47.5829 69.8916 -10.5491 -48.2071 1.86435 -26.3488 22.4975 -204.086 -49.9941
-113.337 65.4671 22.6171 -10.1661 -111.636 -69.5006 -38.7434 -32.6954 31.834 -209.915
-77.7578 116.114 65.4339 47.0989 24.4935 -20.8436 68.1816 26.7726 67.0377 -110.145
-71.5201 86.4263 -27.9596 86.2066 197.136 67.9868 26.0472 -5.95204 210.436 124.206
-36.8024 -64.641 35.242 25.0353 -66.5304 -63.1875 172.901 28.7976 202.416 27.9604
-56.5845 -112.496 -24.3375 37.1505 108.441 -96.6555 46.8785 62.7465 -85.5662 -7.36554
-175.804 41.484 35.0168 117.569 -204.546 -11.798 -55.1503 2.80334 -84.7709 -46.266
-250.471 23.8895 131.098 -61.04 -18.299 123.651 -38.4503 -43.6361 76.0295 17.2036
-19.4455 93.1117 -5.49274 -87.5829 -232.002 1.18682 126.841 60.212 16.9771 46.6464
30.6041 74.5176 -65.9923 -32.427 -102.465 -75.5894 27.1606 -39.1704 -155.754 -14.5158
-47.9621 -117.223 -79.3707 2.6785 -193.453 -6.66045 184.711 14.8951 -4.10417 -0.0387793
98.4327 -22.244 -46.9633 -83.4282 -0.425382 63.64 24.6159 23.2476 1.07353 160.669
-32.0509 89.1316 19.2043 111.108 -150.756 8.44777 57.2517 153.308 -131.906 -46.7713
106.893 -17.158 -189.182 -98.0457 45.8572 -48.6229 -277.675 -107.9 147.19 -9.29205
86.6898 -47.0537 -52.5027 -38.4626 -12.7867 -41.9796 -99.8267 182.587 62.7243 -149.481
110.099 -20.0075 120.866 -113.155 -172.538 69.6297 -21.6076 -25.978 -47.4921 43.674
47.2317 2.87753 -9.08523 -4.31576 -86.4203 23.7013 19.5694 -20.1354 -102.263 -14.4489
-73.0638 -128.536 -37.6584 -229.303 -55.5476 86.6347 296.638 -173.102 -141.988 39.5223
59.9352 -80.4722 -23.1383 -67.2344 95.8617 -38.2846 2.21271 170.991 23.101 -144.183
19.897 65.236 -16.0306 26.0679 166.957 -30.6933 63.479 -164.243 -27.7502 55.3962
-67.4709 -30.4368 -114.785 104.78 19.4599 -62.6995 -112.183 -62.3123 -79.3415 46.0317
-13.7973 -31.4031 125.566 -117.11 -35.7756 200.253 -83.9264 25.7297 74.9896 -6.86645
48.0071 171.44 -167.093 -296.92 -81.7516 152.9 14.6972 22.9077 -89.8043 -81.3272
179.294 -201.646 133.188 22.4699 38.9595 -34.679 91.4879 -83.936 202.744 -68.9051
-74.2068 -9.17454 -93.9787 76.8937 -19.1779 10.3164 141.817 77.2442 48.8908 40.8579
121.971 33.4729 -29.5652 -152.416 -53.0101 11.3324 0.512683 -25.7989 44.1656 -111.928
-79.3707 145.769 219.954 63.2568 130.277 -52.396 -45.0305 127.012 -152.991 20.4822
159.989 -36.1041 70.8473 102.079 -48.7922 64.5752 161.312 0.718941 -35.0558 -25.8969
125.242 -15.7925 -4.51674 -38.1814 -79.2399 62.2631 71.862 -181.22 -67.5341 108.292
13.2627 43.7187 -119.263 45.3675 -73.1671 250.302 -183.689 0.478269 -163.518 4.82226
-17.4798 -97.8313 68.6967 -85.4952 -147.751 -64.4574 -56.6241 168.521 50.4099 12.2041
102.153 16.7688 -167.303 96.1247 -63.0589 -147.968 22.3923 73.6996 113.541 191.649
-29.526 -124.26 -70.1668 -34.9372 117.634 41.7376 75.6153 18.8947 -2.11302 -150.412
72.3559 -41.3825 145.014 14.3568 -136.35 40.1776 58.1035 167.6 -51.5368 144.259
56.4726 257.046 -120.353 -91.0043 -173.047 66.6744 -23.5677 30.6739 -19.2963 -50.7886
-124.812 98.7769 -136.337 104.556 -185.726 64.1007 131.566 133.056 -52.2845 119.505
117.989 -121.396 -44.5755 -131.693 86.1918 87.499 164.572 42.7227 139.446 -25.1939
-29.022 -105.249 151.736 -100.257 -8.11309 55.4521 54.2155 48.2702 -98.1068 -1.48371
-84.1495 -48.1132 63.8369 -68.3608 -120.923 31.9717 -153.505 -140.426 203.294 48.8654
232.074 -205.227 113.103 -31.2353 -24.3687 -22.0441 2.81746 17.6394 -96.4658 132.318
238.541 -198.795 -172.761 -43.3443 -185.622 138.145 11.6902 -105.796 26.167 -6.02274
12.8342 201.605 -69.5906 161.824 6.57436 -112.441 -43.6174 -45.0018 -65.7336 -32.8343
43.7665 64.6281 -39.5187 -125.694 -46.3818 -106.878 13.8319 146.101 43.7893 -26.5833
121.834 35.0943 143.478 43.7602 -94.0391 6.72133 -5.20714 81.5866 -153.91 -21.8986
-241.147 42.9322 -74.7587 -53.1648 120.99 4.35166 176.486 80.2434 -9.14308 183.808
0.506714 0.504921 35.7318 9.18053 -22.6208 -130.168 -136.691 40.7791 -245.654 -41.574
-67.1091 28.8799 65.6169 76.5969 10.9191 97.8239 -46.2696 -60.3589 -96.5834 9.66818
-28.8682 -21.1913 -88.2967 -196.848 18.284 44.806 -130.388 213.305 82.5764 -133.184
98.9214 -103.226 28.2301 -42.6858 -165.814 -45.9585 35.5607 13.9692 94.469 -39.1484
-69.3586 54.19 20.051 -147.128 73.6106 64.9759 -131.869 139.646 15.4895 -150.581
-79.4654 -157.89 110.249 63.6111 -8.55724 150.616 17.0259 121.42 148.815 -153.087
-29.301 -75.1741 -141.346 138.911 55.9714 7.64748 132.328 106.089 20.5582 -55.9603
135.911 -7.56399 -110.671 -23.7834 51.9424 -57.7169 -27.6498 106.541 -160.824 -17.1516
60.022 11.7012 -180.883 94.5011 196.982 123.231 -76.9017 -49.2461 -24.054 -95.6405
76.8051 -64.7093 89.3753 -46.5995 -208.025 -30.0463 -71.3199 24.9113 82.7243 -43.2478
101.908 33.7631 -101.527 113.934 36.574 -73.4092 28.0036 -49.2363 -32.9391 98.2757
111.664 72.2784 38.0126 19.7851 75.59 -50.1017 -72.2587 18.7861 182.412 -38.7088
196.217 -50.5102 157.176 51.5203 41.832 107.971 149.338 -40.7416 -80.1365 80.7144
-59.0714 -119.655 -11.4226 -21.6187 11.4752 -0.305409 -82.1219 -131.201 -82.3181 -111.075
29.8022 -134.657 110.633 28.2241 -307.86 -200.643 -77.8301 -127.829 -47.9492 -55.2178
-1.26126 18.012 66.6608 -237.661 15.2019 78.64 166.092 -40.4971 192.545 -134.464
56.4094 138.254 -128.167 -39.2996 37.9698 -263.809 -28.5116 43.1563 -12.4253 137.381
-33.6148 -12.4487 -11.3226 110.794 177.083 -103.083 -124.279 -35.0177 29.8571 78.9044
116.084 64.4837 54.8029 123.505 -29.2915 113.82 -133.355 -68.1042 -107.249 -30.3847
-203.132 17.5927 63.6106 -146.184 -58.0208 -28.3577 -261.011 106.23 -180.983 -56.8562
-29.5214 -190.422 109.662 14.01 -31.6281 -130.446 73.8683 75.7644 59.5807 86.7147
54.6674 -116.21 -1.59216 124.655 145.014 -151.065 -58.9978 -13.6058 -63.7632 -64.5068
326.445 -54.6593 25.9263 12.6272 -108.006 139.918 -104.238 120.132 221.91 71.1771
-3.33665 -66.9673 -76.6354 -46.518 -16.8758 -54.2224 160.419 50.6264 24.7403 -35.9424
159.569 -148.051 52.2776 -52.5947 -21.2518 -214.139 8.89729 43.8764 32.4541 112.714
-nan -nan -nan -nan -nan -nan -nan -nan -nan -nan
-nan -nan -nan -nan -nan -nan -nan -nan -nan -nan
-39.832 -119.303 -136.576 -7.11295 30.0738 -92.7197 51.6819 -38.4849 -150.695 20.9575
-nan -nan -nan -nan -nan -nan -nan -nan -nan -nan
-nan -nan -nan -nan -nan -nan -nan -nan -nan -nan
-nan -nan -nan -nan -nan -nan -nan -nan -nan -nan
-nan -nan -nan -nan -nan -nan -nan -nan -nan -nan
-nan -nan -nan -nan -nan -nan -nan -nan -nan -nan
-92.8995 3.13639 -52.9632 27.5199 -97.1832 24.1449 259.378 113.093 -102.755 -15.7566
-nan -nan -nan -nan -nan -nan -nan -nan -nan -nan
-nan -nan -nan -nan -nan -nan -nan -nan -nan -nan
46.0505 -154.446 32.9721 -2.46167 18.631 18.5505 32.921 124.749 65.5902 -87.9342
-nan -nan -nan -nan -nan -nan -nan -nan -nan -nan
-nan -nan -nan -nan -nan -nan -nan -nan -nan -nan
-nan -nan -nan -nan -nan -nan -nan -nan -nan -nan
-113.776 -100.523 -160.172 -121.343 119.48 9.71312 -23.5967 60.6622 -37.6218 -96.0434
-nan -nan -nan -nan -nan -nan -nan -nan -nan -nan
-nan -nan -nan -nan -nan -nan -nan -nan -nan -nan
-nan -nan -nan -nan -nan -nan -nan -nan -nan -nan
-nan -nan -nan -nan -nan -nan -nan -nan -nan -nan
-nan -nan -nan -nan -nan -nan -nan -nan -nan -nan
-nan -nan -nan -nan -nan -nan -nan -nan -nan -nan
-nan -nan -nan -nan -nan -nan -nan -nan -nan -nan
-nan -nan -nan -nan -nan -nan -nan -nan -nan -nan
-nan -nan -nan -nan -nan -nan -nan -nan -nan -nan
-nan -nan -nan -nan -nan -nan -nan -nan -nan -nan
-nan -nan -nan -nan -nan -nan -nan -nan -nan -nan
-nan -nan -nan -nan -nan -nan -nan -nan -nan -nan
-54.9848 205.118 -80.4833 -116.388 56.9761 75.5202 14.8641 -54.0594 -20.0463 -178.262
-79.617 198.889 -0.0482113 45.8644 -29.9562 105.725 -156.706 208.52 60.1194 18.8114
-37.3161 -28.8662 7.29418 -13.4278 -86.4753 -215.576 -116.983 115.451 -74.3472 12.6819
-58.2653 28.0037 -169.663 96.1093 -79.6324 -32.6678 12.183 119.431 -73.474 135.329
74.4871 55.5469 -23.7236 -12.0773 -228.054 -62.4928 -100.187 228.105 -101.91 -105.357
-70.6169 48.4546 -134.838 39.7353 -8.30874 48.8186 -0.2542 -39.1366 -161.208 -110.574
-223.774 22.221 173.353 196.334 -27.1153 -26.3692 -3.65482 -9.25748 4.24881 -158.144
-nan -nan -nan -nan -nan -nan -nan -nan -nan -nan
-nan -nan -nan -nan -nan -nan -nan -nan -nan -nan
-nan -nan -nan -nan -nan -nan -nan -nan -nan -nan
-nan -nan -nan -nan -nan -nan -nan -nan -nan -nan
-nan -nan -nan -nan -nan -nan -nan -nan -nan -nan
-nan -nan -nan -nan -nan -nan -nan -nan -nan -nan
-nan -nan -nan -nan -nan -nan -nan -nan -nan -nan
-nan -nan -nan -nan -nan -nan -nan -nan -nan -nan
-77.7589 138.252 -67.9806 -28.3612 -37.2728 -6.25866 -0.393315 -118.187 -19.8924 4.31148
-nan -nan -nan -nan -nan -nan -nan -nan -nan -nan
-nan -nan -nan -nan -nan -nan -nan -nan -nan -nan
-nan -nan -nan -nan -nan -nan -nan -nan -nan -nan
-nan -nan -nan -nan -nan -nan -nan -nan -nan -nan
-nan -nan -nan -nan -nan -nan -nan -nan -nan -nan
-nan -nan -nan -nan -nan -nan -nan -nan -nan -nan
-nan -nan -nan -nan -nan -nan -nan -nan -nan -nan
-nan -nan -nan -nan -nan -nan -nan -nan -nan -nan
-nan -nan -nan -nan -nan -nan -nan -nan -nan -nan
-nan -nan -nan -nan -nan -nan -nan -nan -nan -nan
-nan -nan -nan -nan -nan -nan -nan -nan -nan -nan
-nan -nan -nan -nan -nan -nan -nan -nan -nan -nan
-nan -nan -nan -nan -nan -nan -nan -nan -nan -nan
-nan -nan -nan -nan -nan -nan -nan -nan -nan -nan
58.9558 -45.4324 22.3317 -102.838 -23.3809 -66.3639 114.703 -135.007 135.989 -111.025
-nan -nan -nan -nan -nan -nan -nan -nan -nan -nan
-4.96784 127.041 -63.8628 -89.4893 -37.2155 -8.92682 -9.40497 -17.1374 17.2989 -56.197
-nan -nan -nan -nan -nan -nan -nan -nan -nan -nan
-nan -nan -nan -nan -nan -nan -nan -nan -nan -nan
-nan -nan -nan -nan -nan -nan -nan -nan -nan -nan
-40.6811 -27.9026 103.657 98.8759 -82.1749 -258.252 -149.668 230.625 54.3493 -23.6599
-nan -nan -nan -nan -nan -nan -nan -nan -nan -nan
-nan -nan -nan -nan -nan -nan -nan -nan -nan -nan
106.457 -22.8752 -82.5845 52.6629 135.262 -35.9233 68.4024 -28.6601 82.4822 -7.81929
-nan -nan -nan -nan -nan -nan -nan -nan -nan -nan
73.2475 17.9109 -75.8283 -135.097 48.8298 43.6251 52.186 71.1444 -20.4469 99.1034
-nan -nan -nan -nan -nan -nan -nan -nan -nan -nan
-nan -nan -nan -nan -nan -nan -nan -nan -nan -nan
-nan -nan -nan -nan -nan -nan -nan -nan -nan -nan
-nan -nan -nan -nan -nan -nan -nan -nan -nan -nan
-nan -nan -nan -nan -nan -nan -nan -nan -nan -nan
-nan -nan -nan -nan -nan -nan -nan -nan -nan -nan
39.6283 48.4397 32.3133 -25.4585 -205.973 117.333 -47.9004 86.6886 11.3787 -70.8932
-nan -nan -nan -nan -nan -nan -nan -nan -nan -nan
51.5025 -99.8547 4.63218 -124.678 10.7075 -127.806 30.7602 217.085 -237.253 -85.9064
91.9792 88.2727 -62.6117 69.7405 -47.767 72.8289 81.9658 -96.4747 68.0395 -7.51168
-nan -nan -nan -nan -nan -nan -nan -nan -nan -nan
-18.4755 -80.4711 -27.5965 123.366 -133.519 130.154 46.0857 -70.9585 -32.5605 -123.939
88.8286 -77.079 -32.2841 132.552 117.659 16.0733 83.464 -95.0803 96.5382 -105.251
-nan -nan -nan -nan -nan -nan -nan -nan -nan -nan
26.1873 -97.7064 41.4202 -152.116 23.3814 -149.93 119.755 -132.375 -16.8149 72.6193
271.975 43.8772 292.168 5.92695 10.0637 -119.354 -26.2625 -60.3298 44.2665 185.071
-29.0487 -101.881 21.2155 17.9446 58.1597 84.6773 -107.278 95.317 14.693 -116.436
-123.675 -24.1477 134.75 -35.1901 41.2372 83.4021 115.475 67.7864 14.1846 -248.542
-nan -nan -nan -nan -nan -nan -nan -nan -nan -nan
-nan -nan -nan -nan -nan -nan -nan -nan -nan -nan
42.447 130.799 83.2366 79.3904 -96.7951 -56.159 97.6543 -132.68 294.183 18.2122
-80.2824 -91.192 57.7452 -55.5078 126.753 149.341 -133.71 16.7895 -144.73 31.7602
-nan -nan -nan -nan -nan -nan -nan -nan -nan -nan
-nan -nan -nan -nan -nan -nan -nan -nan -nan -nan
-nan -nan -nan -nan -nan -nan -nan -nan -nan -nan
-83.3387 49.1986 -81.399 -20.0492 66.05 135.748 -78.0318 122.783 84.2598 -42.6327
-62.1703 -129.951 49.7346 -20.3418 128.619 0.661791 48.6841 119.682 -30.0425 187.857
18.9637 158.275 183.928 65.2755 -198.951 -124.049 -115.583 -101.503 87.8243 17.4002
-nan -nan -nan -nan -nan -nan -nan -nan -nan -nan
-nan -nan -nan -nan -nan -nan -nan -nan -nan -nan
83.6147 -40.4787 -72.0233 18.0896 -7.69117 174.483 -45.8099 49.8619 -82.6323 117.297
-nan -nan -nan -nan -nan -nan -nan -nan -nan -nan
-nan -nan -nan -nan -nan -nan -nan -nan -nan -nan