#global bias W0
-1903.24
#unary interactions Wj
0
0
0
0
0
0
0
0
0
0
0
0
0
0
0
0
0
0
0
0
0
0
0
0
0
0
0
0
0
0
0
0
0
0
0
0
0
0
0
0
0
0
0
0
0
0
0
0
0
0
0
0
0
0
0
0
0
0
0
0
0
0
0
0
0
0
0
0
0
0
0
0
0
0
0
0
0
0
0
0
0
0
0
0
0
0
0
0
0
0
0
0
0
0
0
0
0
0
0
0
0
-566.669
-638.192
0
-580.995
-401.074
-641.725
-550.891
-633.061
-632.613
0
0
0
0
0
0
0
-561.82
-569.001
-8.79359e+14
-8.7941e+14
-84063.3
-913.557
-53934.6
-12623.1
-4989.92
-913.557
-84063.3
0
0
0
0
0
0
0
0
0
0
0
0
0
0
0
0
0
0
0
0
0
0
0
0
0
0
0
0
0
0
0
0
0
0
0
0
0
0
0
0
0
0
0
0
0
0
0
0
0
0
0
0
0
0
0
0
0
0
0
0
0
0
0
0
0
0
0
0
0
0
0
0
0
0
0
0
0
0
0
0
0
0
0
0
0
0
0
0
0
0
0
0
0
0
0
0
0
0
0
0
-294579
-11290.4
0
-546.975
-629.697
-571.957
-537.686
-564.561
0
-566.549
-7.1596e+07
0
-2009.72
-2009.72
-564.601
0
-565.993
-75442.2
-501.134
-594.511
-501.134
-584.899
-632.198
-640.552
-501.134
-581.515
-633.442
-632.613
0
0
0
0
0
0
0
-561.804
-617.722
-561.804
0
-569.001
-617.722
-561.804
-569.001
0
-617.722
-74919.8
-828.695
-52806.7
-10688.5
-4684.25
-828.695
-74919.8
-289363
-422.536
-2.09754e+06
-422.536
-289363
-591.859
0
-609.811
0
-86379.9
-1.71586e+07
-13057.1
0
-11837.7
-579.39
0
-591.859
0
-634.826
-637.707
-634.199
-630.567
-614.808
-641.988
0
-299.474
0
0
-520.991
0
0
-610.101
0
0
0
0
-519.702
-628.705
0
0
-634.476
-630.666
-624.121
0
0
0
-3067.31
-6886.6
0
-5593.68
-2271.89
#pairwise interactions Vj,f
-116.905 8.65891 109.564 -4.318 58.5237 93.2538 -117.344 -85.4574 56.5774 -84.4772
-11.3185 -13.7985 9.76031 -47.5556 37.7869 102.888 19.3538 -77.8579 -95.0687 21.8604
141.395 -46.5765 -48.6851 -100.728 -95.0148 68.0946 -122.903 128.695 30.2027 -58.7713
-23.4565 16.2933 -121.002 -296.215 -123.645 156.909 132.99 205.079 -176.103 70.0048
-147.073 87.9497 37.5635 163.54 4.74123 75.0761 -29.6973 15.2363 130.812 -8.78308
38.5018 -29.8656 -137.438 30.2784 151.831 59.746 -9.09279 143.072 2.31725 -89.8152
-24.7787 -111.712 131.718 -89.0558 144.247 -49.9816 -118.595 -148.964 -84.8063 -54.1144
78.8694 -26.686 -147.384 -98.4414 156.926 153.342 -210.709 -95.3057 142.413 -79.6985
-36.3118 5.64098 -139.302 43.8041 -153.382 103.055 35.7176 -101.331 -185.945 -2.65245
28.1398 -157.812 -166.12 -66.1078 97.0039 163.173 -115.217 -31.041 -48.0729 104.619
153.733 76.9395 -71.9782 32.2439 85.8181 -60.8307 -74.8327 23.4955 -31.7963 -61.5071
-7.46962 -43.8599 -66.1359 109.053 0.849965 72.9049 55.168 -68.3107 -128.138 -17.4493
71.8449 -73.7826 13.1555 47.4105 86.1801 101.034 112.721 217.708 -16.3367 -133.203
161.109 118.668 -221.478 -23.5818 -65.3041 52.4371 -56.1705 49.3602 116.009 69.8289
-25.4711 -71.2751 49.3144 -106.012 -184.306 -53.4389 -72.3743 -66.1896 -41.4129 93.0426
-82.5232 -13.3954 -7.53096 98.373 -158.233 24.8381 196.884 16.1976 -5.35706 9.58446
118.661 -108.689 -199.23 140.236 -102.566 11.4445 -169.471 -134.177 -193.4 90.2373
-174.268 5.54083 10.7101 101.003 49.3914 -65.6095 -63.2869 -43.0229 -104.898 -7.26652
-166.533 119.031 2.30959 81.2596 22.1619 -6.41981 -57.5365 16.0203 -49.9764 -83.4202
19.1507 -37.6225 37.4996 -156.081 -52.7226 -114.426 103.638 136.101 135.936 10.4495
38.6802 88.056 42.5318 118.77 -108.606 -63.9234 102.726 1.70682 -200.347 -63.1018
112.447 -49.241 -41.8159 29.1984 98.1346 116.821 -199.992 -19.3981 -108.522 -128.282
-292.889 -107.812 -47.2254 117.422 -71.2563 -97.5292 -89.1652 -78.1106 48.57 31.4992
-52.821 -115.102 -116.589 -27.2627 73.976 -25.9313 -239.088 -250.795 -165.609 -106.029
-18.6531 33.3503 84.0018 157.677 46.9777 -87.8152 -41.4838 -115.325 -114.446 88.4262
73.4198 5.75031 0.676622 -47.3987 -148.727 81.1986 -90.2739 134.998 77.8459 -58.636
-239.18 -13.0876 108.465 -30.6293 147.801 19.6303 255.386 36.5978 -99.6558 100.808
107.976 65.4598 -1.25963 -135.408 124.034 -14.0822 -84.1518 -47.0148 -58.9841 -17.5818
182.318 -172.252 70.6441 -44.3693 -36.8371 -177.506 -23.6539 71.7646 -6.87629 111.479
68.4918 -28.5668 18.5043 -139.726 -232.943 63.981 25.401 81.4173 -71.2073 -17.7269
-56.3102 11.44 242.229 79.9818 26.0537 -13.8826 87.1346 107.436 -46.4187 197.018
73.4943 -56.5161 39.5659 -132.516 -85.5738 181.171 -159.977 103.505 -61.8196 204.278
30.7767 -203.262 -119.062 -137.704 41.7216 -150.543 -60.5449 -60.0487 65.5836 89.5328
-87.8531 16.6948 -229.254 50.979 28.8337 35.6089 -77.8166 11.8198 -69.002 79.7494
-79.2939 19.8534 -22.6402 140.959 8.48744 76.8403 72.8822 160.065 -103.44 163.976
-33.9648 -91.2798 -110.752 -171.807 187.713 -78.8917 118.088 24.4173 6.61341 31.6532
-219.767 0.812392 -18.1642 38.4947 63.2428 -75.4677 31.5679 18.4583 104.353 -72.8317
-24.6633 -71.5254 -49.8563 -82.8932 -98.5085 -87.2121 -29.5392 60.5487 41.5071 285.767
18.1473 5.27842 52.3181 30.4158 31.6583 -72.6859 18.1798 -183.177 169.243 145.922
78.247 169.402 150.514 -31.5562 -214.617 166.432 -226.083 -117.559 118.331 157.556
-69.292 -27.4074 215.433 -71.7195 -60.1166 -13.8692 -57.7225 -5.48919 120.766 -115.128
34.899 -193.734 56.236 43.1612 48.001 -5.34035 -40.2705 23.2399 196.47 33.6024
-164.689 49.5242 121.313 -194.168 -183.479 85.055 -248.822 -93.2225 -8.69205 -33.0958
-70.3458 42.905 126.514 -127.022 -2.69667 -114.943 39.3609 -104.817 9.52315 -25.2277
36.2366 -188.396 -49.735 86.9222 236.934 -82.8253 130.767 26.8407 105.887 -54.0329
148.584 -87.3256 -52.0978 -118.972 59.6552 44.0419 -7.80301 -96.7689 19.4819 -20.1241
215.054 -21.4245 -22.8457 99.9622 -97.1659 35.2719 -30.8952 55.3638 2.10527 -42.1254
-146.791 135.357 70.1271 -55.8782 -78.9921 -37.8995 66.8604 -38.4666 -60.2938 -108.341
142.48 -63.1385 -62.1427 82.9302 -26.0475 31.1868 -16.1133 -189.144 115.761 19.8002
135.276 -55.9848 138.451 -66.4766 -11.8979 -16.5961 76.17 42.1376 1.76512 -221.304
-9.37769 -11.3789 47.0153 -28.5021 -28.9187 92.3803 -5.59818 -127.145 -64.8705 45.832
-130.221 108.372 -53.3837 36.9439 11.6154 -93.2917 -106.815 -53.2192 160.087 2.03379
-132.519 213.027 45.8306 71.628 86.1581 91.8747 138.272 23.6925 -80.9061 240.253
168.568 109.41 -147.967 13.5036 -38.1296 -38.8796 38.8176 -43.9546 -62.8455 -133.368
89.0392 174.678 65.0606 -131.582 -60.917 -166.409 66.7838 -15.0032 100.677 -214.388
51.6472 -91.5502 -101.894 224.653 39.756 5.47908 114.554 -187.795 42.4959 -73.7488
90.6935 -68.1903 -3.10287 19.9695 -55.1768 60.4415 -27.2941 45.0916 12.4345 -8.89019
-255.531 -0.00753466 56.2996 61.1266 -27.9473 52.3602 34.3031 -63.3747 -113.84 -11.5068
-163.57 -93.1879 -178.596 -130.44 -226.77 91.2391 55.9764 -113.476 85.6558 -51.5259
-82.9528 -70.1203 37.9785 26.2022 87.3437 -23.116 111.345 -30.3817 -25.8945 -75.4147
-114.871 -29.0023 46.9322 69.5482 -9.91722 -223.485 -8.46323 -25.5754 -21.4746 -25.1012
225.612 175.206 104.566 57.8614 72.9617 4.88923 -158.165 -12.6602 35.879 75.6004
-163.168 20.8549 43.184 115.776 120.664 -78.0407 61.5423 47.6482 -98.4642 -143.891
48.9409 107.559 -77.7189 -119.649 18.761 -79.6414 -35.9995 0.367906 89.7032 59.9773
147.033 215.827 71.6201 -71.3753 -20.4893 133.482 -22.7289 -78.4412 -47.7272 -35.7145
-51.1784 -4.372 31.1536 -74.9976 -182.674 -116.813 93.0045 222.964 -35.6364 -124.446
-104.707 -179.636 97.8322 59.397 -56.4729 41.6313 24.8573 17.826 -69.952 79.2641
-230.735 23.4794 29.2179 55.8548 -47.1834 -15.3416 13.3408 78.7741 -52.2439 31.1399
178.953 -42.0519 -94.3469 59.3667 43.8645 -32.3085 197.486 50.0826 -141.282 -64.438
125.994 -42.0122 -133.139 7.91404 59.7697 -108.074 46.2397 -62.5356 70.3213 28.0411
2.71082 -20.748 -159.193 -128.711 2.62241 -219.351 121.302 -0.0245782 40.4721 -112.028
-208.731 14.3813 -33.2284 2.02726 38.4132 -47.5273 125.985 91.6555 -96.4541 -20.4152
175.76 -52.5127 81.3512 85.4172 55.3167 28.7598 43.7691 -106.824 16.1802 161.968
-10.2851 45.3665 2.65813 112.196 -3.12581 -17.7373 -35.6301 58.4602 -3.79645 55.2799
-15.9227 -183.441 -110.974 19.9447 -25.3641 195.389 -29.8445 128.102 -20.3807 -114.637
184.03 -120.81 -20.5919 -12.289 -209.506 185.711 -38.0704 -94.2378 16.853 -0.257935
-118.193 74.7785 44.2605 33.1417 -176.205 86.2819 1.90196 66.4208 43.6657 39.1274
189.987 77.4301 -69.2384 -94.6652 44.9535 194.708 -77.5357 74.4249 122.202 79.4668
-49.1801 -51.4202 -36.3535 -29.0191 -105.918 -81.8843 37.7109 -12.6701 35.2988 -29.8369
-105.928 30.2092 -20.923 114.847 -15.0562 39.3057 -26.9419 116.258 11.3953 93.7114
104.659 -107.769 156.964 -105.362 109.71 -196.456 -13.9301 -163.692 -162.378 -124.885
119.12 81.5228 -175.651 -62.3389 -12.5096 -51.1328 161.975 -95.7958 -132.559 -154.028
69.5976 53.6966 -20.6375 -69.6434 -245.995 10.0892 79.1686 104.249 41.6717 -165.934
-22.0609 25.5079 -18.3674 -20.4145 11.1923 36.9845 -45.8714 6.54681 106.151 -10.3742
19.1003 117.005 116.36 38.806 26.0206 9.98461 -41.0628 -3.92694 54.1778 12.382
-27.4443 -30.8712 -59.6766 -208.886 74.6944 -38.027 62.9102 54.617 -152.481 180.399
52.3279 179.928 -135.153 -94.5373 74.3193 55.3337 1.50718 -89.1375 -22.8177 -2.61237
182.221 -60.1593 22.8118 -21.7053 62.6825 147.556 -32.8996 17.5452 5.43487 -92.9106
43.6264 -41.831 69.9572 -71.9209 22.2228 59.2529 71.3781 61.9168 74.0417 -10.4394
-77.2713 -65.274 41.7605 -21.1318 143.718 -4.38635 -44.2718 -138.675 105.794 -21.4902
70.9176 104.866 -41.8969 18.8026 22.1423 36.454 -47.419 91.0208 112.592 14.8145
37.0623 -69.6148 -33.1028 36.8533 18.9177 -163.416 10.3812 -31.6058 -130.037 -98.0336
-102.724 130.695 140.902 -86.1989 -120.428 -110.427 93.8757 74.5782 56.2494 -123.614
1.81959 35.4496 105.127 111.88 16.8899 4.46622 111.145 64.8559 123.489 89.1155
82.6119 -98.1513 -225.312 41.9097 -142.179 132.777 39.4972 -73.5835 70.0443 -54.9902
-15.2066 -91.4409 104.895 -67.248 27.896 82.887 102.149 29.4818 -59.3715 -47.9485
-104.038 82.3559 163.092 18.6674 -236.733 -15.8479 220.294 87.3934 33.3081 -137.046
89.758 -108.09 -1.73661 56.2309 -34.9471 41.5255 -30.5137 62.2526 -81.4887 -11.9918
176.061 73.6797 -51.8667 22.1603 -115.152 0.444002 -113.112 -50.8602 18.3792 64.3769
-69.371 100.045 -162.102 17.2325 42.9159 105.433 -121.646 33.325 199.273 251.668
-164.373 83.4122 -73.3702 26.9192 16.8802 168.231 188.788 73.4093 22.1827 -34.7649
-nan -nan -nan -nan -nan -nan -nan -nan -nan -nan
-nan -nan -nan -nan -nan -nan -nan -nan -nan -nan
-241.623 -0.242107 -44.1083 3.23363 85.5851 -31.4111 158.903 -98.3001 47.489 86.7108
-nan -nan -nan -nan -nan -nan -nan -nan -nan -nan
-nan -nan -nan -nan -nan -nan -nan -nan -nan -nan
-nan -nan -nan -nan -nan -nan -nan -nan -nan -nan
-nan -nan -nan -nan -nan -nan -nan -nan -nan -nan
-nan -nan -nan -nan -nan -nan -nan -nan -nan -nan
-nan -nan -nan -nan -nan -nan -nan -nan -nan -nan
56.1355 -131.202 41.5019 -160.172 -55.1565 90.9095 -34.2318 55.3958 64.6128 -42.6942
15.5942 108.423 -71.3852 75.5497 180.618 -81.3632 -176.903 69.5252 -115.536 51.9569
48.9614 -0.508802 2.30451 160.924 -142.383 64.4987 53.428 -70.2976 90.7268 75.2057
118.838 103.754 -38.5205 -62.5968 134.69 72.3759 63.9704 15.1061 109.45 -91.3359
-148.691 -57.957 87.5836 217.526 59.2466 -75.4171 90.1541 -37.2029 17.0278 119.525
-59.993 -30.8187 134.223 -95.3327 8.82736 86.68 78.6052 13.3828 98.3867 -63.1006
1.99245 -168.691 -4.00466 -69.6095 14.1986 -81.434 44.9191 53.539 144.348 -16.4154
-nan -nan -nan -nan -nan -nan -nan -nan -nan -nan
-nan -nan -nan -nan -nan -nan -nan -nan -nan -nan
-nan -nan -nan -nan -nan -nan -nan -nan -nan -nan
-nan -nan -nan -nan -nan -nan -nan -nan -nan -nan
-nan -nan -nan -nan -nan -nan -nan -nan -nan -nan
-nan -nan -nan -nan -nan -nan -nan -nan -nan -nan
-nan -nan -nan -nan -nan -nan -nan -nan -nan -nan
-nan -nan -nan -nan -nan -nan -nan -nan -nan -nan
-nan -nan -nan -nan -nan -nan -nan -nan -nan -nan
-nan -nan -nan -nan -nan -nan -nan -nan -nan -nan
-nan -nan -nan -nan -nan -nan -nan -nan -nan -nan
-203.597 132.312 180.191 -37.3251 -198.403 53.1393 -141.849 96.3195 18.2492 76.1474
32.5496 23.9375 23.6626 -111.265 77.9646 -18.2997 -31.0276 74.451 5.36032 -79.504
27.3423 -176.993 12.2989 24.4178 4.08993 -10.8609 -144.274 -40.4995 -99.1188 -17.427
64.3825 212.167 51.5231 16.3994 74.5775 38.7733 -217.758 161.7 -114.701 71.5142
-70.8137 -100.104 12.5623 4.83317 -48.8575 -10.4892 -30.9952 -173.537 -0.480007 17.1993
57.7746 -63.8239 -50.751 -48.4179 222.808 20.4461 -344.35 -159.553 125.385 53.1277
-66.632 -42.8213 202.811 -114.234 129.096 -125.173 1.68794 -1.78769 -0.589432 -166.849
140.642 31.3341 -5.40136 -106.926 -39.541 107.241 20.5726 -6.75133 -32.1763 -3.02608
15.4154 53.5599 -16.8274 -41.336 -174.932 89.5542 -19.4052 9.75996 -42.0845 -84.7569
0.738798 222.618 -53.7352 -134.839 -17.7132 -53.2226 44.369 8.98424 0.225957 -91.4942
21.9323 15.8472 -21.433 108.499 -52.1874 -35.0588 132.727 90.9203 68.2592 87.328
60.6749 34.0869 179.115 -86.727 147.707 21.812 51.0816 -176.281 -192.718 -31.3429
-22.9333 8.5614 175.578 -12.925 -100.647 69.5514 -34.5982 -188.758 -33.5614 0.923866
76.4938 175.197 106.349 34.419 10.9859 -277.134 37.4995 -217.977 139.234 56.3691
46.443 -133.487 193.927 40.1382 -41.4187 -74.6636 -47.286 40.9532 84.3221 -154.446
154.21 -55.9219 60.7622 -14.4339 36.8462 225.095 54.1973 65.2887 -150.413 143.287
99.0404 3.47962 -95.908 204.018 -251.858 -86.0457 -0.654916 -52.1527 82.3684 -169.229
71.4245 190.725 -62.2665 57.3502 -53.8414 46.8208 231.059 -93.965 203.187 -121.746
-35.7826 59.6471 57.3198 -3.63046 -168.735 -7.002 -48.5367 -66.9969 111.031 77.8838
89.5096 110.843 93.2238 -88.968 242.483 118.828 119.083 290.297 -9.63855 -61.8925
93.5135 -89.795 43.6513 48.5054 -70.5268 -84.1881 -1.86036 -38.1917 151.078 -49.9941
128.075 -58.2005 101.823 109.467 64.6307 -105.217 91.4193 -154.468 -204.086 -209.915
-112.867 65.9604 148.258 74.4796 125.384 185.172 -58.4986 22.4975 31.834 -110.145
-175.397 -103.583 109.721 -29.0448 47.6496 -83.5981 -26.3488 -32.6954 67.0377 124.206
68.0936 156.606 271.079 13.1836 -163.403 1.86435 -38.7434 26.7726 210.436 27.9604
17.9179 -142.51 -40.091 80.8281 -48.2071 -69.5006 68.1816 -5.95204 202.416 -7.36554
63.9584 -51.4624 171.657 -10.5491 -111.636 -20.8436 26.0472 28.7976 -85.5662 -46.266
-136.65 -0.0492335 69.8916 -10.1661 24.4935 67.9868 172.901 62.7465 -84.7709 17.2036
68.2011 47.5829 22.6171 47.0989 197.136 -63.1875 46.8785 2.80334 76.0295 46.6464
6.40872 65.4671 65.4339 86.2066 -66.5304 -96.6555 -55.1503 -43.6361 16.9771 -14.5158
-113.337 116.114 -27.9596 25.0353 108.441 -11.798 -38.4503 60.212 -155.754 -0.0387793
-77.7578 86.4263 35.242 37.1505 -204.546 123.651 126.841 -39.1704 -4.10417 160.669
-71.5201 -64.641 -24.3375 117.569 -18.299 1.18682 27.1606 14.8951 1.07353 -46.7713
-36.8024 -112.496 35.0168 -61.04 -232.002 -75.5894 184.711 23.2476 -131.906 -9.29205
-56.5845 41.484 131.098 -87.5829 -102.465 -6.66045 24.6159 153.308 147.19 -149.481
-175.804 23.8895 -5.49274 -32.427 -193.453 63.64 57.2517 -107.9 62.7243 43.674
-250.471 93.1117 -65.9923 2.6785 -0.425382 8.44777 -277.675 182.587 -47.4921 -14.4489
-19.4455 74.5176 -79.3707 -83.4282 -150.756 -48.6229 -99.8267 -25.978 -102.263 39.5223
30.6041 -117.223 -46.9633 111.108 45.8572 -41.9796 -21.6076 -20.1354 -141.988 -144.183
-47.9621 -22.244 19.2043 -98.0457 -12.7867 69.6297 19.5694 -173.102 23.101 55.3962
98.4327 89.1316 -189.182 -38.4626 -172.538 23.7013 296.638 170.991 -27.7502 46.0317
-32.0509 -17.158 -52.5027 -113.155 -86.4203 86.6347 2.21271 -164.243 -79.3415 -6.86645
106.893 -47.0537 120.866 -4.31576 -55.5476 -38.2846 63.479 -62.3123 74.9896 -81.3272
86.6898 -20.0075 -9.08523 -229.303 95.8617 -30.6933 -112.183 25.7297 -89.8043 -68.9051
110.099 2.87753 -37.6584 -67.2344 166.957 -62.6995 -83.9264 22.9077 202.744 40.8579
47.2317 -128.536 -23.1383 26.0679 19.4599 200.253 14.6972 -83.936 48.8908 -111.928
-73.0638 -80.4722 -16.0306 104.78 -35.7756 152.9 91.4879 77.2442 44.1656 20.4822
59.9352 65.236 -114.785 -117.11 -81.7516 -34.679 141.817 -25.7989 -152.991 -25.8969
19.897 -30.4368 125.566 -296.92 38.9595 10.3164 0.512683 127.012 -35.0558 108.292
-67.4709 -31.4031 -167.093 22.4699 -19.1779 11.3324 -45.0305 0.718941 -67.5341 4.82226
-13.7973 171.44 133.188 76.8937 -53.0101 -52.396 161.312 -181.22 -163.518 12.2041
48.0071 -201.646 -93.9787 -152.416 130.277 64.5752 71.862 0.478269 50.4099 191.649
179.294 -9.17454 -29.5652 63.2568 -48.7922 62.2631 -183.689 168.521 113.541 -150.412
-74.2068 33.4729 219.954 102.079 -79.2399 250.302 -56.6241 73.6996 -2.11302 144.259
121.971 145.769 70.8473 -38.1814 -73.1671 -64.4574 22.3923 18.8947 -51.5368 -50.7886
-79.3707 -36.1041 -4.51674 45.3675 -147.751 -147.968 75.6153 167.6 -19.2963 119.505
159.989 -15.7925 -119.263 -85.4952 -63.0589 41.7376 58.1035 30.6739 -52.2845 -25.1939
125.242 43.7187 68.6967 96.1247 117.634 40.1776 -23.5677 133.056 139.446 -1.48371
13.2627 -97.8313 -167.303 -34.9372 -136.35 66.6744 131.566 42.7227 -98.1068 48.8654
-17.4798 16.7688 -70.1668 14.3568 -173.047 64.1007 164.572 48.2702 203.294 132.318
102.153 -124.26 145.014 -91.0043 -185.726 87.499 54.2155 -140.426 -96.4658 -6.02274
-29.526 -41.3825 -120.353 104.556 86.1918 55.4521 -153.505 17.6394 26.167 -32.8343
72.3559 257.046 -136.337 -131.693 -8.11309 31.9717 2.81746 -105.796 -65.7336 -26.5833
56.4726 98.7769 -44.5755 -100.257 -120.923 -22.0441 11.6902 -45.0018 43.7893 -21.8986
-124.812 -121.396 151.736 -68.3608 -24.3687 138.145 -43.6174 146.101 -153.91 183.808
117.989 -105.249 63.8369 -31.2353 -185.622 -112.441 13.8319 81.5866 -9.14308 -41.574
-29.022 -48.1132 113.103 -43.3443 6.57436 -106.878 -5.20714 80.2434 -245.654 9.66818
-84.1495 -205.227 -172.761 161.824 -46.3818 6.72133 176.486 40.7791 -96.5834 -133.184
232.074 -198.795 -69.5906 -125.694 -94.0391 4.35166 -136.691 -60.3589 82.5764 -39.1484
238.541 201.605 -39.5187 43.7602 120.99 -130.168 -46.2696 213.305 94.469 -150.581
12.8342 64.6281 143.478 -53.1648 -22.6208 97.8239 -130.388 13.9692 15.4895 -153.087
43.7665 35.0943 -74.7587 9.18053 10.9191 44.806 35.5607 139.646 148.815 -55.9603
121.834 42.9322 35.7318 76.5969 18.284 -45.9585 -131.869 121.42 20.5582 -17.1516
-241.147 0.504921 65.6169 -196.848 -165.814 64.9759 17.0259 106.089 -160.824 -95.6405
0.506714 28.8799 -88.2967 -42.6858 73.6106 150.616 132.328 106.541 -24.054 -43.2478
-67.1091 -21.1913 28.2301 -147.128 -8.55724 7.64748 -27.6498 -49.2461 82.7243 98.2757
-28.8682 -103.226 20.051 63.6111 55.9714 -57.7169 -76.9017 24.9113 -32.9391 -38.7088
98.9214 54.19 110.249 138.911 51.9424 123.231 -71.3199 -49.2363 182.412 80.7144
-69.3586 -157.89 -141.346 -23.7834 196.982 -30.0463 28.0036 18.7861 -80.1365 -111.075
-79.4654 -75.1741 -110.671 94.5011 -208.025 -73.4092 -72.2587 -40.7416 -82.3181 -55.2178
-29.301 -7.56399 -180.883 -46.5995 36.574 -50.1017 149.338 -131.201 -47.9492 -134.464
135.911 11.7012 89.3753 113.934 75.59 107.971 -82.1219 -127.829 192.545 137.381
60.022 -64.7093 -101.527 19.7851 41.832 -0.305409 -77.8301 -40.4971 -12.4253 78.9044
76.8051 33.7631 38.0126 51.5203 11.4752 -200.643 166.092 43.1563 29.8571 -30.3847
101.908 72.2784 157.176 -21.6187 -307.86 78.64 -28.5116 -35.0177 -107.249 -56.8562
111.664 -50.5102 -11.4226 28.2241 15.2019 -263.809 -124.279 -68.1042 -180.983 86.7147
196.217 -119.655 110.633 -237.661 37.9698 -103.083 -133.355 106.23 59.5807 -64.5068
-59.0714 -134.657 66.6608 -39.2996 177.083 113.82 -261.011 75.7644 -63.7632 71.1771
29.8022 18.012 -128.167 110.794 -29.2915 -28.3577 73.8683 -13.6058 221.91 -35.9424
-1.26126 138.254 -11.3226 123.505 -58.0208 -130.446 -58.9978 120.132 24.7403 112.714
56.4094 -12.4487 54.8029 -146.184 -31.6281 -151.065 -104.238 50.6264 32.4541 32.6264
-33.6148 64.4837 63.6106 14.01 145.014 139.918 160.419 43.8764 -103.199 20.0023
116.084 17.5927 109.662 124.655 -108.006 -54.2224 8.89729 -36.518 -18.9415 20.9575
-203.132 -190.422 -1.59216 12.6272 -16.8758 -214.139 -99.8972 87.0638 -150.695 -51.4155
-29.5214 -116.21 25.9263 -46.518 -21.2518 154.239 31.6441 -38.4849 53.8323 -92.6073
54.6674 -54.6593 -76.6354 -52.5947 -169.923 40.5001 51.6819 7.03779 -100.557 66.3751
326.445 -66.9673 52.2776 94.1915 -56.2861 -92.7197 -80.7387 115.128 90.3052 -52.2003
-3.33665 -148.051 -131.763 30.9522 30.0738 58.2687 -26.9294 48.4079 96.3755 63.2505
159.569 38.2681 30.5822 -7.11295 31.2237 120.63 -9.64683 -63.5314 6.4605 -15.7566
-16.3691 19.541 -136.576 33.9667 -160.11 41.9576 51.5038 90.2889 -102.755 48.5761
-nan -nan -nan -nan -nan -nan -nan -nan -nan -nan
-nan -nan -nan -nan -nan -nan -nan -nan -nan -nan
126.019 -61.1154 -18.8455 -17.1336 56.184 24.1449 59.9391 20.1305 65.5902 89.4065
-nan -nan -nan -nan -nan -nan -nan -nan -nan -nan
-nan -nan -nan -nan -nan -nan -nan -nan -nan -nan
-nan -nan -nan -nan -nan -nan -nan -nan -nan -nan
-nan -nan -nan -nan -nan -nan -nan -nan -nan -nan
-nan -nan -nan -nan -nan -nan -nan -nan -nan -nan
-265.509 -46.2551 32.9721 40.3965 29.7805 52.4267 -23.5967 71.9903 181.193 0.944458
-nan -nan -nan -nan -nan -nan -nan -nan -nan -nan
-nan -nan -nan -nan -nan -nan -nan -nan -nan -nan
68.2964 78.3403 -71.2256 -121.343 101.271 -42.7642 -198.079 -7.5601 -310.953 18.2108
-nan -nan -nan -nan -nan -nan -nan -nan -nan -nan
-nan -nan -nan -nan -nan -nan -nan -nan -nan -nan
-nan -nan -nan -nan -nan -nan -nan -nan -nan -nan
-37.7504 -190.942 172.559 16.6014 -291.151 -27.7074 -35.9204 -45.0958 -44.0342 -134.469
-nan -nan -nan -nan -nan -nan -nan -nan -nan -nan
-nan -nan -nan -nan -nan -nan -nan -nan -nan -nan
-nan -nan -nan -nan -nan -nan -nan -nan -nan -nan
-nan -nan -nan -nan -nan -nan -nan -nan -nan -nan
-nan -nan -nan -nan -nan -nan -nan -nan -nan -nan
-nan -nan -nan -nan -nan -nan -nan -nan -nan -nan
-nan -nan -nan -nan -nan -nan -nan -nan -nan -nan
-nan -nan -nan -nan -nan -nan -nan -nan -nan -nan
-nan -nan -nan -nan -nan -nan -nan -nan -nan -nan
-nan -nan -nan -nan -nan -nan -nan -nan -nan -nan
-nan -nan -nan -nan -nan -nan -nan -nan -nan -nan
-nan -nan -nan -nan -nan -nan -nan -nan -nan -nan
-79.617 -28.8662 -169.663 -12.0773 -8.30874 -26.3692 10.3185 30.1692 78.7797 81.3101
-37.3161 28.0037 -23.7236 39.7353 -27.1153 -145.63 39.3209 -58.9079 92.4212 -193.949
-58.2653 55.5469 -134.838 196.334 -194.047 24.8847 115.587 75.7174 -86.2368 -108.974
74.4871 48.4546 173.353 25.7635 92.9387 -24.7282 -156.83 -71.905 -128.184 77.1519
-70.6169 22.221 155.896 30.174 -28.787 23.3607 -197.015 78.9804 -103.806 29.6721
-223.774 -0.387649 -50.1759 20.0098 199.403 -35.2494 -18.4569 8.03017 -12.907 4.31148
-96.3951 58.5547 43.9823 3.55334 -43.6303 -43.4554 8.76388 -200.273 -19.8924 93.4575
-nan -nan -nan -nan -nan -nan -nan -nan -nan -nan
-nan -nan -nan -nan -nan -nan -nan -nan -nan -nan
-nan -nan -nan -nan -nan -nan -nan -nan -nan -nan
-42.4073 18.9786 -32.7945 -65.729 -37.2728 67.1022 -115.765 79.8104 112.465 74.7809
-nan -nan -nan -nan -nan -nan -nan -nan -nan -nan
-nan -nan -nan -nan -nan -nan -nan -nan -nan -nan
-nan -nan -nan -nan -nan -nan -nan -nan -nan -nan
-nan -nan -nan -nan -nan -nan -nan -nan -nan -nan
34.444 33.8079 -142.442 15.0995 21.8169 49.462 38.8344 -48.6544 -127.45 58.4474
-nan -nan -nan -nan -nan -nan -nan -nan -nan -nan
-nan -nan -nan -nan -nan -nan -nan -nan -nan -nan
-nan -nan -nan -nan -nan -nan -nan -nan -nan -nan
-nan -nan -nan -nan -nan -nan -nan -nan -nan -nan
-nan -nan -nan -nan -nan -nan -nan -nan -nan -nan
-nan -nan -nan -nan -nan -nan -nan -nan -nan -nan
-nan -nan -nan -nan -nan -nan -nan -nan -nan -nan
-nan -nan -nan -nan -nan -nan -nan -nan -nan -nan
-nan -nan -nan -nan -nan -nan -nan -nan -nan -nan
-nan -nan -nan -nan -nan -nan -nan -nan -nan -nan
-nan -nan -nan -nan -nan -nan -nan -nan -nan -nan
-nan -nan -nan -nan -nan -nan -nan -nan -nan -nan
-nan -nan -nan -nan -nan -nan -nan -nan -nan -nan
-nan -nan -nan -nan -nan -nan -nan -nan -nan -nan
104.119 127.041 84.9944 -17.1418 22.406 -258.252 39.275 12.8299 82.4822 -57.6734
-nan -nan -nan -nan -nan -nan -nan -nan -nan -nan
-51.8282 -2.10042 -41.1068 98.8759 107.54 375.248 68.4024 -79.1701 -20.4469 23.3814
-nan -nan -nan -nan -nan -nan -nan -nan -nan -nan
-nan -nan -nan -nan -nan -nan -nan -nan -nan -nan
-nan -nan -nan -nan -nan -nan -nan -nan -nan -nan
47.0446 255.839 -82.5845 -14.4705 48.8298 147.032 27.5038 -144.522 -68.3079 204.682
-nan -nan -nan -nan -nan -nan -nan -nan -nan -nan
-nan -nan -nan -nan -nan -nan -nan -nan -nan -nan
-30.5956 17.9109 163.899 -160.869 100.036 36.5753 142.938 -21.1851 11.3787 61.4047
-nan -nan -nan -nan -nan -nan -nan -nan -nan -nan
-55.8988 -13.7664 127.737 59.859 27.214 84.9533 -47.9004 -68.191 -237.253 -7.51168
-nan -nan -nan -nan -nan -nan -nan -nan -nan -nan
-nan -nan -nan -nan -nan -nan -nan -nan -nan -nan
-nan -nan -nan -nan -nan -nan -nan -nan -nan -nan
-nan -nan -nan -nan -nan -nan -nan -nan -nan -nan
-nan -nan -nan -nan -nan -nan -nan -nan -nan -nan
-nan -nan -nan -nan -nan -nan -nan -nan -nan -nan
-25.9919 -99.8547 -62.6117 25.0042 -133.519 16.0733 21.4985 -132.375 44.2665 -116.436
-nan -nan -nan -nan -nan -nan -nan -nan -nan -nan
91.9792 -14.7959 -27.5965 132.552 53.924 -149.93 -26.2625 95.317 14.1846 5.4784
-134.387 -80.4711 -32.2841 -8.46673 23.3814 -119.354 -107.278 67.7864 -95.3285 -53.4339
-nan -nan -nan -nan -nan -nan -nan -nan -nan -nan
88.8286 16.8122 41.4202 5.92695 58.1597 83.4021 -100.788 -101.571 294.183 31.7602
11.2487 -97.7064 292.168 17.9446 41.2372 124.931 164.665 -132.68 -144.73 128.664
-nan -nan -nan -nan -nan -nan -nan -nan -nan -nan
271.975 -101.881 134.75 -0.685232 54.1533 -56.159 -133.71 -40.695 -17.7587 166.221
-29.0487 -24.1477 102.711 -115.512 -96.7951 149.341 -110.182 -49.2358 -10.9394 -42.6327
-123.675 -32.2481 -3.85061 79.3904 126.753 -67.5554 88.3227 -47.4425 84.2598 187.857
159.933 -211.667 83.2366 -55.5078 -117.634 -76.417 -215.156 122.783 -30.0425 17.4002
-nan -nan -nan -nan -nan -nan -nan -nan -nan -nan
-nan -nan -nan -nan -nan -nan -nan -nan -nan -nan
-80.2824 141.268 -62.5391 -29.1712 66.05 0.661791 -115.583 -64.0421 71.6301 117.297
-77.9828 57.2486 -30.6857 -20.0492 128.619 -124.049 9.77187 3.04611 -82.6323 -47.0166
-nan -nan -nan -nan -nan -nan -nan -nan -nan -nan
-nan -nan -nan -nan -nan -nan -nan -nan -nan -nan
-nan -nan -nan -nan -nan -nan -nan -nan -nan -nan
-62.1703 158.275 -102.358 -22.7782 -7.69117 36.447 12.6794 16.9061 -207.084 -72.2332
18.9637 54.2189 90.2533 18.0896 -17.9853 59.0865 -37.1397 64.977 33.3174 35.8566
108.561 -65.6971 -72.0233 8.39419 -34.1901 -251.516 80.0846 11.8395 110.238 -79.9017
-nan -nan -nan -nan -nan -nan -nan -nan -nan -nan
-nan -nan -nan -nan -nan -nan -nan -nan -nan -nan
-74.1842 -37.5273 13.3876 -49.2584 -104.078 138.996 110.784 24.7228 179.642 -63.3456
-nan -nan -nan -nan -nan -nan -nan -nan -nan -nan
-nan -nan -nan -nan -nan -nan -nan -nan -nan -nan