#global bias W0
-1903.24
#pairwise interactions Vj,f
-116.905 -18.594 -2.07851 13.3876 207.769
-11.3185 8.65891 -108.693 -15.2043 -49.2584
141.395 -13.7985 109.564 60.2495 -77.5934
-23.4565 -46.5765 9.76031 -4.318 102.54
-147.073 16.2933 -48.6851 -47.5556 58.5237
38.5018 87.9497 -121.002 -100.728 37.7869
-24.7787 -29.8656 37.5635 -296.215 -95.0148
78.8694 -111.712 -137.438 163.54 -123.645
-36.3118 -26.686 131.718 30.2784 4.74123
28.1398 5.64098 -147.384 -89.0558 151.831
153.733 -157.812 -139.302 -98.4414 144.247
-7.46962 76.9395 -166.12 43.8041 156.926
71.8449 -43.8599 -71.9782 -66.1078 -153.382
161.109 -73.7826 -66.1359 32.2439 97.0039
-25.4711 118.668 13.1555 109.053 85.8181
-82.5232 -71.2751 -221.478 47.4105 0.849965
118.661 -13.3954 49.3144 -23.5818 86.1801
-174.268 -108.689 -7.53096 -106.012 -65.3041
-166.533 5.54083 -199.23 98.373 -184.306
19.1507 119.031 10.7101 140.236 -158.233
38.6802 -37.6225 2.30959 101.003 -102.566
112.447 88.056 37.4996 81.2596 49.3914
-292.889 -49.241 42.5318 -156.081 22.1619
-52.821 -107.812 -41.8159 118.77 -52.7226
-18.6531 -115.102 -47.2254 29.1984 -108.606
73.4198 33.3503 -116.589 117.422 98.1346
-239.18 5.75031 84.0018 -27.2627 -71.2563
107.976 -13.0876 0.676622 157.677 73.976
182.318 65.4598 108.465 -47.3987 46.9777
68.4918 -172.252 -1.25963 -30.6293 -148.727
-56.3102 -28.5668 70.6441 -135.408 147.801
73.4943 11.44 18.5043 -44.3693 124.034
30.7767 -56.5161 242.229 -139.726 -36.8371
-87.8531 -203.262 39.5659 79.9818 -232.943
-79.2939 16.6948 -119.062 -132.516 26.0537
-33.9648 19.8534 -229.254 -137.704 -85.5738
-219.767 -91.2798 -22.6402 50.979 41.7216
-24.6633 0.812392 -110.752 140.959 28.8337
18.1473 -71.5254 -18.1642 -171.807 8.48744
78.247 5.27842 -49.8563 38.4947 187.713
-69.292 169.402 52.3181 -82.8932 63.2428
34.899 -27.4074 150.514 30.4158 -98.5085
-164.689 -193.734 215.433 -31.5562 31.6583
-70.3458 49.5242 56.236 -71.7195 -214.617
36.2366 42.905 121.313 43.1612 -60.1166
148.584 -188.396 126.514 -194.168 48.001
215.054 -87.3256 -49.735 -127.022 -183.479
-146.791 -21.4245 -52.0978 86.9222 -2.69667
142.48 135.357 -22.8457 -118.972 236.934
135.276 -63.1385 70.1271 99.9622 59.6552
-9.37769 -55.9848 -62.1427 -55.8782 -97.1659
-130.221 -11.3789 138.451 82.9302 -78.9921
-132.519 108.372 47.0153 -66.4766 -26.0475
168.568 213.027 -53.3837 -28.5021 -11.8979
89.0392 109.41 45.8306 36.9439 -28.9187
51.6472 174.678 -147.967 71.628 11.6154
90.6935 -91.5502 65.0606 13.5036 86.1581
-255.531 -68.1903 -101.894 -131.582 -38.1296
-163.57 -0.00753466 -3.10287 224.653 -60.917
-82.9528 -93.1879 56.2996 19.9695 39.756
-114.871 -70.1203 -178.596 61.1266 -55.1768
225.612 -29.0023 37.9785 -130.44 -27.9473
-163.168 175.206 46.9322 26.2022 -226.77
48.9409 20.8549 104.566 69.5482 87.3437
147.033 107.559 43.184 57.8614 -9.91722
-51.1784 215.827 -77.7189 115.776 72.9617
-104.707 -4.372 71.6201 -119.649 120.664
-230.735 -179.636 31.1536 -71.3753 18.761
178.953 23.4794 97.8322 -74.9976 -20.4893
125.994 -42.0519 29.2179 59.397 -182.674
2.71082 -42.0122 -94.3469 55.8548 -56.4729
-208.731 -20.748 -133.139 59.3667 -47.1834
175.76 14.3813 -159.193 7.91404 43.8645
-10.2851 -52.5127 -33.2284 -128.711 59.7697
-15.9227 45.3665 81.3512 2.02726 2.62241
184.03 -183.441 2.65813 85.4172 38.4132
-118.193 -120.81 -110.974 112.196 55.3167
189.987 74.7785 -20.5919 19.9447 -3.12581
-49.1801 77.4301 44.2605 -12.289 -25.3641
-105.928 -51.4202 -69.2384 33.1417 -209.506
104.659 30.2092 -36.3535 -94.6652 -176.205
119.12 -107.769 -20.923 -29.0191 44.9535
69.5976 81.5228 156.964 114.847 -105.918
-22.0609 53.6966 -175.651 -105.362 -15.0562
19.1003 25.5079 -20.6375 -62.3389 109.71
-27.4443 117.005 -18.3674 -69.6434 -12.5096
52.3279 -30.8712 116.36 -20.4145 -245.995
182.221 179.928 -59.6766 38.806 11.1923
43.6264 -60.1593 -135.153 -208.886 26.0206
-77.2713 -41.831 22.8118 -94.5373 74.6944
70.9176 -65.274 69.9572 -21.7053 74.3193
37.0623 104.866 41.7605 -71.9209 62.6825
-102.724 -69.6148 -41.8969 -21.1318 22.2228
1.81959 130.695 -33.1028 18.8026 143.718
82.6119 35.4496 140.902 36.8533 22.1423
-15.2066 -98.1513 105.127 -86.1989 18.9177
-104.038 -91.4409 -225.312 111.88 -120.428
89.758 82.3559 104.895 41.9097 16.8899
176.061 -108.09 163.092 -67.248 -142.179
-69.371 73.6797 -1.73661 18.6674 27.896
-nan -nan -nan -nan -nan
-nan -nan -nan -nan -nan
-0.48063 109.507 -73.3702 17.2325 -115.152
-nan -nan -nan -nan -nan
-nan -nan -nan -nan -nan
-nan -nan -nan -nan -nan
-nan -nan -nan -nan -nan
-nan -nan -nan -nan -nan
-nan -nan -nan -nan -nan
-45.5982 193.69 115.586 39.836 33.9287
56.1355 4.00501 24.6214 144.713 -7.70182
15.5942 -131.202 77.6948 -139.369 -99.7013
48.9614 108.423 41.5019 19.4771 -192.073
118.838 -0.508802 -71.3852 -160.172 -78.529
-148.691 103.754 2.30451 75.5497 -55.1565
-59.993 -57.957 -38.5205 160.924 180.618
-nan -nan -nan -nan -nan
-nan -nan -nan -nan -nan
-nan -nan -nan -nan -nan
-nan -nan -nan -nan -nan
-nan -nan -nan -nan -nan
-nan -nan -nan -nan -nan
-nan -nan -nan -nan -nan
-nan -nan -nan -nan -nan
-nan -nan -nan -nan -nan
-nan -nan -nan -nan -nan
-nan -nan -nan -nan -nan
109.582 -2.55796 57.5799 135.211 195.311
-203.597 -25.8689 -143.037 131.738 -227.393
32.5496 132.312 -92.4575 70.8161 -79.4602
27.3423 23.9375 180.191 -0.535362 -91.1863
64.3825 -176.993 23.6626 -37.3251 -154.138
-70.8137 212.167 12.2989 -111.265 -198.403
57.7746 -100.104 51.5231 24.4178 77.9646
-66.632 -63.8239 12.5623 16.3994 4.08993
140.642 -42.8213 -50.751 4.83317 74.5775
15.4154 31.3341 202.811 -48.4179 -48.8575
0.738798 53.5599 -5.40136 -114.234 222.808
21.9323 222.618 -16.8274 -106.926 129.096
60.6749 15.8472 -53.7352 -41.336 -39.541
-22.9333 34.0869 -21.433 -134.839 -174.932
76.4938 8.5614 179.115 108.499 -17.7132
46.443 175.197 175.578 -86.727 -52.1874
154.21 -133.487 106.349 -12.925 147.707
99.0404 -55.9219 193.927 34.419 -100.647
71.4245 3.47962 60.7622 40.1382 10.9859
-35.7826 190.725 -95.908 -14.4339 -41.4187
89.5096 59.6471 -62.2665 204.018 36.8462
93.5135 110.843 57.3198 57.3502 -251.858
128.075 -89.795 93.2238 -3.63046 -53.8414
-112.867 -58.2005 43.6513 -88.968 -168.735
-175.397 65.9604 101.823 48.5054 242.483
68.0936 -103.583 148.258 109.467 -70.5268
17.9179 156.606 109.721 74.4796 64.6307
63.9584 -142.51 271.079 -29.0448 125.384
-136.65 -51.4624 -40.091 13.1836 47.6496
68.2011 -0.0492335 171.657 80.8281 -163.403
6.40872 47.5829 69.8916 -10.5491 -48.2071
-113.337 65.4671 22.6171 -10.1661 -111.636
-77.7578 116.114 65.4339 47.0989 24.4935
-71.5201 86.4263 -27.9596 86.2066 197.136
-36.8024 -64.641 35.242 25.0353 -66.5304
-56.5845 -112.496 -24.3375 37.1505 108.441
-175.804 41.484 35.0168 117.569 -204.546
-250.471 23.8895 131.098 -61.04 -18.299
-19.4455 93.1117 -5.49274 -87.5829 -232.002
30.6041 74.5176 -65.9923 -32.427 -102.465
-47.9621 -117.223 -79.3707 2.6785 -193.453
98.4327 -22.244 -46.9633 -83.4282 -0.425382
-32.0509 89.1316 19.2043 111.108 -150.756
106.893 -17.158 -189.182 -98.0457 45.8572
86.6898 -47.0537 -52.5027 -38.4626 -12.7867
110.099 -20.0075 120.866 -113.155 -172.538
47.2317 2.87753 -9.08523 -4.31576 -86.4203
-73.0638 -128.536 -37.6584 -229.303 -55.5476
59.9352 -80.4722 -23.1383 -67.2344 95.8617
19.897 65.236 -16.0306 26.0679 166.957
-67.4709 -30.4368 -114.785 104.78 19.4599
-13.7973 -31.4031 125.566 -117.11 -35.7756
48.0071 171.44 -167.093 -296.92 -81.7516
179.294 -201.646 133.188 22.4699 38.9595
-74.2068 -9.17454 -93.9787 76.8937 -19.1779
121.971 33.4729 -29.5652 -152.416 -53.0101
-79.3707 145.769 219.954 63.2568 130.277
159.989 -36.1041 70.8473 102.079 -48.7922
125.242 -15.7925 -4.51674 -38.1814 -79.2399
13.2627 43.7187 -119.263 45.3675 -73.1671
-17.4798 -97.8313 68.6967 -85.4952 -147.751
102.153 16.7688 -167.303 96.1247 -63.0589
-29.526 -124.26 -70.1668 -34.9372 117.634
72.3559 -41.3825 145.014 14.3568 -136.35
56.4726 257.046 -120.353 -91.0043 -173.047
-124.812 98.7769 -136.337 104.556 -185.726
117.989 -121.396 -44.5755 -131.693 86.1918
-29.022 -105.249 151.736 -100.257 -8.11309
-84.1495 -48.1132 63.8369 -68.3608 -120.923
232.074 -205.227 113.103 -31.2353 -24.3687
238.541 -198.795 -172.761 -43.3443 -185.622
12.8342 201.605 -69.5906 161.824 6.57436
43.7665 64.6281 -39.5187 -125.694 -46.3818
121.834 35.0943 143.478 43.7602 -94.0391
-241.147 42.9322 -74.7587 -53.1648 120.99
0.506714 0.504921 35.7318 9.18053 -22.6208
-67.1091 28.8799 65.6169 76.5969 10.9191
-28.8682 -21.1913 -88.2967 -196.848 18.284
98.9214 -103.226 28.2301 -42.6858 -165.814
-69.3586 54.19 20.051 -147.128 73.6106
-79.4654 -157.89 110.249 63.6111 -8.55724
-29.301 -75.1741 -141.346 138.911 55.9714
135.911 -7.56399 -110.671 -23.7834 51.9424
60.022 11.7012 -180.883 94.5011 196.982
76.8051 -64.7093 89.3753 -46.5995 -208.025
101.908 33.7631 -101.527 113.934 36.574
111.664 72.2784 38.0126 19.7851 75.59
196.217 -50.5102 157.176 51.5203 41.832
-59.0714 -119.655 -11.4226 -21.6187 11.4752
29.8022 -134.657 110.633 28.2241 -307.86
-1.26126 18.012 66.6608 -237.661 15.2019
56.4094 138.254 -128.167 -39.2996 37.9698
-33.6148 -12.4487 -11.3226 110.794 177.083
116.084 64.4837 54.8029 123.505 -29.2915
-203.132 17.5927 63.6106 -146.184 -58.0208
-29.5214 -190.422 109.662 14.01 -31.6281
54.6674 -116.21 -1.59216 124.655 145.014
326.445 -54.6593 25.9263 12.6272 -108.006
-3.33665 -66.9673 -76.6354 -46.518 -16.8758
159.569 -148.051 52.2776 -52.5947 -21.2518
-nan -nan -nan -nan -nan
-nan -nan -nan -nan -nan
-39.832 -119.303 -136.576 -7.11295 30.0738
-nan -nan -nan -nan -nan
-nan -nan -nan -nan -nan
-nan -nan -nan -nan -nan
-nan -nan -nan -nan -nan
-nan -nan -nan -nan -nan
-92.8995 3.13639 -52.9632 27.5199 -97.1832
-nan -nan -nan -nan -nan
-nan -nan -nan -nan -nan
46.0505 -154.446 32.9721 -2.46167 18.631
-nan -nan -nan -nan -nan
-nan -nan -nan -nan -nan
-nan -nan -nan -nan -nan
-113.776 -100.523 -160.172 -121.343 119.48
-nan -nan -nan -nan -nan
-nan -nan -nan -nan -nan
-nan -nan -nan -nan -nan
-nan -nan -nan -nan -nan
-nan -nan -nan -nan -nan
-nan -nan -nan -nan -nan
-nan -nan -nan -nan -nan
-nan -nan -nan -nan -nan
-nan -nan -nan -nan -nan
-nan -nan -nan -nan -nan
-nan -nan -nan -nan -nan
-nan -nan -nan -nan -nan
-54.9848 205.118 -80.4833 -116.388 56.9761
-79.617 198.889 -0.0482113 45.8644 -29.9562
-37.3161 -28.8662 7.29418 -13.4278 -86.4753
-58.2653 28.0037 -169.663 96.1093 -79.6324
74.4871 55.5469 -23.7236 -12.0773 -228.054
-70.6169 48.4546 -134.838 39.7353 -8.30874
-223.774 22.221 173.353 196.334 -27.1153
-nan -nan -nan -nan -nan
-nan -nan -nan -nan -nan
-nan -nan -nan -nan -nan
-nan -nan -nan -nan -nan
-nan -nan -nan -nan -nan
-nan -nan -nan -nan -nan
-nan -nan -nan -nan -nan
-nan -nan -nan -nan -nan
-77.7589 138.252 -67.9806 -28.3612 -37.2728
-nan -nan -nan -nan -nan
-nan -nan -nan -nan -nan
-nan -nan -nan -nan -nan
-nan -nan -nan -nan -nan
-nan -nan -nan -nan -nan
-nan -nan -nan -nan -nan
-nan -nan -nan -nan -nan
-nan -nan -nan -nan -nan
-nan -nan -nan -nan -nan
-nan -nan -nan -nan -nan
-nan -nan -nan -nan -nan
-nan -nan -nan -nan -nan
-nan -nan -nan -nan -nan
-nan -nan -nan -nan -nan
58.9558 -45.4324 22.3317 -102.838 -23.3809
-nan -nan -nan -nan -nan
-4.96784 127.041 -63.8628 -89.4893 -37.2155
-nan -nan -nan -nan -nan
-nan -nan -nan -nan -nan
-nan -nan -nan -nan -nan
-40.6811 -27.9026 103.657 98.8759 -82.1749
-nan -nan -nan -nan -nan
-nan -nan -nan -nan -nan
106.457 -22.8752 -82.5845 52.6629 135.262
-nan -nan -nan -nan -nan
73.2475 17.9109 -75.8283 -135.097 48.8298
-nan -nan -nan -nan -nan
-nan -nan -nan -nan -nan
-nan -nan -nan -nan -nan
-nan -nan -nan -nan -nan
-nan -nan -nan -nan -nan
-nan -nan -nan -nan -nan
39.6283 48.4397 32.3133 -25.4585 -205.973
-nan -nan -nan -nan -nan
51.5025 -99.8547 4.63218 -124.678 10.7075
91.9792 88.2727 -62.6117 69.7405 -47.767
-nan -nan -nan -nan -nan
-18.4755 -80.4711 -27.5965 123.366 -133.519
88.8286 -77.079 -32.2841 132.552 117.659
-nan -nan -nan -nan -nan
26.1873 -97.7064 41.4202 -152.116 23.3814
271.975 43.8772 292.168 5.92695 10.0637
-29.0487 -101.881 21.2155 17.9446 58.1597
-123.675 -24.1477 134.75 -35.1901 41.2372
-nan -nan -nan -nan -nan
-nan -nan -nan -nan -nan
42.447 130.799 83.2366 79.3904 -96.7951
-80.2824 -91.192 57.7452 -55.5078 126.753
-nan -nan -nan -nan -nan
-nan -nan -nan -nan -nan
-nan -nan -nan -nan -nan
-83.3387 49.1986 -81.399 -20.0492 66.05
-62.1703 -129.951 49.7346 -20.3418 128.619
18.9637 158.275 183.928 65.2755 -198.951
-nan -nan -nan -nan -nan
-nan -nan -nan -nan -nan
83.6147 -40.4787 -72.0233 18.0896 -7.69117
-nan -nan -nan -nan -nan
-nan -nan -nan -nan -nan