#global bias W0

#unary interactions Wj
0
0
0
0
0
0
0
0
0
0
0
0
0
0
0
0
0
0
0
0
0
0
0
0
0
0
0
0
0
0
0
0
0
0
0
0
0
0
0
0
0
0
0
0
0
0
0
0
0
0
0
0
0
0
0
0
0
0
0
0
0
0
0
0
0
0
0
0
0
0
0
0
0
0
0
0
0
0
0
0
0
0
0
0
0
0
0
0
0
0
0
0
0
0
0
0
0
0
0
0
0
-566.669
-638.192
0
-580.995
-401.074
-641.725
-550.891
-633.061
-632.613
0
0
0
0
0
0
0
-561.82
-569.001
-8.79359e+14
-8.7941e+14
-84063.3
-913.557
-53934.6
-12623.1
-4989.92
-913.557
-84063.3
0
0
0
0
0
0
0
0
0
0
0
0
0
0
0
0
0
0
0
0
0
0
0
0
0
0
0
0
0
0
0
0
0
0
0
0
0
0
0
0
0
0
0
0
0
0
0
0
0
0
0
0
0
0
0
0
0
0
0
0
0
0
0
0
0
0
0
0
0
0
0
0
0
0
0
0
0
0
0
0
0
0
0
0
0
0
0
0
0
0
0
0
0
0
0
0
0
0
0
0
-294579
-11290.4
0
-546.975
-629.697
-571.957
-537.686
-564.561
0
-566.549
-7.1596e+07
0
-2009.72
-2009.72
-564.601
0
-565.993
-75442.2
-501.134
-594.511
-501.134
-584.899
-632.198
-640.552
-501.134
-581.515
-633.442
-632.613
0
0
0
0
0
0
0
-561.804
-617.722
-561.804
0
-569.001
-617.722
-561.804
-569.001
0
-617.722
-74919.8
-828.695
-52806.7
-10688.5
-4684.25
-828.695
-74919.8
-289363
-422.536
-2.09754e+06
-422.536
-289363
-591.859
0
-609.811
0
-86379.9
-1.71586e+07
-13057.1
0
-11837.7
-579.39
0
-591.859
0
-634.826
-637.707
-634.199
-630.567
-614.808
-641.988
0
-299.474
0
0
-520.991
0
0
-610.101
0
0
0
0
-519.702
-628.705
0
0
-634.476
-630.666
-624.121
0
0
0
-3067.31
-6886.6
0
-5593.68
-2271.89
#pairwise interactions Vj,f