#global bias W0
-17.8658
#unary interactions Wj
0.00693379
0.00189663
-0.0192865
0.00774171
0.0219073
0.00981322
0.00329078
0.0133602
0.0015444
0.000857179
0.000302968
-0.0226734
-0.0088452
0.00303215
0.0198678
0.015779
-0.0170475
-0.0194565
0.00942651
-0.0175131
0.0230502
-0.0158184
-0.00425387
0.0166904
-0.0184244
0.0227596
0.0212792
0.00136952
0.0133429
-0.0218359
0.000258632
0.00643131
0.0238606
-0.0168579
-0.0203432
-0.017348
0.00550023
-0.0228064
0.00990682
-0.0164982
0.00776634
0.00710375
-0.0171091
-0.007722
-0.0176953
0.000763579
0.00763333
0.00770722
-0.0207915
0.0123724
0.00693379
0.00189663
-0.0192865
0.00774171
0.0219073
0.00981322
0.00329078
0.0133602
0.0015444
0.000857179
0.000302968
-0.0226734
-0.0088452
0.00303215
0.0198678
0.015779
-0.0170475
-0.0194565
0.00942651
-0.0175131
0.0230502
-0.0158184
-0.00425387
0.0166904
-0.0184244
0.0227596
0.0212792
0.00136952
0.0133429
-0.0218359
0.000258632
0.00643131
0.0238606
-0.0168579
-0.0203432
-0.017348
0.00550023
-0.0228064
0.00990682
-0.0164982
0.00776634
0.00710375
-0.0171091
-0.007722
-0.0176953
0.000763579
0.00763333
0.00770722
-0.0207915
0.0123724
-2.46316
-7.24502
0
0
-5.29177
0
-1.55424
-10.8737
0
0
0
0
0
0
0
0
-9.71991e+12
-9.71991e+12
-133.31
0
0
0
0
0.0146376
0.00400389
-0.0407149
0.0163432
0.0462476
0.0207163
0.00694702
0.0282041
0.00326031
0.00180955
0.000639583
-0.0478647
-0.0186727
0.00640103
0.0419421
0.0333103
-0.0359882
-0.0410737
0.0198999
-0.036971
0.0486603
-0.0333935
-0.00898016
0.0352343
-0.038895
0.0480467
0.0449216
0.00289112
0.0281677
-0.0460968
0.000545985
0.0135768
0.0503711
-0.0355879
-0.0429457
-0.0366226
0.0116113
-0.0481455
0.0209138
-0.0348287
0.0163952
0.0149964
-0.0361182
-0.0163016
-0.0373558
0.00161196
0.0161144
0.0162704
-0.043892
0.0261189
0.0146376
0.00400389
-0.0407149
0.0163432
0.0462476
0.0207163
0.00694702
0.0282041
0.00326031
0.00180955
0.000639583
-0.0478647
-0.0186727
0.00640103
0.0419421
0.0333103
-0.0359882
-0.0410737
0.0198999
-0.036971
0.0486603
-0.0333935
-0.00898016
0.0352343
-0.038895
0.0480467
0.0449216
0.00289112
0.0281677
-0.0460968
0.000545985
0.0135768
0.0503711
-0.0355879
-0.0429457
-0.0366226
0.0116113
-0.0481455
0.0209138
-0.0348287
0.0163952
0.0149964
-0.0361182
-0.0163016
-0.0373558
0.00161196
0.0161144
0.0162704
-0.043892
0.0261189
-135.707
0
-8.97196
-1.55424
0
-1.55424
-15.5424
-22.8799
-96.9352
-3.83764
-1463.67
-5.44071
0
-5.29177
0
-1.55424
-10.8737
0
0
0
0
0
0
0
0
-10.8737
-5.19986
-10.8737
-5.19986
-179.439
0
0
0
0
-269.159
-26.9159
-89.7196
-0.0897196
-0.628037
-8.97196
-10.3997
0
-89.7196
0
-17.9439
-3678.5
-8.97196
-8.13684
0
-10.3997
0
-3.83764
-25.1817
-5.9797
-4422.76
-26.4589
-5.29177
#pairwise interactions Vj,f
-nan -nan -nan -nan -nan -nan -nan -nan -nan -nan
-nan -nan -nan -nan -nan -nan -nan -nan -nan -nan
-nan -nan -nan -nan -nan -nan -nan -nan -nan -nan
-nan -nan -nan -nan -nan -nan -nan -nan -nan -nan
-nan -nan -nan -nan -nan -nan -nan -nan -nan -nan
-nan -nan -nan -nan -nan -nan -nan -nan -nan -nan
-nan -nan -nan -nan -nan -nan -nan -nan -nan -nan
-nan -nan -nan -nan -nan -nan -nan -nan -nan -nan
-nan -nan -nan -nan -nan -nan -nan -nan -nan -nan
-nan -nan -nan -nan -nan -nan -nan -nan -nan -nan
-nan -nan -nan -nan -nan -nan -nan -nan -nan -nan
-nan -nan -nan -nan -nan -nan -nan -nan -nan -nan
-nan -nan -nan -nan -nan -nan -nan -nan -nan -nan
-nan -nan -nan -nan -nan -nan -nan -nan -nan -nan
-nan -nan -nan -nan -nan -nan -nan -nan -nan -nan
-nan -nan -nan -nan -nan -nan -nan -nan -nan -nan
-nan -nan -nan -nan -nan -nan -nan -nan -nan -nan
-nan -nan -nan -nan -nan -nan -nan -nan -nan -nan
-nan -nan -nan -nan -nan -nan -nan -nan -nan -nan
-nan -nan -nan -nan -nan -nan -nan -nan -nan -nan
-nan -nan -nan -nan -nan -nan -nan -nan -nan -nan
-nan -nan -nan -nan -nan -nan -nan -nan -nan -nan
-nan -nan -nan -nan -nan -nan -nan -nan -nan -nan
-nan -nan -nan -nan -nan -nan -nan -nan -nan -nan
-nan -nan -nan -nan -nan -nan -nan -nan -nan -nan
-nan -nan -nan -nan -nan -nan -nan -nan -nan -nan
-nan -nan -nan -nan -nan -nan -nan -nan -nan -nan
-nan -nan -nan -nan -nan -nan -nan -nan -nan -nan
-nan -nan -nan -nan -nan -nan -nan -nan -nan -nan
-nan -nan -nan -nan -nan -nan -nan -nan -nan -nan
-nan -nan -nan -nan -nan -nan -nan -nan -nan -nan
-nan -nan -nan -nan -nan -nan -nan -nan -nan -nan
-nan -nan -nan -nan -nan -nan -nan -nan -nan -nan
-nan -nan -nan -nan -nan -nan -nan -nan -nan -nan
-nan -nan -nan -nan -nan -nan -nan -nan -nan -nan
-nan -nan -nan -nan -nan -nan -nan -nan -nan -nan
-nan -nan -nan -nan -nan -nan -nan -nan -nan -nan
-nan -nan -nan -nan -nan -nan -nan -nan -nan -nan
-nan -nan -nan -nan -nan -nan -nan -nan -nan -nan
-nan -nan -nan -nan -nan -nan -nan -nan -nan -nan
-nan -nan -nan -nan -nan -nan -nan -nan -nan -nan
-nan -nan -nan -nan -nan -nan -nan -nan -nan -nan
-nan -nan -nan -nan -nan -nan -nan -nan -nan -nan
-nan -nan -nan -nan -nan -nan -nan -nan -nan -nan
-nan -nan -nan -nan -nan -nan -nan -nan -nan -nan
-nan -nan -nan -nan -nan -nan -nan -nan -nan -nan
-nan -nan -nan -nan -nan -nan -nan -nan -nan -nan
-nan -nan -nan -nan -nan -nan -nan -nan -nan -nan
-nan -nan -nan -nan -nan -nan -nan -nan -nan -nan
-nan -nan -nan -nan -nan -nan -nan -nan -nan -nan
-nan -nan -nan -nan -nan -nan -nan -nan -nan -nan
-nan -nan -nan -nan -nan -nan -nan -nan -nan -nan
-nan -nan -nan -nan -nan -nan -nan -nan -nan -nan
-nan -nan -nan -nan -nan -nan -nan -nan -nan -nan
-nan -nan -nan -nan -nan -nan -nan -nan -nan -nan
-nan -nan -nan -nan -nan -nan -nan -nan -nan -nan
-nan -nan -nan -nan -nan -nan -nan -nan -nan -nan
-nan -nan -nan -nan -nan -nan -nan -nan -nan -nan
-nan -nan -nan -nan -nan -nan -nan -nan -nan -nan
-nan -nan -nan -nan -nan -nan -nan -nan -nan -nan
-nan -nan -nan -nan -nan -nan -nan -nan -nan -nan
-nan -nan -nan -nan -nan -nan -nan -nan -nan -nan
-nan -nan -nan -nan -nan -nan -nan -nan -nan -nan
-nan -nan -nan -nan -nan -nan -nan -nan -nan -nan
-nan -nan -nan -nan -nan -nan -nan -nan -nan -nan
-nan -nan -nan -nan -nan -nan -nan -nan -nan -nan
-nan -nan -nan -nan -nan -nan -nan -nan -nan -nan
-nan -nan -nan -nan -nan -nan -nan -nan -nan -nan
-nan -nan -nan -nan -nan -nan -nan -nan -nan -nan
-nan -nan -nan -nan -nan -nan -nan -nan -nan -nan
-nan -nan -nan -nan -nan -nan -nan -nan -nan -nan
-nan -nan -nan -nan -nan -nan -nan -nan -nan -nan
-nan -nan -nan -nan -nan -nan -nan -nan -nan -nan
-nan -nan -nan -nan -nan -nan -nan -nan -nan -nan
-nan -nan -nan -nan -nan -nan -nan -nan -nan -nan
-nan -nan -nan -nan -nan -nan -nan -nan -nan -nan
-nan -nan -nan -nan -nan -nan -nan -nan -nan -nan
-nan -nan -nan -nan -nan -nan -nan -nan -nan -nan
-nan -nan -nan -nan -nan -nan -nan -nan -nan -nan
-nan -nan -nan -nan -nan -nan -nan -nan -nan -nan
-nan -nan -nan -nan -nan -nan -nan -nan -nan -nan
-nan -nan -nan -nan -nan -nan -nan -nan -nan -nan
-nan -nan -nan -nan -nan -nan -nan -nan -nan -nan
-nan -nan -nan -nan -nan -nan -nan -nan -nan -nan
-nan -nan -nan -nan -nan -nan -nan -nan -nan -nan
-nan -nan -nan -nan -nan -nan -nan -nan -nan -nan
-nan -nan -nan -nan -nan -nan -nan -nan -nan -nan
-nan -nan -nan -nan -nan -nan -nan -nan -nan -nan
-nan -nan -nan -nan -nan -nan -nan -nan -nan -nan
-nan -nan -nan -nan -nan -nan -nan -nan -nan -nan
-nan -nan -nan -nan -nan -nan -nan -nan -nan -nan
-nan -nan -nan -nan -nan -nan -nan -nan -nan -nan
-nan -nan -nan -nan -nan -nan -nan -nan -nan -nan
-nan -nan -nan -nan -nan -nan -nan -nan -nan -nan
-nan -nan -nan -nan -nan -nan -nan -nan -nan -nan
-nan -nan -nan -nan -nan -nan -nan -nan -nan -nan
-nan -nan -nan -nan -nan -nan -nan -nan -nan -nan
-nan -nan -nan -nan -nan -nan -nan -nan -nan -nan
-nan -nan -nan -nan -nan -nan -nan -nan -nan -nan
-nan -nan -nan -nan -nan -nan -nan -nan -nan -nan
-nan -nan -nan -nan -nan -nan -nan -nan -nan -nan
-nan -nan -nan -nan -nan -nan -nan -nan -nan -nan
-0.48063 108.372 109.564 -133.279 121.86 -53.0101 92.1352 1.90196 134.998 -60.3298
-241.623 213.027 9.76031 19.3242 -17.1336 130.277 53.1393 -77.5357 36.5978 95.317
-nan -nan -nan -nan -nan -nan -nan -nan -nan -nan
111.28 174.678 -121.002 22.3317 27.5199 -79.2399 -10.8609 -26.9419 71.7646 -0.151856
-nan -nan -nan -nan -nan -nan -nan -nan -nan -nan
-nan -nan -nan -nan -nan -nan -nan -nan -nan -nan
53.0336 -0.00753466 131.718 84.9944 -2.46167 -63.0589 20.4461 79.1686 103.505 16.7895
-45.5982 -93.1879 -147.384 86.3 40.3965 117.634 -125.173 -45.8714 -60.0487 -40.695
56.1355 -70.1203 -139.302 -41.1068 -17.9831 -136.35 107.241 -41.0628 11.8198 -49.2358
15.5942 -29.0023 -166.12 103.657 122.343 -173.047 89.5542 62.9102 160.065 -47.4425
48.9614 175.206 -71.9782 140.715 -121.343 -185.726 -53.2226 1.50718 24.4173 122.783
118.838 20.8549 -66.1359 1.86633 -94.6003 86.1918 -35.0588 -32.8996 18.4583 119.682
-148.691 107.559 13.1555 -82.5845 12.113 -8.11309 21.812 71.3781 60.5487 -101.503
-59.993 215.827 -221.478 112.363 -51.1812 -120.923 69.5514 -44.2718 -183.177 -64.0421
-nan -nan -nan -nan -nan -nan -nan -nan -nan -nan
-nan -nan -nan -nan -nan -nan -nan -nan -nan -nan
-nan -nan -nan -nan -nan -nan -nan -nan -nan -nan
79.5561 -42.0519 10.7101 127.737 101.547 -46.3818 -86.0457 111.145 -93.2225 -45.8877
84.3281 -42.0122 2.30959 -10.3835 -13.3984 -94.0391 46.8208 39.4972 -104.817 16.9061
19.9151 -20.748 37.4996 -82.51 -60.2677 120.99 -7.002 102.149 26.8407 64.977
21.4436 14.3813 42.5318 -56.4231 -9.22414 -22.6208 118.828 220.294 -96.7689 11.8395
-nan -nan -nan -nan -nan -nan -nan -nan -nan -nan
-nan -nan -nan -nan -nan -nan -nan -nan -nan -nan
-nan -nan -nan -nan -nan -nan -nan -nan -nan -nan
-nan -nan -nan -nan -nan -nan -nan -nan -nan -nan
-nan -nan -nan -nan -nan -nan -nan -nan -nan -nan
-nan -nan -nan -nan -nan -nan -nan -nan -nan -nan
-nan -nan -nan -nan -nan -nan -nan -nan -nan -nan
-nan -nan -nan -nan -nan -nan -nan -nan -nan -nan
-nan -nan -nan -nan -nan -nan -nan -nan -nan -nan
-nan -nan -nan -nan -nan -nan -nan -nan -nan -nan
-nan -nan -nan -nan -nan -nan -nan -nan -nan -nan
-nan -nan -nan -nan -nan -nan -nan -nan -nan -nan
-nan -nan -nan -nan -nan -nan -nan -nan -nan -nan
-nan -nan -nan -nan -nan -nan -nan -nan -nan -nan
-nan -nan -nan -nan -nan -nan -nan -nan -nan -nan
-nan -nan -nan -nan -nan -nan -nan -nan -nan -nan
-nan -nan -nan -nan -nan -nan -nan -nan -nan -nan
-nan -nan -nan -nan -nan -nan -nan -nan -nan -nan
-nan -nan -nan -nan -nan -nan -nan -nan -nan -nan
-nan -nan -nan -nan -nan -nan -nan -nan -nan -nan
-nan -nan -nan -nan -nan -nan -nan -nan -nan -nan
-nan -nan -nan -nan -nan -nan -nan -nan -nan -nan
-nan -nan -nan -nan -nan -nan -nan -nan -nan -nan
-nan -nan -nan -nan -nan -nan -nan -nan -nan -nan
-nan -nan -nan -nan -nan -nan -nan -nan -nan -nan
-nan -nan -nan -nan -nan -nan -nan -nan -nan -nan
-nan -nan -nan -nan -nan -nan -nan -nan -nan -nan
-nan -nan -nan -nan -nan -nan -nan -nan -nan -nan
-nan -nan -nan -nan -nan -nan -nan -nan -nan -nan
-nan -nan -nan -nan -nan -nan -nan -nan -nan -nan
-nan -nan -nan -nan -nan -nan -nan -nan -nan -nan
-nan -nan -nan -nan -nan -nan -nan -nan -nan -nan
-nan -nan -nan -nan -nan -nan -nan -nan -nan -nan
-nan -nan -nan -nan -nan -nan -nan -nan -nan -nan
-nan -nan -nan -nan -nan -nan -nan -nan -nan -nan
-nan -nan -nan -nan -nan -nan -nan -nan -nan -nan
-nan -nan -nan -nan -nan -nan -nan -nan -nan -nan
-nan -nan -nan -nan -nan -nan -nan -nan -nan -nan
-nan -nan -nan -nan -nan -nan -nan -nan -nan -nan
-nan -nan -nan -nan -nan -nan -nan -nan -nan -nan
-nan -nan -nan -nan -nan -nan -nan -nan -nan -nan
-nan -nan -nan -nan -nan -nan -nan -nan -nan -nan
-nan -nan -nan -nan -nan -nan -nan -nan -nan -nan
-nan -nan -nan -nan -nan -nan -nan -nan -nan -nan
-nan -nan -nan -nan -nan -nan -nan -nan -nan -nan
-nan -nan -nan -nan -nan -nan -nan -nan -nan -nan
-nan -nan -nan -nan -nan -nan -nan -nan -nan -nan
-nan -nan -nan -nan -nan -nan -nan -nan -nan -nan
-nan -nan -nan -nan -nan -nan -nan -nan -nan -nan
-nan -nan -nan -nan -nan -nan -nan -nan -nan -nan
-nan -nan -nan -nan -nan -nan -nan -nan -nan -nan
-nan -nan -nan -nan -nan -nan -nan -nan -nan -nan
-nan -nan -nan -nan -nan -nan -nan -nan -nan -nan
-nan -nan -nan -nan -nan -nan -nan -nan -nan -nan
-nan -nan -nan -nan -nan -nan -nan -nan -nan -nan
-nan -nan -nan -nan -nan -nan -nan -nan -nan -nan
-nan -nan -nan -nan -nan -nan -nan -nan -nan -nan
-nan -nan -nan -nan -nan -nan -nan -nan -nan -nan
-nan -nan -nan -nan -nan -nan -nan -nan -nan -nan
-nan -nan -nan -nan -nan -nan -nan -nan -nan -nan
-nan -nan -nan -nan -nan -nan -nan -nan -nan -nan
-nan -nan -nan -nan -nan -nan -nan -nan -nan -nan
-nan -nan -nan -nan -nan -nan -nan -nan -nan -nan
-nan -nan -nan -nan -nan -nan -nan -nan -nan -nan
-nan -nan -nan -nan -nan -nan -nan -nan -nan -nan
-nan -nan -nan -nan -nan -nan -nan -nan -nan -nan
-nan -nan -nan -nan -nan -nan -nan -nan -nan -nan
-nan -nan -nan -nan -nan -nan -nan -nan -nan -nan
-nan -nan -nan -nan -nan -nan -nan -nan -nan -nan
-nan -nan -nan -nan -nan -nan -nan -nan -nan -nan
-nan -nan -nan -nan -nan -nan -nan -nan -nan -nan
-nan -nan -nan -nan -nan -nan -nan -nan -nan -nan
-nan -nan -nan -nan -nan -nan -nan -nan -nan -nan
-nan -nan -nan -nan -nan -nan -nan -nan -nan -nan
-nan -nan -nan -nan -nan -nan -nan -nan -nan -nan
-nan -nan -nan -nan -nan -nan -nan -nan -nan -nan
-nan -nan -nan -nan -nan -nan -nan -nan -nan -nan
-nan -nan -nan -nan -nan -nan -nan -nan -nan -nan
-nan -nan -nan -nan -nan -nan -nan -nan -nan -nan
-nan -nan -nan -nan -nan -nan -nan -nan -nan -nan
-nan -nan -nan -nan -nan -nan -nan -nan -nan -nan
-nan -nan -nan -nan -nan -nan -nan -nan -nan -nan
-nan -nan -nan -nan -nan -nan -nan -nan -nan -nan
-nan -nan -nan -nan -nan -nan -nan -nan -nan -nan
-nan -nan -nan -nan -nan -nan -nan -nan -nan -nan
-nan -nan -nan -nan -nan -nan -nan -nan -nan -nan
-nan -nan -nan -nan -nan -nan -nan -nan -nan -nan
-nan -nan -nan -nan -nan -nan -nan -nan -nan -nan
-nan -nan -nan -nan -nan -nan -nan -nan -nan -nan
-nan -nan -nan -nan -nan -nan -nan -nan -nan -nan
-nan -nan -nan -nan -nan -nan -nan -nan -nan -nan
-nan -nan -nan -nan -nan -nan -nan -nan -nan -nan
-nan -nan -nan -nan -nan -nan -nan -nan -nan -nan
-nan -nan -nan -nan -nan -nan -nan -nan -nan -nan
-nan -nan -nan -nan -nan -nan -nan -nan -nan -nan
-nan -nan -nan -nan -nan -nan -nan -nan -nan -nan
-nan -nan -nan -nan -nan -nan -nan -nan -nan -nan
-nan -nan -nan -nan -nan -nan -nan -nan -nan -nan
-nan -nan -nan -nan -nan -nan -nan -nan -nan -nan
-nan -nan -nan -nan -nan -nan -nan -nan -nan -nan
-nan -nan -nan -nan -nan -nan -nan -nan -nan -nan
326.445 -128.536 1.82511 2.02726 -108.606 -18.7832 7.8412 -130.388 290.297 33.3081
-nan -nan -nan -nan -nan -nan -nan -nan -nan -nan
-nan -nan -nan -nan -nan -nan -nan -nan -nan -nan
-nan -nan -nan -nan -nan -nan -nan -nan -nan -nan
-nan -nan -nan -nan -nan -nan -nan -nan -nan -nan
-nan -nan -nan -nan -nan -nan -nan -nan -nan -nan
-nan -nan -nan -nan -nan -nan -nan -nan -nan -nan
-nan -nan -nan -nan -nan -nan -nan -nan -nan -nan
-nan -nan -nan -nan -nan -nan -nan -nan -nan -nan
-nan -nan -nan -nan -nan -nan -nan -nan -nan -nan
-nan -nan -nan -nan -nan -nan -nan -nan -nan -nan
-92.8995 -15.7925 -50.751 -69.6434 -85.5738 -8.95967 23.3607 -82.1219 60.212 104.924
-nan -nan -nan -nan -nan -nan -nan -nan -nan -nan
-22.5197 -97.8313 -5.40136 38.806 28.8337 -96.7951 -43.4554 166.092 14.8951 -26.004
-nan -nan -nan -nan -nan -nan -nan -nan -nan -nan
-nan -nan -nan -nan -nan -nan -nan -nan -nan -nan
-29.3193 -41.3825 -21.433 -21.7053 63.2428 1.16415 -6.25866 -133.355 -107.9 90.7268
-60.9694 257.046 179.115 -71.9209 -98.5085 -129.982 67.1022 -261.011 182.587 109.45
-113.776 98.7769 175.578 -21.1318 31.6583 66.05 65.8907 73.8683 -25.978 17.0278
-37.7504 -121.396 106.349 18.8026 -214.617 128.619 -118.847 -58.9978 -20.1354 98.3867
-124.831 -105.249 193.927 36.8533 -60.1166 -198.951 48.7203 -104.238 -173.102 144.348
89.2852 -48.1132 60.7622 -86.1989 48.001 -85.4895 -224.375 160.419 170.991 -36.5835
-26.5641 -205.227 -95.908 111.88 -183.479 63.5498 49.462 8.89729 -164.243 41.5438
-3.75688 -198.795 -62.2665 41.9097 -2.69667 -7.69117 63.3539 -99.8972 -62.3123 107.404
-nan -nan -nan -nan -nan -nan -nan -nan -nan -nan
-nan -nan -nan -nan -nan -nan -nan -nan -nan -nan
-nan -nan -nan -nan -nan -nan -nan -nan -nan -nan
-nan -nan -nan -nan -nan -nan -nan -nan -nan -nan
-nan -nan -nan -nan -nan -nan -nan -nan -nan -nan
-167.072 28.8799 109.721 26.9192 -11.8979 53.4142 -34.7214 51.5038 127.012 -128.995
143.932 -21.1913 271.079 -46.338 -28.9187 -149.112 93.5173 -196.698 0.718941 -40.0146
-54.9848 -103.226 -40.091 3.33332 11.6154 93.2538 -66.3639 259.378 -181.22 -32.6169
-79.617 54.19 171.657 3.23363 86.1581 102.888 -56.5755 59.9391 0.478269 18.2492
-nan -nan -nan -nan -nan -nan -nan -nan -nan -nan
-nan -nan -nan -nan -nan -nan -nan -nan -nan -nan
-nan -nan -nan -nan -nan -nan -nan -nan -nan -nan
-nan -nan -nan -nan -nan -nan -nan -nan -nan -nan
-nan -nan -nan -nan -nan -nan -nan -nan -nan -nan
-nan -nan -nan -nan -nan -nan -nan -nan -nan -nan
-nan -nan -nan -nan -nan -nan -nan -nan -nan -nan
-nan -nan -nan -nan -nan -nan -nan -nan -nan -nan
-nan -nan -nan -nan -nan -nan -nan -nan -nan -nan
-42.4073 -134.657 -65.9923 -62.5968 120.664 72.9049 43.6251 -77.0519 17.6394 68.2592
-nan -nan -nan -nan -nan -nan -nan -nan -nan -nan
-nan -nan -nan -nan -nan -nan -nan -nan -nan -nan
-nan -nan -nan -nan -nan -nan -nan -nan -nan -nan
-nan -nan -nan -nan -nan -nan -nan -nan -nan -nan
-nan -nan -nan -nan -nan -nan -nan -nan -nan -nan
-nan -nan -nan -nan -nan -nan -nan -nan -nan -nan
-nan -nan -nan -nan -nan -nan -nan -nan -nan -nan
-nan -nan -nan -nan -nan -nan -nan -nan -nan -nan
-nan -nan -nan -nan -nan -nan -nan -nan -nan -nan
-nan -nan -nan -nan -nan -nan -nan -nan -nan -nan
-nan -nan -nan -nan -nan -nan -nan -nan -nan -nan
-nan -nan -nan -nan -nan -nan -nan -nan -nan -nan
-nan -nan -nan -nan -nan -nan -nan -nan -nan -nan
