#global bias W0
-0.844854
#unary interactions Wj
-0.0138148
-0.00377883
0.0384262
-0.0154245
-0.0436479
-0.0195517
-0.00655651
-0.0266186
-0.00307704
-0.00170783
-0.000603631
0.0451741
0.0176231
-0.00604121
-0.0395844
-0.0314379
0.0339653
0.0387649
-0.0187813
0.0348928
-0.045925
0.0315164
0.00847536
-0.0332537
0.0367086
-0.0453459
-0.0423965
-0.00272861
-0.0265843
0.0435056
-0.000515294
-0.0128137
-0.0475396
0.0335874
0.0405316
0.034564
-0.0109586
0.0454391
-0.0197382
0.0328709
-0.0154736
-0.0141534
0.0340879
0.0153852
0.0352559
-0.00152135
-0.0152085
-0.0153558
0.0414248
-0.0246507
-0.0138148
-0.00377883
0.0384262
-0.0154245
-0.0436479
-0.0195517
-0.00655651
-0.0266186
-0.00307704
-0.00170783
-0.000603631
0.0451741
0.0176231
-0.00604121
-0.0395844
-0.0314379
0.0339653
0.0387649
-0.0187813
0.0348928
-0.045925
0.0315164
0.00847536
-0.0332537
0.0367086
-0.0453459
-0.0423965
-0.00272861
-0.0265843
0.0435056
-0.000515294
-0.0128137
-0.0475396
0.0335874
0.0405316
0.034564
-0.0109586
0.0454391
-0.0197382
0.0328709
-0.0154736
-0.0141534
0.0340879
0.0153852
0.0352559
-0.00152135
-0.0152085
-0.0153558
0.0414248
-0.0246507
4.90757
-3.83764
0
0
-0.749282
0
3.07413
-5.47368
0
0
0
0
0
0
0
0
-9.31561e+11
-9.31561e+11
-12.5144
0
0
0
0
-0.0106572
-0.00291512
0.0296433
-0.011899
-0.0336715
-0.0150829
-0.00505792
-0.0205345
-0.00237374
-0.00131748
-0.000465662
0.0348489
0.013595
-0.0046604
-0.0305368
-0.0242523
0.026202
0.0299046
-0.0144885
0.0269175
-0.0354281
0.0243128
0.00653819
-0.025653
0.0283183
-0.0349814
-0.0327061
-0.00210494
-0.020508
0.0335617
-0.000397516
-0.0098849
-0.0366737
0.0259105
0.0312675
0.0266639
-0.00845384
0.0350533
-0.0152268
0.0253577
-0.0119368
-0.0109184
0.0262966
0.0118687
0.0271977
-0.00117362
-0.0117324
-0.011846
0.0319565
-0.0190164
-0.0106572
-0.00291512
0.0296433
-0.011899
-0.0336715
-0.0150829
-0.00505792
-0.0205345
-0.00237374
-0.00131748
-0.000465662
0.0348489
0.013595
-0.0046604
-0.0305368
-0.0242523
0.026202
0.0299046
-0.0144885
0.0269175
-0.0354281
0.0243128
0.00653819
-0.025653
0.0283183
-0.0349814
-0.0327061
-0.00210494
-0.020508
0.0335617
-0.000397516
-0.0098849
-0.0366737
0.0259105
0.0312675
0.0266639
-0.00845384
0.0350533
-0.0152268
0.0253577
-0.0119368
-0.0109184
0.0262966
0.0118687
0.0271977
-0.00117362
-0.0117324
-0.011846
0.0319565
-0.0190164
45.3867
0
3.07413
1.77365
3.07413
1.77365
17.7365
12.2967
67.227
-0.86556
1038.93
-1.56383
0
-0.749282
0
3.07413
-5.47368
0
0
0
0
0
0
0
0
-1.7786
3.78587
-1.7786
3.78587
-12.5144
0
0
0
0
-53.3579
-5.33579
-17.786
-0.017786
-0.124502
-1.7786
-10.3997
1.77365
-17.786
0
-3.5572
-729.225
-1.7786
3.26316
1.77365
-10.3997
1.77365
-2.73875
-6.26862
-0.846688
-626.235
-3.74641
-0.749282
#pairwise interactions Vj,f
























































































































































































































































































