#global bias W0
-0.844854
#unary interactions Wj
-0.0138148
-0.00377883
0.0384262
-0.0154245
-0.0436479
-0.0195517
-0.00655651
-0.0266186
-0.00307704
-0.00170783
-0.000603631
0.0451741
0.0176231
-0.00604121
-0.0395844
-0.0314379
0.0339653
0.0387649
-0.0187813
0.0348928
-0.045925
0.0315164
0.00847536
-0.0332537
0.0367086
-0.0453459
-0.0423965
-0.00272861
-0.0265843
0.0435056
-0.000515294
-0.0128137
-0.0475396
0.0335874
0.0405316
0.034564
-0.0109586
0.0454391
-0.0197382
0.0328709
-0.0154736
-0.0141534
0.0340879
0.0153852
0.0352559
-0.00152135
-0.0152085
-0.0153558
0.0414248
-0.0246507
-0.0138148
-0.00377883
0.0384262
-0.0154245
-0.0436479
-0.0195517
-0.00655651
-0.0266186
-0.00307704
-0.00170783
-0.000603631
0.0451741
0.0176231
-0.00604121
-0.0395844
-0.0314379
0.0339653
0.0387649
-0.0187813
0.0348928
-0.045925
0.0315164
0.00847536
-0.0332537
0.0367086
-0.0453459
-0.0423965
-0.00272861
-0.0265843
0.0435056
-0.000515294
-0.0128137
-0.0475396
0.0335874
0.0405316
0.034564
-0.0109586
0.0454391
-0.0197382
0.0328709
-0.0154736
-0.0141534
0.0340879
0.0153852
0.0352559
-0.00152135
-0.0152085
-0.0153558
0.0414248
-0.0246507
4.90757
-3.83764
0
0
-0.749282
0
3.07413
-5.47368
0
0
0
0
0
0
0
0
-9.31561e+11
-9.31561e+11
-12.5144
0
0
0
0
-0.00554759
-0.00151746
0.0154308
-0.00619398
-0.0175276
-0.00785136
-0.00263289
-0.0106892
-0.00123564
-0.000685812
-0.000242399
0.0181405
0.00707687
-0.00242596
-0.0158959
-0.0126245
0.0136394
0.0155667
-0.00754196
0.0140118
-0.018442
0.012656
0.00340344
-0.0133536
0.014741
-0.0182095
-0.0170251
-0.00109572
-0.0106754
0.0174705
-0.000206926
-0.00514556
-0.0190904
0.0134876
0.0162762
0.0138798
-0.00440062
0.0182469
-0.00792625
0.0131999
-0.00621369
-0.00568357
0.0136886
0.00617822
0.0141577
-0.000610924
-0.00610727
-0.00616639
0.0166349
-0.00989894
-0.00554759
-0.00151746
0.0154308
-0.00619398
-0.0175276
-0.00785136
-0.00263289
-0.0106892
-0.00123564
-0.000685812
-0.000242399
0.0181405
0.00707687
-0.00242596
-0.0158959
-0.0126245
0.0136394
0.0155667
-0.00754196
0.0140118
-0.018442
0.012656
0.00340344
-0.0133536
0.014741
-0.0182095
-0.0170251
-0.00109572
-0.0106754
0.0174705
-0.000206926
-0.00514556
-0.0190904
0.0134876
0.0162762
0.0138798
-0.00440062
0.0182469
-0.00792625
0.0131999
-0.00621369
-0.00568357
0.0136886
0.00617822
0.0141577
-0.000610924
-0.00610727
-0.00616639
0.0166349
-0.00989894
45.3867
0
-1.7786
1.77365
1.22099
1.77365
-1.7786
1.22099
12.2099
12.2967
67.227
-2.73875
0
1038.93
-1.9845
0
0
0
-0.749282
0
3.07413
0
-5.47368
0
0
0
0
0
0
0
0
-2.53684
0
-2.53684
0
-12.5144
0
0
0
0
-53.3579
-5.33579
-17.786
-0.017786
-0.124502
-1.7786
1.77365
-10.3997
-17.786
0
-3.5572
-729.225
-1.7786
1.77365
3.26316
1.77365
-10.3997
-2.73875
-6.26862
-0.846688
-626.235
11.9921
3.26316
#pairwise interactions Vj,f






























































































































































































































































































