#global bias W0
0.0438935
#unary interactions Wj
0
0
0
0
0
0
0
0
0
0
0
0
0
0
0
0
0
0
0
0
0
0
0
0
0
0
0
0
0
0
0
0
0
0
0
0
0
0
0
0
0
0
0
0
0
0
0
0
0
0
0
0
0
0
0
0
0
0
0
0
0
0
0
0
0
0
0
0
0
0
0
0
0
0
0
0
0
0
0
0
0
0
0
0
0
0
0
0
0
0
0
0
0
0
0
0
0
0
0
0
0.144737
-0.0676603
0
0
0.0457393
0
0.0829255
-0.077792
0
0
0
0
0
0
0
0
-0.077792
-0.077792
0.0670529
0.0670529
0.0670529
0.0670529
0.0670529
0.0670529
0.0670529
0
0
0
0
0
0
0
0
0
0
0
0
0
0
0
0
0
0
0
0
0
0
0
0
0
0
0
0
0
0
0
0
0
0
0
0
0
0
0
0
0
0
0
0
0
0
0
0
0
0
0
0
0
0
0
0
0
0
0
0
0
0
0
0
0
0
0
0
0
0
0
0
0
0
0
0
0
0
0
0
0
0
0
0
0
0
0
0
0
0
0
0
0
0
0
0
0
0
0
0
0
0
0
-0.112077
0
0
0
0
0
0
0
0.127342
0
0.0457393
0
0.0829255
-0.077792
0
0
0
0
0
0
0
0
0.207748
0.207748
0.0670529
0.0670529
0.0670529
0.0670529
0.0670529
0.0670529
0.0670529
0.138179
0.138179
0.138179
0.138179
0.138179
0.138179
0.225014
0.138179
0.138179
0.138179
0.138179
0.138179
-0.11114
0.225014
0
0
0
0
0
0
0
0
0
0
0
0
0
0
0
0
0
0
0
0
0
0
0
0
0
0
0
0
0
0
0
0
0
0
0
0
0
0
0
0
0
0
0
0
0
0
0
0
0
0
0
0
0
0
0
0
0
0
0
0
0
0
0
0
0
0
0
0
0
0
0
0
0
0
0
0
0
0
0
0
0
0
0
0
0
0
0
0
0
0
0
0
0
0
0
0
0
0
0
0
-0.124876
0.0579581
0.0516854
38.228
0.228696
0.0457393
#pairwise interactions Vj,f



























































































































































































































































































































































































