#global bias W0
-0.898108
#pairwise interactions Vj,f
-116.905 -63.1385 163.092 204.018 -24.3687 -19.5069 68.4024 2.31725 -133.368 -116.191
-11.3185 -55.9848 -1.73661 57.3502 -185.622 3.77032 2.15315 -84.8063 -214.388 18.0509
141.395 -11.3789 -51.8667 -3.63046 6.57436 143.643 52.186 142.413 -73.7488 42.8475
-23.4565 108.372 -162.102 -88.968 -46.3818 -27.7074 128.677 -185.945 -8.89019 -52.4866
-147.073 213.027 -73.3702 48.5054 -94.0391 86.4949 27.5038 -48.0729 -11.5068 -103.765
38.5018 109.41 37.3687 109.467 120.99 -85.0067 125.941 -31.7963 -51.5259 -98.318
-24.7787 174.678 -20.4716 74.4796 -22.6208 97.304 -119.629 -128.138 -75.4147 55.196
78.8694 -91.5502 -44.1083 -29.0448 10.9191 33.2321 142.938 -16.3367 -25.1012 94.2147
-36.3118 -68.1903 -52.1876 13.1836 18.284 -69.9633 74.1679 116.009 75.6004 -10.2034
28.1398 -0.00753466 -12.0715 80.8281 -165.814 7.8412 -47.9004 -41.4129 -143.891 -8.37822
153.733 -93.1879 -144.746 -10.5491 73.6106 75.5202 190.345 -5.35706 59.9773 79.19
-7.46962 -70.1203 115.586 -10.1661 -8.55724 105.725 30.7602 -193.4 -35.7145 93.9094
71.8449 -29.0023 24.6214 47.0989 55.9714 -215.576 81.9658 -104.898 -124.446 -80.2024
161.109 175.206 77.6948 86.2066 51.9424 -32.6678 138.658 -49.9764 79.2641 -186.224
-25.4711 20.8549 41.5019 25.0353 196.982 -62.4928 46.0857 135.936 31.1399 3.26265
-82.5232 107.559 -71.3852 37.1505 -208.025 48.8186 83.464 -200.347 -64.438 85.0931
118.661 215.827 2.30451 117.569 36.574 -26.3692 21.4985 -108.522 28.0411 1.24247
-174.268 -4.372 -38.5205 -61.04 75.59 -145.63 119.755 48.57 -112.028 12.3906
-166.533 -179.636 87.5836 -87.5829 41.832 24.8847 -26.2625 -165.609 -20.4152 -182.2
19.1507 23.4794 134.223 -32.427 11.4752 -24.7282 -107.278 -114.446 161.968 -60.514
38.6802 -42.0519 -4.00466 2.6785 -307.86 23.3607 115.475 77.8459 55.2799 31.977
112.447 -42.0122 129.08 -83.4282 15.2019 -35.2494 -100.788 -99.6558 -114.637 3.76735
-292.889 -20.748 160.896 111.108 37.9698 -43.4554 164.665 -58.9841 -0.257935 -23.4316
-52.821 14.3813 -56.0283 -98.0457 177.083 -164.745 97.6543 -6.87629 39.1274 -46.1101
-18.6531 -52.5127 -14.1285 -38.4626 -29.2915 -11.9207 -133.71 -71.2073 79.4668 -39.6118
73.4198 45.3665 -90.1363 -113.155 -58.0208 -6.25866 -110.182 -46.4187 -29.8369 57.3232
-239.18 -183.441 1.82511 -4.31576 -31.6281 67.1022 88.3227 -61.8196 93.7114 117.286
107.976 -120.81 61.5587 -229.303 145.014 65.8907 -215.156 65.5836 -124.885 -154.641
182.318 74.7785 219.481 -67.2344 -108.006 -118.847 -78.0318 -69.002 -154.028 85.1179
68.4918 77.4301 57.5799 26.0679 -16.8758 48.7203 48.6841 -103.44 -165.934 3.44432
-56.3102 -51.4202 -143.037 104.78 -21.2518 -224.375 -115.583 6.61341 -10.3742 -136.156
73.4943 30.2092 -92.4575 -117.11 -169.923 49.462 9.77187 104.353 12.382 -23.1616
30.7767 -107.769 180.191 -296.92 -56.2861 63.3539 -63.966 41.5071 180.399 116.425
-87.8531 81.5228 23.6626 22.4699 30.0738 23.0402 -45.8099 169.243 -2.61237 -43.392
-79.2939 53.6966 12.2989 76.8937 31.2237 100.071 -52.9614 118.331 -92.9106 -88.2535
-33.9648 25.5079 51.5231 -152.416 -160.11 -2.62458 12.6794 120.766 -10.4394 -18.856
-219.767 117.005 12.5623 63.2568 181.628 -75.9258 -37.1397 196.47 -21.4902 27.2389
-24.6633 -30.8712 -50.751 102.079 -18.8539 170.081 80.0846 -8.69205 14.8145 -42.7901
18.1473 179.928 202.811 -38.1814 56.184 -34.7214 52.6644 9.52315 -98.0336 231.449
78.247 -60.1593 -5.40136 45.3675 -97.1832 93.5173 88.2762 105.887 -123.614 -154.166
-69.292 -41.831 -16.8274 -85.4952 -50.4826 -66.3639 110.784 19.4819 89.1155 99.6101
34.899 -65.274 -53.7352 96.1247 53.7837 -56.5755 -88.0806 2.10527 -54.9902 -113.107
-164.689 104.866 -21.433 -34.9372 18.631 -8.92682 16.171 -60.2938 -47.9485 132.438
-70.3458 -69.6148 179.115 14.3568 34.8065 181.421 -85.4574 115.761 -137.046 8.30125
36.2366 130.695 175.578 -91.0043 29.7805 -273.212 -77.8579 1.76512 -11.9918 115.464
148.584 35.4496 106.349 104.556 69.7705 208.576 128.695 -64.8705 64.3769 25.3002
215.054 -98.1513 193.927 -131.693 119.48 -258.252 205.079 160.087 251.668 54.2731
-146.791 -91.4409 60.7622 -100.257 101.271 -97.3812 15.2363 -80.9061 -34.7649 -49.2714
142.48 82.3559 -95.908 -68.3608 -100.833 375.248 143.072 -62.8455 57.8646 -30.7561
135.276 -108.09 -62.2665 -31.2353 200.133 -35.9233 -148.964 100.677 -164.826 -71.6031
-9.37769 73.6797 57.3198 -43.3443 -126.369 9.50142 -95.3057 42.4959 86.7108 58.4262
-130.221 100.045 93.2238 161.824 -291.151 43.6251 -101.331 12.4345 -225.606 142.35
-132.519 83.4122 43.6513 -125.694 115.902 147.032 -31.041 -113.84 59.7783 27.1877
168.568 109.507 101.823 43.7602 -86.1382 133.624 23.4955 85.6558 4.16568 148.168
89.0392 32.2153 148.258 -53.1648 123.029 120.947 -68.3107 -25.8945 -25.9032 94.0503
51.6472 -0.242107 109.721 9.18053 -23.8496 36.5753 217.708 -21.4746 -59.7232 74.3791
90.6935 157.045 271.079 76.5969 29.1376 -24.1883 49.3602 35.879 128.717 -107.361
-255.531 7.08164 -40.091 -196.848 -45.7844 84.9533 -66.1896 -98.4642 -42.6942 -64.4759
-163.57 -85.9607 171.657 -42.6858 122.524 117.333 16.1976 89.7032 51.9569 -9.96718
-82.9528 -119.857 69.8916 -147.128 56.9761 -189.237 -134.177 -47.7272 75.2057 144.674
-114.871 193.69 22.6171 63.6111 -29.9562 -127.806 -43.0229 -35.6364 -91.3359 -33.0587
225.612 4.00501 65.4339 138.911 -86.4753 72.8289 16.0203 -69.952 119.525 -96.173
-163.168 -131.202 -27.9596 -23.7834 -79.6324 73.1832 136.101 -52.2439 -63.1006 112.254
48.9409 108.423 35.242 94.5011 -228.054 130.154 1.70682 -141.282 -16.4154 -27.4649
147.033 -0.508802 -24.3375 -46.5995 -8.30874 16.0733 -19.3981 70.3213 -18.1328 -27.2061
-51.1784 103.754 35.0168 113.934 -27.1153 -158.844 -78.1106 40.4721 18.9175 -130.594
-104.707 -57.957 131.098 19.7851 -194.047 -149.93 -250.795 -96.4541 48.5117 64.9809
-230.735 -30.8187 -5.49274 51.5203 92.9387 -119.354 -115.325 16.1802 -46.5198 -86.2382
178.953 -168.691 -65.9923 -21.6187 -28.787 84.6773 134.998 -3.79645 14.3431 -50.9146
125.994 -3.18251 -79.3707 28.2241 199.403 83.4021 36.5978 -20.3807 -69.6954 -10.5979
2.71082 -14.5112 -46.9633 -237.661 -43.6303 124.931 -47.0148 16.853 -211.343 -149.988
-208.731 -64.3424 19.2043 -39.2996 92.3332 -29.5981 71.7646 43.6657 -124.195 -12.2464
175.76 95.3487 -189.182 110.794 53.6231 -56.159 81.4173 122.202 10.8885 75.3752
-10.2851 51.3138 -52.5027 123.505 -0.535795 149.341 107.436 35.2988 20.2232 143.436
-15.9227 -78.6433 120.866 -146.184 -37.2728 -67.5554 103.505 11.3953 -119.218 -57.2286
184.03 85.6738 -9.08523 14.01 88.027 -76.417 -60.0487 -162.378 76.1474 -6.46671
-118.193 23.937 -37.6584 124.655 -25.177 -60.6449 11.8198 -132.559 -79.504 -80.0408
189.987 -14.9939 -23.1383 12.6272 18.4143 135.748 160.065 41.6717 -17.427 31.3804
-49.1801 -2.55796 -16.0306 -46.518 -154.524 0.661791 24.4173 106.151 71.5142 -29.9821
-105.928 -25.8689 -114.785 -52.5947 21.8169 -124.049 18.4583 54.1778 17.1993 20.1877
104.659 132.312 125.566 94.1915 55.7779 -95.323 60.5487 -152.481 53.1277 -190.683
119.12 23.9375 -167.093 30.9522 -47.1697 -88.6964 -183.177 -22.8177 -166.849 -39.4798
69.5976 -176.993 133.188 -7.11295 34.8655 174.483 -117.559 5.43487 -3.02608 67.1971
-22.0609 212.167 -93.9787 33.9667 23.8796 36.447 -5.48919 74.0417 -84.7569 -4.91077
19.1003 -100.104 -29.5652 46.1628 -62.6689 59.0865 23.2399 105.794 -91.4942 15.24
-27.4443 -63.8239 219.954 121.86 -101.277 -251.516 -93.2225 112.592 87.328 -50.8207
52.3279 -42.8213 70.8473 -17.1336 332.987 -119.699 -104.817 -130.037 -31.3429 -128.365
182.221 31.3341 -4.51674 -60.3523 -106.319 -28.9476 26.8407 56.2494 0.923866 131.053
43.6264 53.5599 -119.263 27.5199 124.581 138.996 -96.7689 123.489 56.3691 129.578
-77.2713 222.618 68.6967 -78.1428 -23.3809 -74.7602 55.3638 70.0443 -154.446 11.5217
70.9176 15.8472 -167.303 9.92725 136.032 154.823 -38.4666 -59.3715 143.287 42.4416
37.0623 34.0869 -70.1668 -2.46167 -37.2155 -117.344 -189.144 33.3081 -169.229 -80.695
-102.724 8.5614 145.014 40.3965 -64.2255 19.3538 42.1376 -81.4887 -121.746 37.073
1.81959 175.197 -120.353 -17.9831 -1.35584 -122.903 -127.145 18.3792 77.8838 -123.373
82.6119 -133.487 -136.337 122.343 22.406 132.99 -53.2192 199.273 -61.8925 65.5027
-15.2066 -55.9219 -44.5755 -121.343 -82.1749 -29.6973 23.6925 22.1827 -49.9941 23.9161
-104.038 3.47962 151.736 -94.6003 107.54 -9.09279 -43.9546 -95.9982 -209.915 139.436
89.758 190.725 63.8369 12.113 -98.8599 -118.595 -15.0032 -101.875 -110.145 -244.937
176.061 59.6471 113.103 -51.1812 135.262 -210.709 -187.795 47.489 124.206 -19.8057
-69.371 110.843 -172.761 16.6014 -50.6609 35.7176 45.0916 -37.9344 27.9604 -128.129
-nan -nan -nan -nan -nan -nan -nan -nan -nan -nan
-nan -nan -nan -nan -nan -nan -nan -nan -nan -nan
-0.48063 65.9604 143.478 101.547 69.8133 55.168 -30.3817 104.924 17.2036 -151.172
-241.623 -103.583 -74.7587 -13.3984 100.036 112.721 -25.5754 -10.4094 46.6464 220.305
-nan -nan -nan -nan -nan -nan -nan -nan -nan -nan
111.28 -142.51 65.6169 -9.22414 27.214 -72.3743 47.6482 64.6128 -0.0387793 -105.521
-nan -nan -nan -nan -nan -nan -nan -nan -nan -nan
-nan -nan -nan -nan -nan -nan -nan -nan -nan -nan
53.0336 47.5829 20.051 -116.388 -18.7832 -63.2869 222.964 109.45 -9.29205 191.824
-45.5982 65.4671 110.249 45.8644 10.7075 -57.5365 17.826 17.0278 -149.481 224.79
56.1355 116.114 -141.346 -13.4278 -47.767 103.638 78.7741 98.3867 43.674 -182.11
15.5942 86.4263 -110.671 96.1093 -56.9163 102.726 50.0826 144.348 -14.4489 -258.334
48.9614 -64.641 -180.883 -12.0773 -133.519 -199.992 -62.5356 -36.5835 39.5223 -163.895
118.838 -112.496 89.3753 39.7353 117.659 -89.1652 -0.0245782 41.5438 -144.183 19.093
-148.691 41.484 -101.527 196.334 53.924 -239.088 91.6555 107.404 55.3962 164.933
-59.993 23.8895 38.0126 25.7635 23.3814 -41.4838 -106.824 -94.6873 46.0317 47.6969
-nan -nan -nan -nan -nan -nan -nan -nan -nan -nan
-nan -nan -nan -nan -nan -nan -nan -nan -nan -nan
-nan -nan -nan -nan -nan -nan -nan -nan -nan -nan
-nan -nan -nan -nan -nan -nan -nan -nan -nan -nan
-nan -nan -nan -nan -nan -nan -nan -nan -nan -nan
-nan -nan -nan -nan -nan -nan -nan -nan -nan -nan
-nan -nan -nan -nan -nan -nan -nan -nan -nan -nan
-nan -nan -nan -nan -nan -nan -nan -nan -nan -nan
-nan -nan -nan -nan -nan -nan -nan -nan -nan -nan
-85.5228 -128.536 -1.59216 66.2261 -129.982 72.8822 104.249 -99.1188 12.2041 34.2815
-34.7289 -80.4722 25.9263 85.815 66.05 118.088 6.54681 -114.701 191.649 -142.063
109.582 65.236 -76.6354 15.0995 128.619 31.5679 -3.92694 -0.480007 -150.412 73.6006
-203.597 -30.4368 52.2776 -21.1857 -198.951 -29.5392 54.617 125.385 144.259 88.5945
32.5496 -31.4031 -131.763 -163.13 -85.4895 18.1798 -89.1375 -0.589432 -50.7886 -6.73585
27.3423 171.44 30.5822 -23.4681 63.5498 -226.083 17.5452 -32.1763 119.505 -81.5171
64.3825 -201.646 -136.576 67.1942 -7.69117 -57.7225 61.9168 -42.0845 -25.1939 85.9754
-70.8137 -9.17454 65.4675 -21.3156 -17.9853 -40.2705 -138.675 0.225957 -1.48371 39.1268
57.7746 33.4729 39.1583 -173.938 -34.1901 -248.822 91.0208 68.2592 48.8654 0.362084
-66.632 145.769 -18.8455 -71.9353 -71.0549 39.3609 -31.6058 -192.718 132.318 -124.882
140.642 -36.1041 40.4913 -15.8997 8.03754 130.767 74.5782 -33.5614 -6.02274 -135.889
15.4154 -15.7925 147.813 65.7161 -104.078 -7.80301 64.8559 139.234 -32.8343 -32.8693
0.738798 43.7187 -52.9632 -9.74371 53.4142 -30.8952 -73.5835 84.3221 -26.5833 21.4952
21.9323 -97.8313 -92.2375 -102.838 -149.112 66.8604 29.4818 -150.413 -21.8986 -0.896692
60.6749 16.7688 -65.0168 -20.5618 93.2538 -16.1133 87.3934 82.3684 183.808 45.9198
-22.9333 -124.26 32.9721 -89.4893 102.888 76.17 62.2526 203.187 -41.574 -6.49027
76.4938 -41.3825 -24.6368 133.01 68.0946 -5.59818 -50.8602 111.031 9.66818 -44.0235
46.443 257.046 -160.713 -17.1418 156.909 -106.815 33.325 -9.63855 -133.184 67.1724
154.21 98.7769 -71.2256 -87.7977 75.0761 138.272 73.4093 151.078 -39.1484 41.392
99.0404 -121.396 -160.172 98.8759 59.746 38.8176 202.426 -204.086 -150.581 37.7565
71.4245 -105.249 181.823 29.4913 -49.9816 66.7838 107.375 31.834 -153.087 249.272
-35.7826 -48.1132 146.021 -88.3653 153.342 114.554 -98.3001 67.0377 -55.9603 36.3046
89.5096 -205.227 172.559 52.6629 103.055 -27.2941 41.6814 210.436 -17.1516 9.10989
93.5135 -198.795 -94.7204 -14.4705 163.173 34.3031 130.105 202.416 -95.6405 56.7118
128.075 201.605 123.863 -135.097 -60.8307 55.9764 93.9876 -85.5662 -43.2478 0.545573
-112.867 64.6281 68.7773 -165.673 72.9049 111.345 37.2964 -84.7709 98.2757 -22.3465
-175.397 35.0943 125.092 -160.869 101.034 -8.46323 -223.374 76.0295 -38.7088 -257.649
68.0936 42.9322 -19.0026 -57.8648 52.4371 -158.165 168.48 16.9771 80.7144 169.254
17.9179 0.504921 34.9062 59.859 -53.4389 61.5423 55.3958 -155.754 -111.075 -28.4404
63.9584 28.8799 62.4198 185.405 24.8381 -35.9995 69.5252 -4.10417 -55.2178 38.4677
-136.65 -21.1913 -48.9586 -16.8856 11.4445 -22.7289 -70.2976 1.07353 -134.464 -145.168
68.2011 -103.226 -123.052 -25.4585 -65.6095 93.0045 15.1061 -131.906 137.381 -146.469
6.40872 54.19 -80.4833 -55.8224 -6.41981 24.8573 -37.2029 147.19 78.9044 7.13249
-113.337 -157.89 -0.0482113 -124.678 -114.426 13.3408 13.3828 62.7243 -30.3847 -96.857
-77.7578 -75.1741 7.29418 69.7405 -63.9234 197.486 53.539 -47.4921 -56.8562 -50.1118
-71.5201 -7.56399 -169.663 25.0042 116.821 46.2397 -91.0845 -102.263 86.7147 -54.6979
-36.8024 11.7012 -23.7236 123.366 -97.5292 121.302 90.0249 -141.988 -64.5068 27.2795
-56.5845 -64.7093 -134.838 132.552 -25.9313 125.985 31.4079 23.101 71.1771 -189.623
-175.804 33.7631 173.353 -8.46673 -87.8152 43.7691 -73.7246 -27.7502 -35.9424 48.5592
-250.471 72.2784 155.896 -152.116 81.1986 -35.6301 150.274 -79.3415 112.714 96.1308
-19.4455 -50.5102 -50.1759 5.92695 19.6303 -29.8445 -35.1071 74.9896 32.6264 -29.7596
30.6041 -119.655 43.9823 17.9446 -14.0822 -38.0704 -31.4867 -89.8043 20.0023 133.518
-47.9621 -134.657 43.9694 -35.1901 -177.506 1.90196 65.6722 202.744 20.9575 -134.133
98.4327 18.012 128.481 -0.685232 63.981 -77.5357 -22.356 48.8908 -51.4155 148.03
-32.0509 138.254 121.57 -115.512 -13.8826 37.7109 -253.242 44.1656 -92.6073 146.494
106.893 -12.4487 -32.7945 79.3904 181.171 -26.9419 7.28921 -152.991 66.3751 90.3906
86.6898 64.4837 64.5559 -55.5078 -150.543 -13.9301 96.3195 -35.0558 -52.2003 -51.2291
110.099 17.5927 -67.9806 26.6924 35.6089 161.975 74.451 -67.5341 63.2505 -96.7965
47.2317 -190.422 125.774 127.027 76.8403 79.1686 -40.4995 -163.518 -15.7566 120.146
-73.0638 -116.21 -36.8538 -29.1712 -78.8917 -45.8714 161.7 50.4099 48.5761 -42.5627
59.9352 -54.6593 -142.442 -20.0492 -75.4677 -41.0628 -173.537 113.541 -113.412 -82.6973
19.897 -66.9673 24.0816 -20.3418 -87.2121 62.9102 -159.553 -2.11302 -87.9342 77.4724
-67.4709 -148.051 1.81599 65.2755 -72.6859 1.50718 -1.78769 -51.5368 89.4065 52.6071
-13.7973 38.2681 131.77 35.1788 166.432 -32.8996 -6.75133 -19.2963 -22.205 3.78774
48.0071 19.541 59.7586 -22.7782 -13.8692 71.3781 9.75996 -52.2845 147.941 34.0143
179.294 -119.303 -96.8033 18.0896 -5.34035 -44.2718 8.98424 139.446 -96.0434 -112.71
-74.2068 246.481 -13.6874 8.39419 85.055 -47.419 90.9203 -98.1068 -13.011 123.909
121.971 -61.1154 32.5948 -34.9543 -114.943 10.3812 -176.281 203.294 -46.2583 78.0908
-79.3707 -94.1999 175.306 207.769 -82.8253 93.8757 -188.758 -96.4658 0.944458 14.7887
159.989 -12.0318 -133.279 -49.2584 44.0419 111.145 -217.977 26.167 114.618 -10.4442
125.242 49.1828 19.3242 -77.5934 35.2719 39.4972 40.9532 -65.7336 -60.7539 39.8607
13.2627 3.13639 123.825 102.54 -37.8995 102.149 65.2887 43.7893 18.2108 -159.34
-17.4798 -133.356 22.3317 58.5237 31.1868 220.294 -52.1527 -153.91 70.0941 104.827
102.153 -46.2551 -61.4997 37.7869 -16.5961 -30.5137 -93.965 -9.14308 -156.51 -61.0074
-29.526 -154.446 -63.8628 -95.0148 92.3803 -113.112 -66.9969 -245.654 -47.2449 -64.3523
72.3559 130.151 84.9944 -123.645 -93.2917 -121.646 290.297 -96.5834 -134.469 14.8234
56.4726 78.3403 86.3 4.74123 91.8747 188.788 -38.1917 82.5764 -88.6888 -10.5078
-124.812 -15.6734 -41.1068 151.831 -38.8796 -37.7212 -154.468 94.469 -8.1014 -30.9803
117.989 -100.523 103.657 144.247 -166.409 93.4362 22.4975 15.4895 -178.262 -100.888
-29.022 -174.394 140.715 156.926 5.47908 158.903 -32.6954 148.815 18.8114 -51.8823
-84.1495 -190.942 1.86633 -153.382 60.4415 -77.0714 26.7726 20.5582 12.6819 44.8864
232.074 -77.7807 -82.5845 97.0039 52.3602 -200.085 -5.95204 -160.824 135.329 30.9591
238.541 31.3732 112.363 85.8181 91.2391 85.3336 28.7976 -24.054 -105.357 -102.641
12.8342 103.122 -75.8283 0.849965 -23.116 -60.8371 62.7465 82.7243 -110.574 88.9932
43.7665 68.7413 163.899 86.1801 -223.485 57.5368 2.80334 -32.9391 -158.144 -151.36
121.834 45.6221 121.261 -65.3041 4.88923 70.2457 -43.6361 182.412 72.3426 65.7329
-241.147 81.5859 127.737 -184.306 -78.0407 -34.2318 60.212 -80.1365 -180.772 24.9769
0.506714 23.9887 -10.3835 -158.233 -79.6414 -176.903 -39.1704 -82.3181 90.6447 42.5828
-67.1091 18.3449 -82.51 -102.566 133.482 53.428 14.8951 -47.9492 81.3101 -41.1684
-28.8682 79.5673 -56.4231 49.3914 -116.813 63.9704 23.2476 192.545 -193.949 40.0081
98.9214 84.5171 32.3133 22.1619 41.6313 90.1541 153.308 -12.4253 -108.974 36.8971
-69.3586 205.118 -46.9637 -52.7226 -15.3416 78.6052 -107.9 29.8571 77.1519 -25.8255
-79.4654 198.889 4.63218 -108.606 -32.3085 44.9191 182.587 -107.249 29.6721 -76.4
-29.301 -28.8662 -62.6117 98.1346 -108.074 121.175 -25.978 -180.983 4.31148 -51.8099
135.911 28.0037 -83.4885 -71.2563 -219.351 -12.3615 -20.1354 59.5807 93.4575 46.3231
60.022 55.5469 -27.5965 73.976 -47.5273 112.296 -173.102 -63.7632 74.6152 -147.665
76.8051 48.4546 -32.2841 46.9777 28.7598 40.5645 170.991 221.91 -66.377 -187.597
101.908 22.221 34.214 -148.727 -17.7373 18.2095 -164.243 24.7403 -11.0401 54.9944
111.664 -0.387649 41.4202 147.801 195.389 -147.923 -62.3123 32.4541 74.7809 180.071
196.217 58.5547 292.168 124.034 185.711 -0.71745 25.7297 -103.199 12.4143 102.937
-59.0714 77.4016 21.2155 -36.8371 86.2819 -35.8525 22.9077 -18.9415 152.948 -86.8637
29.8022 25.5936 134.75 -232.943 194.708 -2.89085 -83.936 -150.695 2.84115 -0.579732
-1.26126 -149.334 102.711 26.0537 -81.8843 -33.6247 77.2442 53.8323 -42.2429 -44.5907
56.4094 18.9786 -3.85061 -85.5738 39.3057 -33.6377 -25.7989 -100.557 58.4474 -150.312
-33.6148 5.6159 83.2366 41.7216 -196.456 -141.849 127.012 90.3052 135.987 -79.113
116.084 -14.9881 57.7452 28.8337 -51.1328 -31.0276 0.718941 96.3755 -126.498 20.8422
-203.132 138.252 116.06 8.48744 10.0892 -144.274 -181.22 6.4605 -105.452 -47.7482
-29.5214 -40.9694 -62.5391 187.713 36.9845 -217.758 0.478269 -102.755 34.2002 15.6428
54.6674 33.8079 -30.6857 63.2428 9.98461 -30.9952 168.521 92.4484 -111.025 0.789565
326.445 -89.235 -81.399 -98.5085 -38.027 -344.35 73.6996 -78.3928 -107.74 192.489
-3.33665 -112.527 49.7346 31.6583 55.3337 1.68794 18.8947 65.5902 -56.197 -155.146
159.569 -55.3244 183.928 -214.617 147.556 20.5726 167.6 172.282 -116.329 -91.6766
-16.3691 53.1911 -102.358 -60.1166 59.2529 -19.4052 30.6739 -44.0733 -9.38564 15.5385
-nan -nan -nan -nan -nan -nan -nan -nan -nan -nan
-39.832 93.6134 -72.0233 -183.479 36.454 132.727 42.7227 -37.6218 -23.6599 -5.11842
126.019 85.6506 4.62991 -2.69667 -163.416 51.0816 48.2702 -31.3639 -38.0995 181.9
-58.1886 -92.5818 168.095 236.934 -110.427 -34.5982 -140.426 181.193 -139.526 151.694
-51.0459 144.786 13.3876 59.6552 4.46622 37.4995 17.6394 4.10771 -7.81929 -22.8976
99.7926 -23.2538 -15.2043 -97.1659 132.777 -47.286 -105.796 -122.017 -57.6734 -38.285
239.051 268.039 60.2495 -78.9921 82.887 54.1973 -45.0018 -310.953 99.1034 -98.9229
-92.8995 -3.33818 -4.318 -26.0475 -15.8479 -0.654916 146.101 90.5987 23.3814 44.871
-nan -nan -nan -nan -nan -nan -nan -nan -nan -nan
-22.5197 -33.9833 -100.728 -28.9187 0.444002 -48.5367 80.2434 -154.384 132.792 -121.692
-nan -nan -nan -nan -nan -nan -nan -nan -nan -nan
68.2964 -48.2756 163.54 86.1581 168.231 -1.86036 -60.3589 8.18749 204.682 150.97
-nan -nan -nan -nan -nan -nan -nan -nan -nan -nan
-nan -nan -nan -nan -nan -nan -nan -nan -nan -nan
-113.776 -27.9026 -98.4414 39.756 -31.4111 -26.3488 139.646 -20.0463 61.4047 -80.6829
-37.7504 -125.183 43.8041 -55.1768 62.0862 -38.7434 121.42 60.1194 -85.9064 82.3087
-124.831 255.839 -66.1078 -27.9473 -142.128 68.1816 106.089 -74.3472 -7.51168 97.209
89.2852 -22.8752 32.2439 -226.77 123.551 26.0472 106.541 -73.474 27.5911 -111.403
-26.5641 -18.1686 109.053 87.3437 -110.82 172.901 -49.2461 -101.91 -123.939 -61.2269
-3.75688 17.9109 47.4105 -9.91722 60.2194 46.8785 24.9113 -161.208 -105.251 11.3325
-142.957 -167.227 -23.5818 72.9617 -286.273 -55.1503 -49.2363 4.24881 224.285 45.8367
-71.7248 -13.7664 -106.012 120.664 90.9095 -38.4503 18.7861 72.2939 72.6193 -55.3862
-nan -nan -nan -nan -nan -nan -nan -nan -nan -nan
-nan -nan -nan -nan -nan -nan -nan -nan -nan -nan
-nan -nan -nan -nan -nan -nan -nan -nan -nan -nan
-nan -nan -nan -nan -nan -nan -nan -nan -nan -nan
-nan -nan -nan -nan -nan -nan -nan -nan -nan -nan
-nan -nan -nan -nan -nan -nan -nan -nan -nan -nan
-nan -nan -nan -nan -nan -nan -nan -nan -nan -nan
-nan -nan -nan -nan -nan -nan -nan -nan -nan -nan
-nan -nan -nan -nan -nan -nan -nan -nan -nan -nan
-nan -nan -nan -nan -nan -nan -nan -nan -nan -nan
-nan -nan -nan -nan -nan -nan -nan -nan -nan -nan
-nan -nan -nan -nan -nan -nan -nan -nan -nan -nan
-nan -nan -nan -nan -nan -nan -nan -nan -nan -nan
-nan -nan -nan -nan -nan -nan -nan -nan -nan -nan
-nan -nan -nan -nan -nan -nan -nan -nan -nan -nan
-nan -nan -nan -nan -nan -nan -nan -nan -nan -nan
-nan -nan -nan -nan -nan -nan -nan -nan -nan -nan
-nan -nan -nan -nan -nan -nan -nan -nan -nan -nan
-nan -nan -nan -nan -nan -nan -nan -nan -nan -nan
-nan -nan -nan -nan -nan -nan -nan -nan -nan -nan
-nan -nan -nan -nan -nan -nan -nan -nan -nan -nan
-nan -nan -nan -nan -nan -nan -nan -nan -nan -nan
-nan -nan -nan -nan -nan -nan -nan -nan -nan -nan
-95.9238 49.1986 30.4158 74.3193 -125.173 22.3923 20.1305 37.2364 164.32 -32.0827
32.5782 -129.951 -31.5562 62.6825 107.241 75.6153 124.749 17.2989 -94.7432 93.1833
-116.842 158.275 -71.7195 22.2228 89.5542 58.1035 -63.5352 6.61911 -63.3456 -39.5398
22.8519 54.2189 43.1612 143.718 -53.2226 -23.5677 151.064 104.558 31.1874 131.676
-22.2956 -65.6971 -194.168 22.1423 -35.0588 131.566 85.7988 3.35944 21.0818 -106.056
89.1783 -40.4787 -127.022 18.9177 21.812 164.572 60.6622 54.3493 167.809 218.975
50.8074 98.7787 86.9222 -120.428 69.5514 54.2155 71.9903 2.86327 14.4471 -79.4441
-84.6654 -37.5273 -118.972 16.8899 -277.134 -153.505 -76.5927 -38.0954 -99.4148 75.6463
100.11 -2.07851 99.9622 -142.179 -74.6636 2.81746 -21.8175 82.4822 -5.90083 -239.321
-63.3915 -108.693 -55.8782 27.896 225.095 11.6902 -7.5601 -110.911 -37.9897 -8.53847
-54.9854 109.564 82.9302 -236.733 -86.0457 -43.6174 -46.0365 -20.4469 249.68 57.378
41.909 9.76031 -66.4766 -34.9471 46.8208 13.8319 -194.583 -14.732 -41.523 117.437
58.9558 -48.6851 -28.5021 -115.152 -7.002 -5.20714 166.693 -27.5215 163.798 16.0462
104.119 -121.002 36.9439 42.9159 118.828 176.486 -45.0958 -162.263 78.5069 125.708
-4.96784 37.5635 71.628 16.8802 -84.1881 -136.691 -240.486 -68.3079 99.6708 -5.83839
-51.8282 -137.438 13.5036 -8.81092 -105.217 -46.2696 50.9441 -1.74322 29.1995 106.027
154.44 131.718 -131.582 -148.474 185.172 -130.388 -38.5742 -18.999 91.0831 6.4712
-233.437 -147.384 224.653 85.5851 -83.5981 35.5607 -52.0151 11.3787 85.6528 153.945
-40.6811 -139.302 19.9695 -96.1294 1.86435 -131.869 -54.0594 308.62 -15.5253 -44.6662
47.0446 -166.12 61.1266 33.9287 -69.5006 17.0259 208.52 -237.253 21.0548 -32.1281
-50.3566 -71.9782 -130.44 -7.70182 -20.8436 132.328 115.451 68.0395 -45.4807 -83.7629
106.457 -66.1359 26.2022 -99.7013 67.9868 -27.6498 119.431 20.8982 112.347 -82.8405
-30.5956 13.1555 69.5482 -192.073 -63.1875 -76.9017 228.105 -32.5605 -104.304 -20.3458
73.2475 -221.478 57.8614 -78.529 -96.6555 -71.3199 -39.1366 96.5382 168.816 131.227
-55.8988 49.3144 115.776 -55.1565 -11.798 28.0036 -9.25748 39.3142 19.3819 -111.837
-44.0141 -7.53096 -119.649 180.618 123.651 -72.2587 -64.1334 -16.8149 14.9901 -55.5635
25.6449 -199.23 -71.3753 -142.383 1.18682 149.338 30.1692 44.2665 -45.9955 16.9712
-45.8563 10.7101 -74.9976 134.69 -75.5894 -82.1219 -58.9079 14.693 -46.1183 141.27
58.0464 2.30959 59.397 59.2466 -6.66045 -77.8301 75.7174 14.1846 43.7262 1.57416
72.5847 37.4996 55.8548 8.82736 63.64 166.092 -71.905 -95.3285 -41.1695 -34.9986
39.6283 42.5318 59.3667 14.1986 8.44777 -28.5116 78.9804 -26.3277 -143.102 -54.6377
-25.9919 -41.8159 7.91404 76.8582 -48.6229 -124.279 8.03017 294.183 -101.708 11.2861
51.5025 -47.2254 -128.711 -94.6116 -41.9796 -133.355 -200.273 -144.73 93.7138 195.198
91.9792 -116.589 2.02726 -91.6282 69.6297 -261.011 -118.187 -125.22 94.6274 -145.074
-134.387 84.0018 85.4172 69.9546 23.7013 73.8683 -108.837 -17.7587 -31.6207 -139.611
-18.4755 0.676622 112.196 -17.9437 86.6347 -58.9978 54.3216 -10.9394 64.738 60.4154
88.8286 108.465 19.9447 49.4152 -38.2846 -104.238 79.8104 84.2598 132.739 225.104
11.2487 -1.25963 -12.289 195.311 -30.6933 160.419 30.8028 -30.0425 -22.4353 114.777
26.1873 70.6441 33.1417 -227.393 -62.6995 8.89729 -50.635 87.8243 -63.0736 -54.0456
271.975 18.5043 -94.6652 -79.4602 200.253 -99.8972 7.99692 4.66471 152.556 -31.6589
-29.0487 242.229 -29.0191 -91.1863 152.9 31.6441 -69.9029 71.6301 -60.3113 -152.777
-123.675 39.5659 114.847 -154.138 -34.679 51.6819 -48.6544 -82.6323 -116.358 -145.44
159.933 -119.062 -105.362 -198.403 10.3164 -80.7387 -125.223 217.13 138.644 -76.9485
-2.57494 -229.254 -62.3389 77.9646 11.3324 -26.9294 -4.37985 23.0014 -60.7919 28.9984
42.447 -22.6402 -69.6434 4.08993 -52.396 -9.64683 -69.23 46.3855 -36.3289 -16.6054
-80.2824 -110.752 -20.4145 74.5775 64.5752 51.5038 121.395 -207.084 95.0331 2.38378
-77.9828 -18.1642 38.806 -48.8575 62.2631 -196.698 -104.342 33.3174 134.081 95.4736
10.9088 -49.8563 -208.886 222.808 250.302 259.378 -57.3132 110.238 25.0593 -34.6795
139.69 52.3181 -94.5373 129.096 -64.4574 59.9391 -135.007 123.625 -106.224 163.279
-83.3387 150.514 -21.7053 -39.541 -147.968 26.3007 32.4575 -154.551 142.768 -18.1336
-62.1703 215.433 -71.9209 -174.932 41.7376 32.921 -17.1374 179.642 -98.4635 -97.2183
18.9637 56.236 -21.1318 -17.7132 40.1776 -14.6867 63.3089 101.857 -35.9394 -140.104
108.561 121.313 18.8026 -52.1874 66.6744 85.3394 151.541 -50.7505 42.8589 104.119
26.2328 126.514 36.8533 147.707 64.1007 108.204 36.7116 -84.4772 -123.087 -166.012
83.6147 -49.735 -86.1989 -100.647 87.499 -23.5967 230.625 21.8604 89.25 -123.445
-74.1842 -52.0978 111.88 10.9859 55.4521 -129.498 96.9932 -58.7713 -158.786 -74.8611
-1.41253 -22.8457 41.9097 -41.4187 31.9717 59.4662 12.8299 70.0048 -78.2234 -43.3072
-18.594 70.1271 -67.248 36.8462 -22.0441 -198.079 -28.6601 -8.78308 3.59889 44.9962
8.65891 -62.1427 18.6674 -251.858 138.145 -77.0519 -79.1701 -89.8152 158.418 -48.4584
-13.7985 138.451 56.2309 -53.8414 -112.441 26.8137 71.1444 -54.1144 155.109 115.928
-46.5765 47.0153 22.1603 -168.735 -106.878 49.8259 -17.9422 -79.6985 60.1986 123.122
16.2933 -53.3837 17.2325 242.483 6.72133 -35.9204 72.0305 -2.65245 57.7931 129.824
87.9497 45.8306 26.9192 -70.5268 4.35166 -27.5813 -144.522 104.619 -86.4299 145.142
-29.8656 -147.967 -46.338 64.6307 -130.168 -163.632 -23.1213 -61.5071 33.7088 102.163
-111.712 65.0606 3.33332 125.384 97.8239 175.878 -46.1084 -17.4493 -175.842 -9.77509
-26.686 -101.894 3.23363 47.6496 44.806 -22.059 -21.1851 -133.203 101.66 -33.2766
5.64098 -3.10287 208.058 -163.403 -45.9585 58.5564 86.6886 69.8289 -35.6818 96.1957
-157.812 56.2996 101.301 -48.2071 64.9759 14.8641 -68.191 93.0426 18.6558 104.816
76.9395 -178.596 39.836 -111.636 150.616 -156.706 217.085 9.58446 -271.487 -226.126
-43.8599 37.9785 144.713 24.4935 7.64748 -116.983 -96.4747 90.2373 86.0108 184.852
-73.7826 46.9322 -139.369 197.136 -57.7169 12.183 -50.7992 -7.26652 -173.182 -87.4665
118.668 104.566 19.4771 -66.5304 123.231 -100.187 -70.9585 -83.4202 88.4792 -96.097
-71.2751 43.184 -160.172 108.441 -30.0463 -0.2542 -95.0803 10.4495 -14.3821 106.115
-13.3954 -77.7189 75.5497 -204.546 -73.4092 -3.65482 119.598 -63.1018 125.136 -63.3336
-108.689 71.6201 160.924 -18.299 -50.1017 10.3185 -132.375 -128.282 -47.5671 -24.4149
5.54083 31.1536 -62.5968 -232.002 107.971 39.3209 -60.3298 31.4992 106.898 237.448
119.031 97.8322 217.526 -102.465 -0.305409 115.587 95.317 -106.029 202.304 49.3021
-37.6225 29.2179 -95.3327 -193.453 -200.643 -156.83 67.7864 88.4262 1.14539 -207.257
88.056 -94.3469 -69.6095 -0.425382 78.64 -197.015 -0.151856 -58.636 -150.693 115.752
-49.241 -133.139 -39.7943 -150.756 -263.809 -18.4569 -101.571 100.808 115.295 -73.6825
-107.812 -159.193 -14.1917 45.8572 -103.083 8.76388 -132.68 -17.5818 46.9013 47.0607
-115.102 -33.2284 114.204 -12.7867 113.82 -125.219 16.7895 111.479 -1.80262 168.677
33.3503 81.3512 -18.2205 -172.538 -28.3577 -0.393315 -40.695 -17.7269 33.4806 12.3586
5.75031 2.65813 70.2838 -86.4203 -130.446 -148.563 -49.2358 197.018 135.527 10.828
-13.0876 -110.974 -55.63 -55.5476 -151.065 -115.765 -47.4425 204.278 17.2142 24.0664
65.4598 -20.5919 -20.8747 95.8617 139.918 -13.9413 122.783 89.5328 -40.6175 -99.0861
-172.252 44.2605 135.211 166.957 -54.2224 9.87553 119.682 79.7494 -124.257 -195.981
-28.5668 -69.2384 131.738 19.4599 -214.139 2.22463 -101.503 163.976 -87.8781 -14.5389
11.44 -36.3535 70.8161 -35.7756 154.239 -178.491 -64.0421 31.6532 -107.254 -117.115
-56.5161 -20.923 -0.535362 -81.7516 40.5001 38.8344 3.04611 -72.8317 64.2455 -146.955
-203.262 156.964 -37.3251 38.9595 -92.7197 -71.154 49.8619 285.767 -61.0845 26.7893
16.6948 -175.651 -111.265 -19.1779 58.2687 -74.087 -46.1874 145.922 -84.7494 81.3079
19.8534 -20.6375 24.4178 -53.0101 120.63 -162.489 -45.8877 157.556 112.768 106.286
-91.2798 -18.3674 16.3994 130.277 41.9576 81.8857 16.9061 -115.128 -83.3502 -55.2735
0.812392 116.36 4.83317 -48.7922 -53.2279 -6.4581 64.977 33.6024 -30.6684 -35.3482
-71.5254 -59.6766 -48.4179 -79.2399 35.4244 188.298 11.8395 -33.0958 -62.6319 5.01244
5.27842 -135.153 -114.234 -73.1671 24.1449 92.4418 125.642 -25.2277 117.053 20.3332
169.402 22.8118 -106.926 -147.751 -14.4879 114.703 35.9316 -54.0329 -10.2247 -11.7882
-27.4074 69.9572 -41.336 -63.0589 108.056 101.932 24.7228 -20.1241 41.8896 -82.8741
-193.734 41.7605 -134.839 117.634 18.5505 -9.40497 -3.48545 -42.1254 -146.772 -19.4077
-nan -nan -nan -nan -nan -nan -nan -nan -nan -nan
-nan -nan -nan -nan -nan -nan -nan -nan -nan -nan
-nan -nan -nan -nan -nan -nan -nan -nan -nan -nan
-nan -nan -nan -nan -nan -nan -nan -nan -nan -nan
-nan -nan -nan -nan -nan -nan -nan -nan -nan -nan
-nan -nan -nan -nan -nan -nan -nan -nan -nan -nan
