#global bias W0
0.0438935
#unary interactions Wj
-0.000407434
-0.000111447
0.00113329
-0.000454908
-0.00128729
-0.000576632
-0.000193368
-0.000785053
-9.075e-05
-5.03684e-05
-1.78026e-05
0.0013323
0.00051975
-0.000178171
-0.00116745
-0.000927184
0.00100172
0.00114328
-0.000553908
0.00102908
-0.00135445
0.0009295
0.000249961
-0.000980737
0.00108263
-0.00133737
-0.00125038
-8.04737e-05
-0.00078404
0.00128309
-1.51974e-05
-0.000377908
-0.00140207
0.000990579
0.00119538
0.00101938
-0.000323197
0.00134012
-0.000582132
0.000969447
-0.000456355
-0.000417421
0.00100534
0.00045375
0.00103979
-4.48684e-05
-0.00044854
-0.000452882
0.00122172
-0.000727013
-0.000407434
-0.000111447
0.00113329
-0.000454908
-0.00128729
-0.000576632
-0.000193368
-0.000785053
-9.075e-05
-5.03684e-05
-1.78026e-05
0.0013323
0.00051975
-0.000178171
-0.00116745
-0.000927184
0.00100172
0.00114328
-0.000553908
0.00102908
-0.00135445
0.0009295
0.000249961
-0.000980737
0.00108263
-0.00133737
-0.00125038
-8.04737e-05
-0.00078404
0.00128309
-1.51974e-05
-0.000377908
-0.00140207
0.000990579
0.00119538
0.00101938
-0.000323197
0.00134012
-0.000582132
0.000969447
-0.000456355
-0.000417421
0.00100534
0.00045375
0.00103979
-4.48684e-05
-0.00044854
-0.000452882
0.00122172
-0.000727013
0.144737
-0.0676603
0
0
0.0457393
0
0.0829255
-0.077792
0
0
0
0
0
0
0
0
-0.077792
-0.077792
0.0670529
0.0670529
0.0670529
0.0670529
0.0670529
0.0670529
0.0670529
0.000137529
3.7619e-05
-0.000382541
0.000153554
0.000434524
0.000194642
6.52714e-05
0.000264994
3.06326e-05
1.70018e-05
6.00927e-06
-0.000449718
-0.000175441
6.01415e-05
0.000394071
0.000312971
-0.000338131
-0.000385912
0.000186971
-0.000347365
0.000457193
-0.000313752
-8.4374e-05
0.000331047
-0.000365442
0.000451428
0.000422066
2.71639e-05
0.000264652
-0.000433107
5.12986e-06
0.000127563
0.000473267
-0.000334369
-0.0004035
-0.000344092
0.000109095
-0.000452356
0.000196498
-0.000327236
0.000154042
0.0001409
-0.000339353
-0.000153163
-0.00035098
1.51453e-05
0.000151404
0.00015287
-0.000412392
0.000245403
0.000137529
3.7619e-05
-0.000382541
0.000153554
0.000434524
0.000194642
6.52714e-05
0.000264994
3.06326e-05
1.70018e-05
6.00927e-06
-0.000449718
-0.000175441
6.01415e-05
0.000394071
0.000312971
-0.000338131
-0.000385912
0.000186971
-0.000347365
0.000457193
-0.000313752
-8.4374e-05
0.000331047
-0.000365442
0.000451428
0.000422066
2.71639e-05
0.000264652
-0.000433107
5.12986e-06
0.000127563
0.000473267
-0.000334369
-0.0004035
-0.000344092
0.000109095
-0.000452356
0.000196498
-0.000327236
0.000154042
0.0001409
-0.000339353
-0.000153163
-0.00035098
1.51453e-05
0.000151404
0.00015287
-0.000412392
0.000245403
0
0
0
-0.142118
0
0
0
0
0
0
0
0.0670529
-0.0488558
0
0
0.0457393
0
0.0829255
0
-0.077792
0
0
0
0
0
0
0
0
0.138179
0.138179
0.0955695
0.0955695
0.0955695
0.0955695
0.0955695
0.0955695
0.0955695
0.138179
0.138179
0.138179
0.138179
0.138179
0.138179
0.225014
0.138179
0.138179
0.138179
0.138179
0.138179
-0.11114
0.225014
0
0
0
0
0
0
0
0
0
0
0
0
0
0
0
0
0
0
0
0
0
0
0
0
0
0
0
0
0
0
0
0
0
0
0
0
0
0
0
0
0
0
0
0
0
0
0
0
0
0
0
0
0
0
0
0
0
0
0
0
0
0
0
0
0
0
0
0
0
0
0
0
0
0
0
0
0
0
0
0
0
0
0
0
0
0
0
0
0
0
0
0
0
0
0
0
0
0
0
0
-0.124876
0.0579581
0.0516854
38.228
0.298815
0.225014
#pairwise interactions Vj,f






























































































































































































































































































































































































