peacock 0.0237620593321,-0.0123541790748,0.0265842292509,-0.123347224636,-0.0218921482599,0.0826575290431,-0.0378529139894,0.0683830670371,-0.0381649503528,-0.0461215892306,0.0524657518424,-0.00870260381305,-0.0113038681363,0.00341240506081,-0.0354185304816,0.0248646647197,0.0105017635719,-0.0799382176915,0.0446102412007,0.036315803253,0.0157710060927,-0.0519997160169,0.0305687971074,-0.0786502746241,-0.025807502875,0.0293850584202,-0.0143871257823,-0.0905103480588,0.0790263332358,-0.0355656086196,-0.056944809857,-0.0050977474893,0.0529487064603,0.0147153119021,-0.00324494746839,0.00509524812224,0.03299452896,0.03411597573,-0.043943871493,-0.0422750633389,-0.0138011203384,0.0402098171187,0.122812552346,0.0139618488656,-0.0497299062164,-0.105353704457,0.166362677399,-0.0507994430553,0.0340815613683,0.0349903696799,-0.0215449284988,-0.0573531679814,0.00219732815596,-0.00708359074092,0.00203967577273,0.0962144804465,0.0484579206464,-0.100513584033,-0.00820292266182,-0.0540449673007,0.000850553833402,0.0607842221656,-0.0357759399699,-0.0824862262706,0.00608019099939,0.0170627943401,0.0898014891113,-0.0644354129093,0.0252999391046,-0.0549180154376,-0.00111990869791,-0.0902963637874,-0.0565278000775,-0.0382653095529,-0.00639030477274,-0.104569095462,-0.00544342917837,-0.0297126677629,0.020237182754,-0.0760184411193,-0.0339475568425,0.00916037250141,-0.0806707244964,0.0654253545205,-0.018719682436,-0.0194396924057,-0.0494267137672,-0.0289872745411,-0.0310132999245,-0.00656891338739,0.00732968226596,-0.00937281870076,0.00779706390452,-0.0129678698153,0.0305924449649,-0.0440788373138,-0.0502547732972,0.0467627730087,0.00627648744241,0.116296510184,0.0370100505162,-0.0286631258604,0.0290945550652,-0.0294375451283,-0.0121734556111,0.0179671806946,0.0436552907281,0.0478096232851,-0.00257011836458,0.0476704277663,-0.05879914795,-0.0334788293909,0.0272934727164,0.010849944628,0.0370117808472,-0.130166843764,0.0372713305025,-0.0490475790115,-0.0763750815716,0.021606066862,0.0315310534221,-0.000639261188079,0.0103208478492,-0.000980905438068,0.0113563548443,0.0253926079445,0.0326063580311,-0.0235561499389,0.0292052962515,0.0499010167299,0.00371117555293,0.059288447115,-0.0915950733589,-0.0456190241943,0.00160055620775,-0.0355900255131,0.0350288214807,-0.0222789733758,0.0710877667044,-0.0224704633437,0.0579876226944,0.0227323201071,-0.04061682943,-0.0302963660988,0.0498314189705,0.0310713621437,-0.0619744976589,0.00896542187142,0.0497960433138,0.0889774670204,0.0212663452021,0.0060411624216,-0.058604774097,-0.0113550090313,-0.0159155848636,0.0600744019231,0.0307289488577,0.0361396940054,0.0724003189242,-0.00723778246208,0.0399475758373,-0.0479613156392,-0.0114563295264,0.065252898194,-0.0775322885162,-0.0813630491696,0.0795356273372,-0.00722740047587,0.0704781134029,-0.0886535105988,-0.0357169164557,0.0274559315747,-0.00332511947303,-0.0450009114967,0.0665423793334,-0.00922189538267,-0.0408698422792,0.0605444751877,0.0399702623998,0.0541224476793,0.00993286917922,0.0550149139756,0.0734183303501,0.0150988686149,0.0643890784893,0.0985827268569,-0.116480117533,-0.0406912336645,0.120954369073,0.0291883774592,-0.0780763814974,0.058019153171,0.100713533398,-0.115299262731,-0.142391248011,-0.180315105573,-0.0815933754563,-0.166443233921,-0.0565197251993,-0.0982741511556,-0.0497933516877,-0.0335015159534,-0.0248373639411,0.0310778989498,0.0946325733621,0.0942567070094,0.0274153649249,-0.037342850852,0.0169545525209,0.0543781521545,0.0227036735155,-0.0243822868788,0.0539719088792,-0.0435047519281,0.0169174465331,-0.0161343756101,0.0834586723125,-0.0773292630081,0.0316118022037,-0.0241598432113,-0.0405045501717,0.132249008777,0.0757900374226,-0.0357705567178,0.0198488195661,-0.0363392588515,-0.00754155168829,-0.0495687931711,-0.0781652051572,0.0462281007188,-0.0595681839657,-0.0394842316378,-0.00837211058529,-0.0395096098263,0.0170510665408,0.050444148416,-0.0152945882809,0.0930887335605,-0.137944104991,0.0818069752097,0.0253089752778,0.0282680336073,-0.049906976759,-0.0971075235197,0.044819995774,-0.115247929577,-0.021946557558,-0.0472862942764,-0.0264265768677,-0.0295275223421,-0.0240448723269,0.0232716066131,0.111497340928,0.0526495514502,0.0458447362649,-0.0679314506368,-0.175350978092,0.0225433295062,0.0349434584829,-0.0642827592602,0.0267170802226,-0.000882661087058,-0.00579410960154,0.0214326492405,0.00867741788353,0.106893314561,-0.0569192394095,-0.0402690328919,-0.0448059608667,-0.0693162922421,0.0268366653231,-0.0793812433571,-0.0838604936307,0.024538977967,-0.0479074831181,0.096047022854,0.0910294473694,-0.0849955907899,0.0242075234443,-0.0652592427411,-0.0322570234209,-0.112969275862,0.116816186272,-0.00359466659654,0.0468902407283,-0.0386884716205,0.0948628996488,-0.0361573818337,0.0964897953401,-0.0130255475165,0.0215126289861,0.0630299995905,0.0324121764371,-0.0359420517493,-0.0360558690797,-0.0192743496623,0.0115297724659,-0.0420553112974,0.0660371226711,-0.0522813754576
all 0.0434230481575,0.0069102239618,-0.0521211087869,0.0803368387583,0.0350495003915,0.0224934764269,0.0546027575755,-0.00253744328653,-0.0866722285959,0.00208490466985,-0.0238578780942,0.0697802181654,-0.0605938802815,0.00616408564946,0.0090934475847,-0.0294759316441,-0.0743558193803,-0.179158545464,0.0615506805224,0.0383204151314,-0.0168509939347,-0.0148665193611,0.0628582321202,-0.0660339946218,-0.06945057824,0.0871458786442,-0.0708771078347,-0.0027272953753,-0.106076800983,0.134991620933,0.0218756654597,0.0644649628636,-0.0476415645859,-0.0417857058383,0.00408008575525,-0.0390386561948,0.0175446552599,0.0839687589791,-0.0239610225174,0.0798726888542,0.0505801250735,0.034843965525,-0.0336792176825,-0.0117907345679,-0.0946353098125,0.0547211323886,-0.0347335828967,-0.0370475465998,-0.0656485601986,-0.00746530381785,-0.0132578282705,-0.0418089284131,-0.0512493574563,0.0104858972969,-0.0490362762372,0.0165288938064,0.00725011801112,-0.189955082398,0.0837734782365,-0.102158670067,-0.0855175840814,0.0430774238624,-0.0803238703074,-0.000339743253376,-0.0275344339134,-0.032668432495,-0.0502022304472,-0.0445336602574,0.0250161417113,0.0363409168238,-0.0609248773703,0.00156149196125,-0.0117144318221,0.0172910164884,0.0438814678158,0.0223921415551,0.0120009441086,0.0716616991118,-0.0219044674843,-0.045751035883,-0.0546482979495,-0.0955351091879,-0.0449620715237,0.0498320264139,-0.073521314647,0.0557822834201,-0.0753456439321,-0.000306718942462,-0.0560779942589,-0.0462156381749,-0.0330157155454,0.00464436416366,0.0031641512142,-0.0751342280238,0.0506865870073,-0.0404089389038,-0.0340940573141,-0.040315294625,-0.0364847761508,0.00627115076704,-0.0735715296951,-0.0599674739457,0.0660490742159,0.0180282578403,-0.0590093165414,0.0048315019255,-0.037594634271,-0.062520750806,-0.0902088457825,0.010748131437,0.052055210961,-0.108449122715,0.160321116608,0.102244472957,-0.0577721866476,-0.0566496616684,0.0642244433389,0.0817520586575,-0.0372171920326,0.0780188035648,0.0186854265478,-0.0137492722398,-0.033190940428,-0.0696304777967,-0.0287828735027,0.161925887004,-0.0152070165942,0.0807833455374,-0.0932565825308,-0.0384057656336,0.028597846884,-0.0674866119142,-0.0649173506843,0.00535189871529,0.0470468253976,0.0139211796117,0.056693543287,0.0217874498347,0.00331645511385,0.0257909312523,0.058641826835,0.07462921242,0.00955231963087,0.0216627415921,0.0226578440018,-0.0200870748124,0.135747862574,0.0108874668858,-0.0397626275039,0.0428884765493,0.00608612414836,-0.0116311924631,-0.0170636162105,-0.0730957685036,-0.0371199286511,-0.0339684442959,-0.0581586766425,0.0318897222596,-0.0253662898845,-0.0808982520438,0.0725735621625,0.0391167684919,-0.0153082006701,0.0128535443547,-0.144349112209,0.00346227478806,0.101965500468,0.079635939228,-0.106034427324,-0.0698145996398,-0.00131282945579,0.0669665167163,-0.0459274671331,-0.0711049605005,-0.00711229052173,0.0116455180774,-0.00929144265424,0.0823023130435,0.00399564002872,0.112996223497,-0.0491652067661,-0.0193350554584,0.0895800267117,0.0541989260475,0.0683093545642,0.0272776284272,0.0368323607931,-0.062730206367,-0.0546182895573,-0.0386435708314,-0.0660137879658,0.0657103865341,0.0134478311553,-0.0701329298696,-0.12802349133,0.0225842555829,0.0424737877136,0.0422500065383,0.0735265925049,-0.024444021914,-0.0587822178554,-0.08616208593,0.0193119836796,0.0338257913364,-0.0312912131728,-0.000953935118001,-0.101623947663,0.0814661495548,-0.0778354357015,-0.0132910033774,0.0300926870397,-0.0242286853113,0.0605858880967,-0.0104534761698,-0.0823382024773,0.0311826400958,0.055444349718,0.0172148645386,0.00649855104493,0.00141506910327,-0.0312127992838,0.0239302601456,0.0182678725893,-0.00746017675588,-0.0666902585538,0.100710576653,0.0133569012033,0.00288698827602,0.0755897825593,0.04295754109,-0.0239792688261,-0.0508153667403,0.0793728003123,-0.00556542576668,-0.102230599731,0.0466350016847,0.0619980920771,-0.0433407135741,-0.115737844487,0.0583482271393,-0.0460821837678,0.0941541199672,-0.0264019564022,0.0247131926673,0.0328567766244,-0.0410214720131,-0.0144382588908,0.045882379147,0.0351309301993,0.0207000603095,0.0531391321795,-0.104290019887,0.0225881762774,0.0580669927108,-0.00308890404001,-0.111927683464,-0.025554483218,0.0563171566202,0.0410104639095,-0.0020539915021,0.0106110579273,0.0266189517602,-0.101509644341,0.00363840444627,-0.0201371390646,0.0197340615163,0.120758444521,-0.0464014187733,0.00217010437609,-0.112236211958,0.0295713854743,0.0433137211008,-0.0349884280357,-0.0410817903892,-0.0328582845838,0.0734717027826,-0.0672263381214,-0.0586498190198,0.0593715283899,0.0731512614096,0.109789849419,0.00767219584787,0.0463732199325,0.0332931800755,-0.0267819621716,-0.0597079541326,0.00904413731223,0.046836163469,0.0217408538891,0.0449985641412,-0.0140246256267,0.00823300594965,0.0239450381477,0.0463887519143,-0.0117958616299,-0.0273687091751,-0.0106765033654,0.0753165403156,-0.0284487096991,0.0153309708571
yellow 0.0371090401967,0.0256723494618,0.00717001724245,0.0331669690239,0.0230854340263,-0.112889927497,-0.0818524440051,0.0970969635976,0.0115486117284,0.0523640916805,0.146707987469,-0.0297217830484,-0.0576655627856,0.029198175142,-0.0387443128027,-0.0761576774986,-0.114933114398,-0.0634334237612,0.0477564678581,0.0361743741471,-0.0367869529556,-0.055616716958,-0.0431114322429,0.0108072923389,0.0475389135674,0.0247670783922,-0.00468511967885,-0.00756551333747,0.116930558308,0.014800136659,0.00834267259572,-0.0124872075883,0.0625110187192,-0.0052956549861,-0.0865905375249,0.0537154748001,-0.0642022518219,-0.0165075605796,0.067661585114,0.173095719573,-0.0535474361174,0.0437353289048,0.0235711585628,-0.0593660702403,0.0076068549404,0.0124309327067,0.100784383072,-0.0122511045935,-0.0724042372137,0.0558770275833,0.0203834537492,-0.0633988414317,0.0478394654488,0.0262382421256,0.0242705075797,0.0431414559926,0.128955305837,-0.154240018824,0.0571521723857,-0.0523898712352,0.0348189040249,0.00985454916244,0.0758132689357,-0.0901025302733,-0.0506747448867,0.0129359919091,-0.0409978231437,-0.05579843138,0.0720551128786,-0.067161713261,0.0434830350922,0.0635657797675,0.00754224886129,0.0562219077234,0.103148242482,-0.109326218447,-9.1800365457e-05,-0.0310947015277,0.00561176891578,-0.115184465056,0.00108242691188,0.00110129000067,0.00990925211994,0.0353051001386,0.0433214412982,-0.0386072410241,-0.0144874809623,-0.0505504056931,0.0294268900936,-0.000257795546831,-0.00499997606928,-0.0686067830549,-0.0123455772299,0.0160397559775,-0.0192450663406,-0.127209684161,-0.0502151142898,0.0432225672744,0.00178051838961,-0.0155243220763,0.0618578842698,-0.0158314760388,0.0142436755397,0.0367342934994,-0.00727187792193,0.00684227107468,0.0486181966311,0.03810076709,0.00918821055085,0.0428394893795,-0.00840303447986,0.0376823209036,0.0387307942557,0.0273566660986,0.00345021613256,-0.0264476224112,-0.0642473660426,0.0505595228527,-0.0956660411202,0.00106529293956,0.00800219384302,-0.0384802295596,0.0899844787759,0.0200065063582,-0.0894302183502,0.0366016231082,-0.00893230131289,-0.0259534094848,0.142653052148,-0.0601973036864,-0.0419335895403,0.126917463477,0.0335109060096,0.00780177352459,0.0889597414773,-0.0291500742656,0.0589094262991,0.00979261535424,0.0593995522229,-0.0839772137651,0.0776184665332,0.0441622634811,0.102465241476,0.0238338270742,0.0292308711625,0.100583019599,-0.00301966613087,-0.0665279134776,-0.000926492044527,0.0739426792971,0.0109780032924,0.00531656157618,0.0575885385064,-0.0644094314138,-0.0390965809859,-0.000512132860717,0.00193095152273,-0.00685075946464,0.0112944316069,-0.0400485382003,0.0438456779742,0.0318775197125,-0.0560246312531,0.026886346418,-0.0511688006207,-0.0518939291923,0.0372621456008,0.0269110256259,-0.000721984723534,-0.0495344711692,-0.087492507554,0.0101371811095,-0.0465130759219,0.00425849948732,-0.0563188954383,0.042766237718,-0.0637287882932,0.102259791,-0.00929085719236,-0.0181253848283,-0.0116988876691,0.0225365181425,0.0231329061331,0.0312047362123,-0.0891499442893,0.0289762194638,-0.0495063337284,0.0386270472673,0.0181091940105,-0.0331174534158,-0.116469198595,0.0290430262367,0.0685640267203,-0.14855657017,-0.0710148135317,-0.0937313169798,-0.0577584634979,-0.0652947390478,-0.0476179813479,-0.0897332853102,-0.0445761510877,-0.0133676422576,0.0596163205516,0.033631315393,0.0516219863289,0.0244014488544,0.00726433268641,0.0575637021062,0.111164740834,0.0390596407703,-0.0263305140683,-0.0142914620313,0.0727176788725,-0.0648781791703,-0.0404188835102,-0.0095727031774,0.082973540249,0.00700119259776,0.13158843584,0.00743582960202,-0.0549437762653,0.064624470626,0.0551993711184,-0.0460587898668,0.00751882719271,0.0544417037186,0.00820874466529,-0.0464259913286,-0.00681539117315,0.0422122916772,-0.00355176242723,-0.0958441401169,0.07867574266,0.00932685425347,-0.0241812222928,-0.0332925657568,0.0699050351411,0.10684572227,-0.0905414114725,0.0719147400595,0.0290089154844,0.00915409979861,-0.0698243954365,0.0577897447869,0.00913869494277,-0.0238096194436,-0.0349657217327,0.0328480256309,0.0648143590532,0.0383247662694,0.0854101797437,0.000417503031942,0.109904057733,-0.0767509216411,0.0438062226801,-0.0199508602462,0.0095393783872,-0.0399859756224,-0.0334962871158,0.01155851485,0.0110595861515,-0.00822650740724,-0.0779369383489,0.0684815007069,0.0658078150629,0.150957055412,0.0335355852174,0.0567947168531,-0.12879811343,0.0417446442675,0.13101499794,0.0214130640125,-0.065428981363,-0.00480647221675,-0.0365175251707,-0.0150437848893,-0.00792438360175,-0.0587080628262,-0.00918082250774,-0.0235034086355,0.0205620243231,-0.114891929987,-0.0182511387536,0.0845792606824,0.0155582756361,-0.0774119157109,0.00819978469812,0.0175102909413,0.022286582216,-0.0371668870024,0.0286863566661,-0.0127596220289,0.00260499256225,-0.072483619379,0.0699322294274,-0.123146103258,0.0653683050941,-0.0224250687262,0.02096286496,0.0604506978459
four 0.158467635925,0.0203075631481,0.029274141893,0.0567858606425,0.0386590065163,-0.0362507734549,-0.00915903967711,0.0311006671929,-0.00443741385328,0.0361480555416,0.0921690152721,-0.0272696751854,0.0586528552556,0.0147365451362,-0.0518038101543,-0.0471282143127,-0.00227539485772,-0.0852399583226,-0.0407575412075,0.0681470797023,-0.011024953049,-0.00450336956601,-0.0470948502987,-0.0304724660601,-0.0874611366577,0.0302866470381,0.0203052462027,-0.015775772385,-0.0338627750502,0.0652238669073,0.0655371179271,0.000373954989515,-0.0436305535185,0.00799299828271,0.00716414967728,0.0234504223681,0.120715790769,0.140385112687,0.0144773561761,0.0736354599945,-0.0525826127388,0.0469624754842,0.0211322412518,-0.0167816356199,-0.140871362298,0.103431377994,-0.0748554089855,-0.117698664453,0.0392566239696,0.0419730107707,0.0577356537984,-0.0383922488678,-0.0533277423834,-0.0214318995251,-0.0720940734433,-0.0848358830427,0.0318059453763,-0.127794522392,0.12311892655,-0.0353831546296,0.0154557249921,0.0588329591456,-0.0535375031747,-0.000871789327065,-0.0766274088367,0.0235481974645,0.0282157612287,-0.00961733147963,0.0394833756939,0.0223719615103,0.0558495057699,0.0841766348415,-0.124910388743,0.0527818700443,0.0890673976804,0.0181356585188,-0.0376480460014,-0.00197944369708,-0.0278135395052,0.0478534182267,0.096121106293,0.0139563523844,0.00919765543398,0.0794664392817,-0.0407101210581,-0.0289488427571,0.02473725385,-0.0222275385796,-0.084905082479,0.057227315975,0.0813989262184,0.0177788489253,0.09883625739,-0.103571630423,0.0265464792908,0.081188547575,-0.0425975047908,-0.00175006610128,-0.0396960712827,0.00674014866687,0.0965293520746,-0.0424723897385,0.0439838104624,-0.0585441132842,0.0467103918234,-0.0450682953783,0.0298640361949,0.0280200565729,-0.0570538539951,0.0574753835971,0.0670964221894,-0.111494348028,0.0859094010837,0.0369741238126,0.0725509750786,-0.00867418023387,0.0496638793717,0.0592663824007,0.00633298412644,0.0766746745231,-0.0160310997694,-0.0299160902352,-0.000347696274845,-0.0534740188704,-0.0198858790831,0.0267236483833,-0.0789547032716,0.0980033927458,-0.113285501295,-0.0622570955386,0.061483081308,-0.0171772154333,-0.0127053563249,0.0208458667988,0.00111676768864,-0.0230004715691,0.00414949477007,0.000164657587288,0.055906039238,-0.00200971845047,0.0676577408312,0.0294435878341,-0.0463892631892,-0.0387292871938,0.130210478604,0.0796834598353,0.045735884583,0.0823331186085,0.0255006101318,-0.032074247655,-0.0414835174367,5.54522268633e-05,-0.0450414188115,0.0166206851453,-0.0396657965293,0.0732082152605,0.00720878949222,0.0958685592431,0.00870430052423,-0.0360271109911,-0.0923281121904,-0.0411849404045,0.0308057972734,-0.0134171219555,-0.0835275812,-0.0596500685609,0.0560058223537,-0.0252113008813,0.0475495894516,-0.0361055782091,-0.00493586604294,-0.0185225884026,-0.00762970124209,0.00458214571002,0.0518203376983,0.0559139168524,-0.0110655768252,0.112258322162,-0.00588133423411,0.021734801522,-0.0174862959513,-0.0294327754222,0.0497809623465,0.0958148061095,0.037819963351,0.00666415285735,-0.00849623882622,-0.0150298704254,0.00339540626994,-0.0176226868045,-0.0168421851267,0.0300395061941,0.0164526293714,-0.110305755032,-0.0224701999958,-0.117420013151,0.0636628635517,-0.0582742663752,-0.0650454621106,-0.0499388235606,0.00408323013128,0.00631429410012,0.031758988616,-0.00574046395305,-0.0301990665015,0.0215285933803,0.107164440442,0.13760462373,0.0812047661928,-0.00597092279004,0.018058272542,0.00976623383811,0.0091111561386,-0.0568145907656,-0.126609945434,0.0117934066107,0.0158250460908,-0.0603357299399,-0.0267699872916,-0.00303149137721,-0.109461460124,-0.00401634764039,0.0563243251164,-0.0820089007139,0.0294349379046,0.00297248650071,0.00242228919685,0.0206921760865,-0.0026952253664,0.042610170759,0.00323754505586,0.0535328692839,-0.0874907935589,0.00313513606864,-0.0633754078575,0.0415525624099,0.0767293544348,0.0858310883287,-0.0571352560106,0.0336269100072,-0.0262537718537,-0.0359443188084,-0.041356394365,0.0625949061797,-0.0222638373911,-0.0540158751708,-0.0585868995428,-0.0844616191271,-0.070169309658,-0.0735026217909,-0.0217740351309,0.0143411197858,0.0605794725972,0.00485801667709,0.0150675594041,-0.133383767041,-8.68082214405e-05,-0.0107619025132,0.0676572774422,-0.0570861367679,0.0376049508168,-0.0816317020008,0.0408400244642,0.0848419071008,0.0554967122152,0.100801336025,-0.0229161347561,0.071529820004,-0.00879883189704,-0.132254951236,0.108510585727,-0.0520653160598,-0.0372723919186,-0.00838209064892,-0.155977228533,0.0548768520859,-0.0217825305974,-0.0568487270947,-0.0656976050126,-0.00325731632338,-0.0413247294444,-0.0340797956038,0.0667550588987,-0.024529037689,0.074829922586,0.0433843394527,0.0632238796276,0.0425346383386,0.0507712248156,-0.0485519000369,-0.0284769582082,0.0853587403907,-0.0338382154288,0.00979619966544,0.0898259656083,0.00843182774376,-0.0761688081081,0.0147628038509,0.0354733610376,-0.0387921536459
sleep 0.061866930393,-0.00923643468557,-0.0127508194647,-0.0354537261171,-0.0715151624652,-0.0318063551919,-0.0375884786971,0.000961336085392,0.0873910771087,-0.0175562318473,0.00974190884489,0.10081015592,-0.0504047609488,0.0390817593666,-0.116272688121,-0.069635128284,-0.137185591738,0.0217699430582,0.0514375830317,0.129490147889,-0.0314880760725,-0.014454278477,0.0140233019203,0.023532207625,0.0773838299939,0.0259389557075,-0.0155882270928,0.0421440863526,-0.0132472588084,0.0335895424897,0.0190801040856,-0.0278112231174,0.109507513272,0.031481735851,0.0846158036513,0.0955807412241,-0.0863054726819,0.0421900529585,0.0437124986469,-0.00926068603281,-0.0751915399037,0.0345066555301,-0.0615050622507,0.0326920841359,0.0318710254513,-0.00788993014387,-0.0612470152356,-0.125986858497,0.00635353596815,0.0264900794617,-0.0185234326376,-0.00163688668654,0.00875220026827,0.0593766498922,0.0568841503138,0.0397996309463,0.0979434247672,-0.0736687772042,-0.0195803475622,-0.0161146239831,-0.0548733490641,0.00182011908797,-0.123683456025,-0.0959830282785,-0.0510077160138,0.0301842095204,0.0679522749916,0.0142746917029,0.058323380595,0.0880512526727,0.0587828881484,-0.0247287659281,-0.160872183756,0.0955663172202,-0.0374095259452,0.045868490969,-0.0416569988356,-0.137463134934,0.031865636263,-0.0708236028048,0.0141944879009,-0.0134599732398,0.00944772256715,-0.0310892761399,0.0347943430808,0.00573790046021,-0.0483074156756,0.099591882358,0.0173013549429,0.0180263592718,-0.0151320481557,0.0843323957501,0.0707429234861,-0.0168840098625,0.0301063833014,0.00660619379505,-0.0819432417823,-0.0247149759464,-0.036999313614,-0.072923325661,-0.0180846893096,-0.00413699453071,-0.0366528205088,-0.0119819091019,0.0181000643468,0.0739279337582,-0.0138093194446,-0.00091964912901,0.00157316746043,-0.0709830593756,0.0902624049219,-0.0802389902423,0.0318378977939,-0.0348615494287,-0.0486707103678,0.0128663700016,0.0852029081625,0.0337776885628,0.0476584940048,0.0361438592277,-0.00839968395271,0.0304855285473,0.0789966238387,0.0103142723411,0.0203866652318,0.0624118724312,-0.0765521514383,-0.00878041425396,0.059032217359,0.0328231682155,-0.142044578992,-0.0139456342069,-0.0462501723034,0.0280402636192,-0.0130375559822,0.0409773270905,-0.0319070062083,0.00740601273765,-0.0186651365882,-0.0856995060117,0.0685864556474,-0.018900358806,0.0495710218212,0.0319807112833,-0.0126806015115,0.0527482653219,-0.0128368879716,0.00517821740704,-0.014266449415,0.0135314592372,-0.0174405228049,0.020798621124,0.0721168494858,0.0156500442525,0.05488983364,0.110485175428,-0.0297732046615,-0.0445937894358,0.0397528718127,-0.096609442163,-0.0467466116471,-0.0195419892221,0.0116946970678,0.0407793536741,-0.0805848493252,-0.0626006525265,0.0509151487798,0.0306365843246,-0.0447763878151,-0.0164978903729,0.0131071399131,0.0303517498736,0.018510276678,-0.0126481078763,-0.0134531575017,-0.0281729327541,0.0776612146847,-0.0162785187089,0.0264726438525,0.0456185277362,-0.0122916289223,-0.0313947163109,-0.02775891629,0.0253230031885,-0.0126997806816,0.0147869816004,-0.0260218541037,-0.0478063796714,-0.0436546441257,-0.0985803000172,0.0893993422698,0.0967525726634,-0.0433645789919,-0.149415879017,-0.0872087957405,0.0449914798296,0.0256157629164,0.0038539036406,-0.0953000279171,-0.0687568491003,-0.0208748622875,-0.0110874623534,-0.0226024141416,0.0624662398306,0.0725758815227,0.0207052613623,-0.0525669349869,0.0569439069015,0.0866151925023,-0.0244770591345,0.0546257634144,-0.0391228123009,0.045071525126,-0.029159788231,0.035213114711,-0.0495819587033,0.131443253123,0.0241443560111,0.102223391293,-0.0619220903201,-0.0195366000338,0.084026004546,-0.0465338972157,0.0228880411203,-0.0277354574704,-0.12946240942,-0.0153228888229,-0.0455348368124,-0.0496220606043,0.122167667569,0.0772660603795,-0.0886343945454,0.038663780264,0.0239772911745,-0.018904796961,-0.0114417222298,0.0220684089855,0.103206918153,0.0016890350084,0.052126765109,-0.0194375340728,-0.0433601408368,0.0713474636065,0.0601228939631,-0.00460743896623,-0.0825438192641,-0.0866610006026,-0.0299678494616,0.0785864115075,-0.149216479051,-0.0815466609272,-0.0370259425443,0.0819139182578,-0.0342904539768,0.0347715182833,-0.0270039544145,0.0503873253397,0.0562263523329,-0.0235447295625,0.0176026739698,-0.0113310853646,-0.165770480384,-0.0729789611047,0.131497145005,0.0311266834468,0.0657438173366,-0.110202560054,-0.0625621356808,-0.0232828784144,0.022247837254,-0.0201574662245,-0.010111385253,-0.0519505069513,-0.0356268141641,-0.0600395200503,-0.103169986363,-0.0281361594694,-0.0750024427974,0.0281965500792,-0.0541752906767,-0.0115978501844,-0.0344364375769,-0.00169188810807,-0.0231636822501,0.0296462417259,-0.0187459744124,0.0999107954996,0.0866090107863,0.016785102407,-0.107318393293,-0.0136704685937,-0.0750143307127,-0.0234302885643,-0.0252427993865,-0.0485584884472,-0.0225610441963,-0.0552106488481,0.0490018284358,-0.0034565302579,-0.0210049953339
go 0.117482196377,0.0456701145324,-0.0230569266303,-0.109313469148,-0.0321043876962,0.041048382589,-0.0258297472058,0.151828594036,0.0955313377102,-0.0363619842874,0.06183215011,0.0205560690767,-0.0346302009993,-0.0234427388744,-0.0720093597772,-0.0178590265434,-0.0916400623762,-0.0414345591505,0.0146949289612,-0.018076888415,-0.0326488602163,-0.0310347514842,0.0396902069083,-0.068869853627,0.0451555160482,0.100247610048,0.00435796606548,0.0876624437921,0.0409800730557,0.0691086637554,-0.00393827229291,0.036957461259,0.0181479303296,0.060806414158,0.0481737044673,-0.00284258737886,-0.0295128150824,0.00504670831985,-0.0384373189883,-0.0262709357116,0.000449021332194,0.026328680037,-0.0169147155552,-0.0132790089551,0.0646665403449,0.00895856759322,-0.041014136743,0.0459684905738,0.0126135830214,0.051119940178,0.0311577086441,-0.0449538663059,0.0620115764841,-0.0239846611718,0.0206320292777,0.0579722060819,0.0796696819203,-0.0610727302585,0.0429697931415,-0.0687172045899,-0.0668291290896,0.0256885741704,-0.0633391494939,-0.0399100725262,-0.0445206927854,-0.0219743571467,0.0624259876528,0.0228623810795,0.0806256510689,0.112045668321,-0.0539860260363,-0.0535084057795,-0.105474291218,0.139837265323,0.0179269717592,-0.0242240177765,0.0556010455622,-0.138404951029,-0.062342376784,-0.0551846306472,0.0563887000208,0.0390597554557,0.013483937555,0.128028095366,0.0960524939096,0.0032365967669,-0.0139287692358,0.0124565621742,0.0389526461075,0.0501105985141,0.0622953798251,-0.0152965993305,-0.0173908785419,-0.0850850795612,-0.0405911641128,-0.0324220725657,-0.078542119224,-0.0702852271568,-0.00872576870375,-0.00483340041721,-0.0145759792939,-0.0168975926322,-0.00863960761242,-0.0713415657797,0.0146337236194,0.0275464113172,-0.0408755139301,-0.0350202028948,-0.037651668276,0.00671874353616,0.112535857532,-0.0465537666551,0.0660620585704,0.144523117148,0.0385471607178,0.0879531691658,0.0860909602088,0.0571962097837,0.0534040288127,0.0776136560475,-0.0484172507234,-0.0509600047907,0.0452125317387,0.0111665138681,0.063820230767,0.0555176168522,0.00361530481949,-0.0794144775039,-0.0161341652881,0.0959000270312,-0.0151526939137,-0.0635905285764,-0.0970647501136,-0.0480288882567,-0.0430435674375,0.00905984786125,-0.0271208884645,0.0447265321791,-0.00276006946264,-0.0459883458781,0.0892158936586,-0.0623633250409,-0.0158966302709,0.0691778840824,0.00922943766258,0.0604129512463,-0.0524136316593,0.0109154991031,-0.0514460043503,-0.0099699130035,0.110449046829,-0.00835361836636,-0.0321468306862,0.0277362207404,0.00562378725713,0.108637295848,0.132666039438,-0.0290729016879,-0.0747293543136,0.00838076002092,0.0663832044563,-0.073554430341,-0.0797576645992,0.000511866102825,-0.0265152106026,-0.0699700925099,0.00123066455185,0.0457529967661,-0.0300146624536,-0.124564164472,0.0043288206646,-0.097813058281,-0.0641297184925,-0.141833178806,-0.0233948311217,-0.056497995274,-0.000545201155073,0.0327776464564,-0.0626617010823,0.0310821127606,0.00812428049324,-0.0160680416598,0.0761589362264,0.0552840893277,-0.0081261020808,0.00325426616618,-0.0626194402511,0.0519607849932,-0.0878915995065,-0.0902332503078,0.0115812893542,0.090766428985,0.00034136550772,-0.0881894290716,-0.0299119249156,-0.076261309447,0.0798155910834,0.0112690692474,0.00444977407823,0.000184344660519,-0.0515808018293,0.0215204175281,0.0157173860556,-0.0360829170741,0.0614967958412,0.00731367403147,0.0673954606603,0.053931924886,0.198341921447,0.027144386944,-0.00602143982028,-0.0558008737169,0.0753390396681,0.000984021596962,-0.068162166862,0.0497466453207,0.0290610613688,-0.0925366477705,0.00759656657869,-0.0898374193322,-0.0332649211272,0.0922042080418,0.023288086091,-0.0274079706631,-0.0314806761175,-0.00165636956334,0.00432426669572,-0.0519263569884,-0.0469787430315,0.0776679393566,0.0353296906203,0.0365767494601,0.0284056541667,0.053030603364,-0.0905248864753,-0.0180216943121,0.00293202732778,0.0595919617354,0.0152434089739,0.0177834306599,0.0610133465042,-0.0371809700519,0.00906094081378,0.0428900076066,0.0735628096437,-0.0913473332562,-0.0614536242162,0.0404173846601,-0.0279165579083,-0.0697536879084,0.0264334213214,0.0293206375954,0.0771147232163,0.139104987126,-0.000335536427546,-0.0379188951703,-0.0366177351801,0.096619736274,-0.0164048531987,-0.0504701798973,0.0839369329256,-0.0656150409845,0.0229917137959,-0.0278766651409,-0.0568047506182,0.0793964437871,0.0342207081171,-0.0260599958727,0.0420743006997,-0.0797971930491,0.0514842576889,-0.006245859407,-0.0405811453812,-0.0841751965777,-0.0949706530609,0.0440417974174,-0.0297501679407,-0.0800303562561,-0.0825700136246,-0.0254694371876,0.0492845085581,-0.0614472486597,0.0633138294269,0.0617529110514,-0.0111723429482,-0.00984349482721,0.0102274854837,-0.0298917052937,0.0424628453251,-0.011304408046,-0.0363437684119,0.0203943121019,0.0361583307988,-0.108442203821,0.00166128784974,-0.0266492794466,0.0453296598184,-0.00766250804817,0.0189798493658,0.0227740340831
chair -0.0411310961539,0.0767129470783,0.0374756422189,0.00847189940825,0.00509462771714,0.00306491005881,-0.111900943847,0.0519721335353,0.0670637576273,-0.0189499390264,0.0243822464413,-0.081123512315,0.118453259182,-0.0885089502402,-0.08989305723,-0.028392944482,-0.0197946129845,-0.0768889076331,0.0282331241939,-0.0167537550878,0.0267860385164,-0.0383918397118,-0.0261309335733,0.0268415800225,0.0900699672122,0.0180986190762,-0.0375909976545,-0.0635578385162,-0.00117349233291,-0.011286635333,-0.0771030035239,0.0696636064717,-0.0244252871525,0.0262439154403,-0.130314298124,0.0978885022943,0.0508976981334,-0.015025638884,-0.0456563838746,-0.0691822467526,0.0285695379884,0.117444017798,0.0865371476566,-0.0330693494057,-0.0897829236453,0.00398474702364,0.0127965414604,0.0197064744692,-0.0208970564963,-0.00175786493073,-0.00921356048759,-0.0298349665464,0.00430533702721,-0.0124170869547,0.0363466147384,-0.0380441910258,0.0432214189314,-0.0930293325857,0.052720124131,-0.0374933648647,-0.0986031046912,-0.0581554380661,-0.0902930826639,-0.109658079725,0.00350370378038,0.010368855461,0.0744332135238,-0.0215798530735,0.143866109124,0.0792105742334,0.143427473641,-0.0332326509278,0.0545642287221,0.0381430897189,-0.0291876152608,0.0506989513197,0.0571637610906,-0.0429188680495,0.0577538302532,0.0300938437655,0.112818565481,-0.068531414233,-0.0501117304395,0.0769578993614,-0.0896401930515,0.00342759134616,-0.0768290937035,-0.0039116411097,0.0764485315324,-0.0310408976507,0.0414863402596,-0.0394833648079,-0.0404926061913,-0.084448723734,-0.0106888125129,-0.0215149755308,-0.0374827629248,0.0959712917893,-0.0385989731346,0.0816972829729,-0.0922068119349,0.0020591499094,-0.0264451940605,-0.118167797994,0.0286882164201,0.044640496499,0.00327267643328,0.0262473966743,-0.000431831253574,-0.069256302094,-0.0453569977509,-0.0535519808184,-0.0322613866425,-0.0361447031665,0.0603933968127,-0.0203807261993,0.0453748786346,-0.0383491154764,-0.0309983316532,0.0490422004128,0.0679972030523,0.092465689154,0.0539515315386,0.0115796919404,0.0210972274511,0.0112046680961,0.0773207388866,0.0277857856253,0.0586285694139,0.010036872328,0.0128460699259,-0.0396817951457,-0.0761061046974,0.121576717267,0.00212798339981,0.090225040363,0.0346137513973,-0.00986866543072,-0.0149406651269,0.0460685936275,-0.0682226920726,0.0376028654977,-0.0498183573563,-0.0409821942816,-0.00239524722805,0.0931454792109,-0.0152436907226,0.0424587122102,0.0432972148898,-0.0712621258281,-0.0842771938407,0.0269748163418,-0.0126534943907,0.00451943291804,0.0426647379677,-0.000888822334675,-0.0247109065782,0.090713520788,-0.0250523839858,0.0116527978543,0.000950060405446,-0.0287412261196,-0.00772295938511,-0.00215171908615,-0.0677356357888,-0.116817395679,0.0959341058807,-0.0909375856671,-0.0363423423148,-0.0752441828072,-0.048739491293,-0.0687089571669,0.00826919664687,-0.00174726299083,-0.021545831923,0.0133078081442,0.0569800468783,0.0184456348105,-0.0755275869022,0.0256911904243,-0.0224343377819,0.0398715223986,-0.0818207085419,0.0455900821908,0.0815686355529,0.0354000355669,0.037473743364,0.041685561787,-0.0341966362692,0.00440122920004,0.000636591107779,0.0292032808138,0.0314515250244,-0.108828754845,0.0024243630033,-0.00518672218016,-0.0264847535378,-0.00461247680852,-0.0644518827019,-0.0595851175736,-0.0287219210947,-0.090845649442,0.0351441648681,0.0537235107117,0.0556932562026,0.0298906662904,-0.0546504683825,-0.00800889528661,0.0451204320769,0.111535572515,0.0215934615336,-0.00622460462509,0.072868398842,0.0437651243866,0.035634544148,-0.0994683495775,0.0319227575174,0.0540235297871,0.0854161903095,-0.0348381327522,-0.0226046017719,0.00714507454155,-0.0372783195464,-0.00600639454862,-0.0174466788912,-0.0738404543168,-0.0333011679424,0.0676449654669,0.0381747373007,0.105846128498,-0.0419789348702,-0.0490632460547,0.0470158057506,0.0460045072744,-0.0369300379087,-0.0102859387967,0.11049547474,0.142102072915,-0.0319556710024,0.0896400348135,0.0504702975413,0.0130199733878,-0.00194173738095,0.0560095737826,0.087000468254,-0.0396286272083,-0.0687379147042,-0.10004101257,-0.0353767745943,-0.0946044327316,0.0308633547168,0.0785668624198,0.0201786563895,0.0328932306131,0.0358343986271,-0.015950381224,-0.0805448362819,0.119685457779,0.0158332851714,0.0171773579701,0.0639815996364,0.0249658278496,-0.0752392774321,0.0453343697299,0.0081957742571,-0.00619295704329,0.106505822341,0.00983005538093,-0.0460636882523,-0.0493099389548,0.0558008579807,-0.112585322803,-0.0286192246918,0.00885309453096,-0.0517844633752,0.149788637581,-0.0405153924502,-0.0555207768818,-0.0733970716959,0.0634668517186,-0.00636179689216,0.0472553779447,0.00826539893705,0.0647792769355,-0.0510793552529,-0.0436037217195,0.0370139040005,0.0363043652167,-0.0141077007741,0.0219710171844,-0.113205457169,-0.00425960627152,-0.0329335812798,0.0180935554631,-0.0293208515802,0.09769434438,-0.0558342461795,0.0620691362686,0.0638686177694,0.104692890618
guava 0.0148583810645,-0.0355615365279,0.0288415945469,-0.0251059828701,0.0232833070082,0.0165684532108,0.00161229053062,0.01292199536,0.0525253194832,0.0207270478039,0.0486751130624,-0.010410202456,-0.0923638061797,0.0121167349962,-0.0422810360583,-0.136534991839,-0.0792860681559,-0.131359202973,0.00155012620033,0.0732986033904,-0.0714383192148,-0.0328103777685,0.0275735306992,0.0618959839036,0.0957987725723,0.0825175072038,0.0326426889345,-0.0772280084953,0.0355564483443,0.0532896531527,0.0320486988035,-0.0403136788013,0.0145407014265,0.0246015890159,0.0551873244167,0.0574570967608,-0.0592415006329,-0.0459372278255,-0.00611135097534,0.00817803842554,0.0266488086331,0.0343832901824,0.0729037160966,0.0125036581765,0.055615616742,-0.0364953288344,0.0561268685829,-0.0492339283589,0.0538192666997,0.0394015665815,0.0465190505609,-0.0934062201452,0.0259340294475,-0.0836594725878,0.0113320485922,0.106480418563,0.0693599068197,-0.0631509954542,-0.018428516161,0.0546946555073,-0.0886589448301,0.0773737960173,0.00737897237222,-0.0696273682977,0.0168859116234,-0.0180006662864,0.0576847376714,-0.0586455194736,0.0825221529366,0.06961099762,-0.0055492172983,-0.058269657562,0.0550844546175,-0.00716394130804,0.0828099671491,-0.018237819888,-0.0312042815484,-0.0438057213405,-0.0101414136258,-0.0308531968788,-0.00782031699469,-0.0688851571657,-0.0278239578234,0.0971201517352,-0.0651880387041,0.0551884305435,-0.0677836760252,0.0154039228385,0.0547619080212,-0.0144192486958,-0.00547798272765,-0.0452892587031,-0.00431632828524,-0.0586300336973,0.00844903950951,-0.0815529645702,0.00115258420205,0.0338499158041,-0.0390586672508,-0.0238003107088,0.0728855756159,0.0756427074604,0.0158647352939,0.0229293464087,0.0455595961109,0.00116762752752,-0.0154357792924,0.0460299212575,-0.0366063839725,0.00738229075284,-0.117028886878,0.0455817186484,0.0225003904072,-0.0854921035916,0.0334167565205,-0.0312310498187,0.0185302798334,0.0392301169161,-0.0769820058787,-0.044675137063,0.0283739241048,-0.00642327875363,0.0573548906377,0.0277965258769,-0.0646272323793,0.0820635527349,0.0262320200272,-0.0724959977311,0.0121523522815,-0.0200863791188,-0.0568024908772,0.0806729300298,-0.0115731842506,-0.0147732092953,-0.015292646475,0.0142294373243,0.0605084583537,-0.0389195164901,0.0553331119386,-0.00535719367308,0.00427606526705,0.0360303130969,0.0479742710755,-0.0185968686711,0.103043682367,0.153559832998,0.0105759002616,0.0271576269949,-0.0660202885637,0.0372457253053,-0.0621021659528,0.0485313165689,0.0322588629094,-0.00458799304534,-0.0059195485755,0.0882116271225,-0.0277772792693,-0.035934743735,0.00132093671217,-0.0158333212907,0.0179446962666,-0.0255855994824,-0.00480081185578,0.0538059931772,-0.0504842941765,-0.0579426864582,-0.0192253699606,0.0133558183198,-0.000439574819475,-0.0406275976079,-0.0249862999424,0.102364741693,-0.0213327628797,-0.0283418464255,-0.05119487008,-0.00160698112162,-0.0644863118157,0.0706217763569,0.0931456166538,0.00727809360137,-0.0148305066673,0.037639948923,0.0359066481124,0.0176206010927,-0.019775336242,0.140626997595,-0.018881364503,0.0199950130391,0.0909694226432,0.0168929908354,-0.0617322771264,0.0472057341238,-0.0641697383045,-0.0946457459195,-0.104484965683,-0.0198162629363,-0.0293590406982,0.00335355545467,-0.0565544972322,-0.028050492607,0.0298267111403,0.0720252301338,0.0118340089674,-0.00174878658679,0.0537734730471,-0.0113911157673,0.0778226623025,0.0237806216505,0.0917295530305,0.080562096117,0.0613756618224,-0.101835349371,0.127804774878,-0.0776131618727,-0.0423586861648,0.000833798437143,0.0796785219706,-0.0266817712139,0.120993909268,-0.0343392663329,-0.0940075107135,0.142990348272,0.0267968084088,0.0289329606266,0.0248223719398,-0.0132560456758,-0.0132483027877,-0.081555176824,0.0192994804611,0.00756679271532,0.0114756238604,-0.0499914040417,0.0299778080712,-0.0169912149018,0.0311166763,-0.0224284921605,0.0457505136092,0.070645447472,-0.0804455103446,0.0846156086572,-0.0443258221964,0.0741945661578,-0.142157213511,0.0340100829754,0.0593012314841,-0.175698298692,-0.0296696411243,0.0369926434767,0.0297180894813,-0.0976141479968,0.00129726559708,0.0408669634633,-0.0194207119664,0.00805017015898,-0.0206482915705,-0.105276067623,-0.0931009291281,-0.0106254547455,-0.0150302731807,-0.0519401783672,0.0448906105779,-0.014550435343,0.0122572131091,0.0959180130492,0.0439167764786,0.0943743023848,-0.0508727659344,0.00597640349679,-0.0585065899383,-0.101380510001,0.127212333325,-0.0678613261317,-0.112142682028,-0.00142623999052,-0.0449434834424,0.0312839226833,-0.0119021463828,-0.124334854877,-0.037120954194,0.0356894047945,-0.0839804706065,-0.0765291575368,-0.000694426451099,0.0675943071045,-0.0342040976289,0.0228182912706,0.0913260379471,0.0182853833436,0.0332654383642,-0.0659997146038,-0.0689391361571,0.040533134373,-0.00717699360514,-0.175537467845,-0.042468635176,-0.0516459486189,-0.0365798369276,0.0842946106385,0.0975840613459,-0.00681064438468
children 0.0903252507068,-0.0086861036852,-0.117769153185,0.0306419158753,-0.00473952895354,0.0237942738084,-0.00661595198069,0.0685498336414,0.0336838482731,-0.0171331446139,0.118387045703,-0.0240082381128,0.0670519266454,0.0361651439965,-0.0477079221298,-0.0675968767872,-0.0554283628694,-0.0380365473332,-0.0180997487514,-0.0161201083399,0.00354186219111,-0.0583736662265,-0.0186588167726,0.000413810729445,-0.0421467325997,0.0221239718194,0.101134369711,-0.0580073856907,0.0261334495467,-0.00222199733987,0.0637955593472,0.010917199214,-0.00396335932152,-0.100341101759,0.128945023321,-0.0119385493502,0.0439312325459,-0.0412285998478,0.123660857957,-0.0222293853183,-0.0645921214716,0.140180659147,0.0140934083307,-0.0403826251458,0.0709275982498,-0.0439486445971,-0.0598527493834,-0.0271882119973,0.00594190167576,-0.0676448775769,0.00230388103994,-0.0642743123216,0.0643974516023,0.0399612848807,-0.00768075381219,0.0532079341828,-0.0462641336711,-0.0440087240169,-0.0203642565946,-0.0121200425322,-0.04171111759,0.124936329921,-0.106766462369,-0.10160559315,-0.0965766476704,-0.0445478701416,0.0138966992121,-0.0756762253922,0.0621153748426,0.0765918482989,0.00893583328386,-0.0493451255351,-0.0725528798903,0.030675014459,-0.0152926437463,-0.0288980440485,-0.0393281764258,-0.0623396922585,0.0161340693539,0.0355047409749,0.109621725029,-0.0770007962032,-0.0648517335858,0.00017678722217,-0.0809352923048,-0.0397705366446,-0.0813872213084,0.116857922508,0.0788994941066,0.133802044404,0.00333025086661,-0.0019752481824,-0.0332369389599,-0.023282735981,0.0201262918954,-0.0376912867512,-0.0302023792324,-0.00568323075352,-0.0634783776585,0.0444172013252,-0.00617625847249,-0.00494172835849,0.00201603316711,-0.0326155954044,-0.00758977192322,-0.104045790158,0.0266559679469,0.0027694573269,-0.0767452625875,-0.0665797620147,-0.0213070172026,-0.0160603426508,0.0263252958401,0.0855268972561,0.0595710192583,0.00612998320138,0.0426298778031,-0.0246653469625,-0.0152548392028,0.0894766092943,0.0330256413661,0.0119540790175,0.0245906790675,0.128067675554,-0.0270801317878,0.140113363922,-0.018122180493,0.142118887112,-0.0379759973175,0.0633964939584,-0.0409762035386,-0.0503470243709,-0.0797319783906,0.0276018658614,0.0403656836906,-0.0519098736118,0.048438914548,0.0417257060653,0.0601464012733,0.0574836123679,0.208461468754,-0.0580334253348,-0.107303726109,-0.0154904509222,-0.0645745525551,-0.0833445868437,0.0991208463894,0.138902206741,-0.0114022268013,-0.014142664043,-0.0967496701247,0.0861071420962,-0.0980336128164,0.0832145454886,-0.0469966947426,0.029879079796,-0.00144472965056,-0.0120524335767,-0.000205179846139,0.0105040159458,0.00201571943645,0.011451639379,0.0678706067807,0.0810119994491,-0.0207328901102,-0.016201521444,0.0483655015755,0.0866059738323,0.0275193547,-0.0896888480801,-0.111738152004,0.000611461039946,0.0165712530169,0.0877542280171,-0.0154501365334,0.0338328703326,-0.00782538364257,0.00135327716563,0.00397779093149,0.0482804805689,0.0198051885735,-0.0489178243876,0.00713313695984,0.0412610709703,-0.074653934064,-0.0308899199554,-0.0785551747165,-0.0678820579495,0.0564490855443,0.0419898672739,-0.050040823255,0.0681942199478,-0.0212260746945,-0.0630041737786,-0.0490339047287,-0.0179846096023,0.0698552668827,0.034130130125,-0.0108848849569,-0.0180293162202,-0.0248601736972,-0.00887794997865,-0.00549907086104,0.0134662607581,0.0821213510331,0.0967851216884,-0.012337614739,0.0304781484752,-0.00978651394565,-0.0180296299508,0.0707853213993,-0.0545999570838,0.0031842092483,0.0302681058039,-0.022874415538,-0.004577487072,0.0471523051458,0.000660873617571,-0.0670517697801,0.0491848091721,-0.0166793332264,0.122251266139,0.0117611346667,0.0333759216386,0.0666843911871,0.00528275357677,-0.0752059431455,-0.058342606892,-0.0710513649918,0.0122681233997,-0.000631853532299,0.0241914568133,0.0194757713893,0.00260788604133,0.0045087800593,0.0811224326385,0.0776604148982,0.0417423337898,-0.115058206625,0.0230218689442,0.0361213785706,0.00257839536008,0.0133936321123,0.0206321825711,-0.0200364080637,-0.0764740424392,-0.0246305228602,0.0375846183296,0.0846843735913,-0.00143170982852,-0.0892734686974,0.0425868967039,0.0726789996123,0.0135355952321,-0.132483748206,-0.0907428262041,0.0246805628992,0.0086167692112,0.0814350652328,-0.0394276290424,-0.0435935014995,-0.0065624609046,-0.0387410295114,0.0606348798978,0.0937695426653,0.0961466798124,-0.0291802447696,0.0100116156882,0.0581193875334,-0.0813365538082,0.0236066628788,-0.0259717213958,-0.0381891772952,-0.0573918461523,-0.131583654967,-0.0371066496819,-0.030745290125,-0.0859556101915,-0.016513997173,0.0742672610359,-0.0442038644822,-0.0491233179644,0.0306968187393,0.0186428165093,0.0396980648641,0.0428162338102,0.0305590909833,-0.0186211690944,0.0378801526034,0.0245779729761,-0.0157764164111,-0.0336738088923,-0.0268522064694,0.0402234068401,0.03387255726,0.0128439760107,-0.0341572678264,-0.026126390607,-0.0420772412604,-0.000357809808136
sparrow 0.0657403928165,0.0614699622923,0.00139324627511,-0.0156726344773,0.00458230700003,0.115907159561,-0.0222202583165,0.0590884141185,0.0605129470496,-0.0377287368582,0.0589943561337,-0.0288801576869,-0.0830242900767,0.108321333587,0.00972896190854,-0.054417989638,-0.0664322635507,-0.111198517836,0.0483873876897,0.0581480322878,-0.0562850901394,-0.0841147686493,-0.0305488453447,-0.0115736865104,-0.0013653259049,0.0355299582001,0.0103030126407,-0.00960817165444,0.128506969181,-0.0126748579908,-0.0968496257336,-0.107327883251,0.0173005306722,0.0235782575994,0.0790526669187,-0.0603442367275,0.0328145536847,-0.0903489318783,0.0334218712409,0.00172492443184,0.0213361132598,0.0647334773377,0.0749582733385,-0.0599272133256,-0.0158255034546,-0.0265609848083,0.0568539924345,-0.0881943109688,0.0474711639099,-0.0229531185302,0.040375033507,-0.0516903080804,-0.0431003388629,-0.0239588459082,0.00509556657153,0.0624032155178,0.00902936851883,-0.0218547192852,-0.0392576246482,-0.0190502072053,0.0538494833765,0.01760607061,-0.0580688255638,-0.006400893383,0.025615058507,0.00555555962114,0.0326208932445,-0.0437332005876,0.0159387690699,-0.0120661543169,0.109470623152,-0.111424058983,-0.00799453266982,-0.00368350869947,0.0380016040224,-0.0857050416504,-0.0352885757087,-0.0128661422292,-0.0470341408102,0.0754362859178,-0.0274098828727,-0.0287916441729,-0.024022607321,0.0486269880298,0.0577793249876,0.0330911831682,-0.0892584533057,0.0754887603725,-0.0168314288493,-0.0120532832242,0.0182086357628,-0.000207521616872,0.0753374755296,-0.0277053239532,-0.0713058532782,-0.0290257000423,-0.118335637719,0.0169023188673,-0.028906097889,0.00850462397235,-0.00868739348798,0.0200371229863,0.018632589753,-0.0265128667235,-0.0377570532621,-0.0203216731423,0.0517651584345,0.00823116275776,0.00889966750829,-0.00284668966045,-0.00268431587625,0.0190642663988,0.0913061451378,0.0251936787353,0.10255013366,0.00356034224366,-0.0386942668238,-0.00844026850911,-0.00840422944969,0.109559928733,0.024883386394,0.0599931529233,0.058638717943,-0.0139696899113,0.00764839928595,0.0384659534418,0.0137536535716,-0.0561248945401,0.0523459417382,0.126888181759,0.029563711715,0.0722917789751,-0.00177660681925,0.00474646293551,-0.0366257832266,0.0159983721297,0.00492368798046,-0.0167344006124,0.0362618283298,-0.00540486882874,0.00785077246576,-0.0348044246083,0.0570197325045,0.054795211661,0.0395898968554,-0.0372022101605,-0.0104071694828,-0.0352190718084,0.0697225108655,0.058211397667,-0.00230847997089,-0.0470883974161,-0.0564872653024,0.042265499992,-0.0307211199694,-0.0364344989881,0.0220485777422,-0.0223709491089,0.0332682101964,-0.00423914386831,0.0049821029394,0.00800403747669,-0.0154455091962,0.0251404122134,-0.0733095853785,-0.0647188240938,0.0104849900891,0.013589695653,-0.0232390548039,-0.0600715675801,-0.0899711158049,0.0706379425781,-0.0126594126796,0.0222164959971,0.0450838732486,0.0443672504132,-0.019984252498,0.0474672035737,0.0490495559023,0.0331345488496,0.0482040241236,0.0634433978206,0.00962381498243,-0.019405845396,0.0269180091167,0.122990814905,-0.0976894150247,-0.045599311005,0.0777168455185,0.0914994095444,0.00792780100485,-0.00912501063806,0.0283880859141,-0.110042891733,-0.0295557910426,-0.0456601021657,-0.125178108588,-0.0264651446723,-0.0238758768648,-0.0655681181919,-0.0271526590366,-0.00592802924074,-0.0737153218222,0.041230664143,0.0951110381418,0.0478852170596,-0.0411506653517,0.0453886211192,-0.00340608714868,0.0769018083286,-0.0340121593515,-0.019234956889,0.0572601249118,-0.0375115124177,0.0304112236618,0.031112401186,0.110829612519,-0.0157993652357,0.021449576892,-0.0235028131948,-0.0640841802178,0.104054665382,-0.000597812749366,0.0111400296965,0.0106713239073,0.0186173424587,-0.0432682571178,-0.0331822709008,0.0837397248112,-0.021661058845,-0.0242810192581,-0.0116770512852,0.0223182766374,0.00443438844297,-0.00429557865916,-0.0468959250768,0.014315031228,0.102965770944,-0.21097245582,0.134122131862,-0.0873957091741,0.0378717049951,-0.147298368415,-0.0518867407559,0.0859327609819,-0.194480427783,-0.0138207812702,-0.052673461542,0.0577050686839,-0.0633061721713,-0.0322769380455,-0.0129970313406,0.0377558651612,0.0998066107572,0.00615832279076,-0.0561340033134,-0.11668437554,-0.0459638599522,-0.0263837597634,-0.101726185713,-0.0063791115339,0.0280225468829,-0.0549144177807,0.0385924861834,-0.0393752466333,0.0882780720794,-0.017696762309,0.0182302195951,-0.0647522889347,-0.0494131147655,0.101044017803,-0.0418417440186,-0.148296175121,-0.0246342812471,-0.116683385456,0.097465061979,-0.0139964221807,-0.0671738365041,-0.022865793117,0.0344313609383,-0.00592070261877,-0.0959888466605,0.132383742287,0.0432902369837,0.0365440022841,-0.033141479438,-0.0248328921075,-0.00974876358954,0.0485539198269,-0.0688674742799,-0.0589250502502,0.0838072485434,-0.0215713572301,-0.149871002811,0.0669124543149,0.0304545893432,-0.105249894847,-0.0751242114253,-0.00578209085177,-0.0271403819943
father 0.0105728454879,0.00648569552609,-0.0254336583847,-0.0545077766409,-0.0270167048936,0.00630113013214,-0.0779400188357,-0.0529446831477,0.0239442623199,-0.0152080597321,0.0369488011237,-0.036626173735,-0.00611318559846,0.0565870739562,-0.00670501778585,-0.0453149074551,-0.0221555710216,-0.070738589332,-0.0119830731362,0.0635225168895,-0.0299794058817,-0.0160533273994,-0.0554219143942,0.0148263778538,0.013937985927,0.0587886639475,0.0692849156015,-0.0308142143069,-0.0231916796281,0.0845528343802,-0.0616725183418,0.00662584936927,0.0152996183277,0.00574405481057,0.0734447975233,0.0883606421242,-0.110743259154,0.00066424232451,-0.031319637064,0.0526978450358,0.0152883545286,-0.050414029311,0.0454589231722,-0.0967442877999,-0.0734941973279,-0.0625166596292,-0.0376413638574,-0.041695526979,-0.0489257596261,0.0133641758182,-0.103733796969,-0.046511766566,-0.0552325216578,-0.0695190417115,0.00169890272824,0.117406600883,-0.0814251991909,0.0527985755821,-0.0593907944655,-0.0186047388087,-0.0421047247094,-0.0712858490572,-0.0409550126434,-0.0898669338877,-0.0196857417002,-0.0468689899091,-0.000909793145053,-0.0448242885482,0.0743072827121,0.099359098307,0.0081232910049,0.00209571027966,-0.0699419169123,-0.0211823787787,0.0293310937873,0.0673057051869,0.0738470760628,-0.00348421488678,0.0352558521178,-0.053861556395,0.0494355269914,-0.0577808757502,0.0272707840191,0.027946772877,-0.0164034706402,0.0346645026647,-0.0191127361484,-0.0616104065353,0.0619294938729,0.0937341179442,0.0053202141413,-0.00929279517509,-0.0390319603129,0.0140009022906,-0.00543381760087,-0.0811078818789,-0.0221628120353,0.0997475384648,-0.0583916954846,-0.0248709511636,-0.160691771739,0.00638834411952,0.0239925357446,-0.103473281387,0.0612493213182,0.00808081039113,0.00609065800025,-0.015503654003,-0.0461669334018,-0.0410827763076,0.0354619796415,-0.0077306671503,0.0482208067134,0.0521504243992,0.0196176761713,-0.0353869949217,-0.0355372861841,0.00331944159698,-0.0372130176685,0.135891782509,0.104787123097,0.0426547199287,-0.0288581751362,0.034728062674,0.0200180237738,0.108094657249,0.0170633683565,0.0609775419369,-0.0737661376207,-0.00787999294418,-0.0940585153585,-0.0342446847808,0.0292088011113,0.0842059093677,-0.0776780550507,-0.0668203963568,0.10609452835,-0.00726917320972,0.0666347045829,-0.0211501964955,0.0498469774817,-0.0978159578293,-0.0203754080284,0.0203749252941,-0.0611878531573,0.0261921947989,0.0835501953483,0.0660740892102,0.0394786504032,-0.104066079043,0.0256105000307,0.0811408687192,-0.0210962911712,-0.0503707441402,0.0253873158969,-0.0607754371986,-0.0300402303968,0.0085107656942,0.00661040187335,0.00237456976327,-0.0492570762313,0.0122632199112,-0.0645320751124,0.0279446810286,-0.0874983178469,-0.0223393318585,-0.0270131648424,0.0394899142023,0.0176357302626,-0.0523351507045,-0.144114194946,0.0112563971824,-0.0322844619133,0.0370469570874,0.0239553652076,0.0423916297639,0.0847029647312,-0.0135786707355,0.0283056053343,0.000460689383496,0.00699996841105,-0.0388950246981,-0.0679076747935,0.0565249621497,0.0305162063648,0.0219821085153,-0.123162724049,-0.0384938725384,0.0852334896692,0.0240287408132,-0.0313426473965,-0.0476817534704,-0.000398094842742,-0.0674616283488,-0.124034059366,-0.0100074027728,-0.0962580135013,-0.0105820174387,0.004568596918,-0.0625892306777,-0.023168830207,-0.0149280738686,0.0873205107324,0.050578480778,0.0738547998108,0.150455713844,0.0715133777992,-0.070901109862,0.000156244984762,0.090801185568,0.00267756595927,0.016360829115,0.0478838582087,0.0324291212761,-0.0247053733167,-0.0557413235546,0.109612695546,0.0194530637929,0.0236028082955,-0.0186686206407,0.0315521540599,0.114988263214,0.0978655185454,0.00346603189679,0.0712139216543,-0.0158274077716,-0.0787391049266,0.0669372180446,-0.0174746579354,0.0551568932924,-0.0462251833344,-0.0180001946194,0.0361458531588,0.0419761564882,0.0293946537966,0.0545962779196,0.0416124966884,0.119463531511,-0.059663056581,0.0262903507625,-0.0508109977739,0.0425794133861,0.0144387422531,-0.00521723083517,-0.0201290526507,-0.0112230885193,-0.0147697370354,0.0362835933307,-0.0350278406416,0.012495736907,-0.0267106513807,-0.0369055159528,0.114016840997,0.136325116952,-0.034374379382,-0.151971982115,-0.102794557035,0.029349920423,0.0513949453019,-0.0306972317076,-0.0337080452091,0.117272400762,-0.0383746371793,-0.0660486652065,-0.0144643271682,0.0390668780902,-0.0493843571612,-0.0443981951191,-0.0297451188602,-0.0892044615888,0.0730669775189,-0.0502096718129,-0.0872477787724,-0.000522640278587,-0.113625987168,0.0676404009318,-0.00638078128297,-0.152569607114,-0.053468771629,-0.0638507761778,0.0539822399569,0.0444599851028,-0.0712213235795,-0.0559797942729,0.0888533528795,-0.0107072065202,-0.0482465525399,0.0534073034681,0.0110063408422,0.0210280647309,0.0162292035769,0.0488345228533,0.0704042154099,0.0329274639309,0.0490086290053,0.0567405834469,-0.122292032378,-0.00890210225748,-0.0580026116812,0.0397024781826
under 0.107693213679,0.0049323590404,0.0114020644714,0.057967097422,0.0643709300776,-0.0408979494915,-0.0504590858679,-0.0482060479712,0.147579989071,0.022624733618,-0.0178432880261,0.0356687580064,-0.0455226772716,-0.0561500617065,0.022189541348,-0.0254486239061,0.0607648005821,-0.130286090791,0.0077783869005,-0.013371903428,0.0429748317082,0.0213558727812,0.0592460821485,-0.00489442820049,0.00859234762884,0.0365079609663,-0.0381532955132,-0.0523762805983,0.0173221101866,-0.108452775373,-0.0235225201527,0.0430486686101,-0.0132605406418,0.0334065411165,0.064792623828,-0.0113224232061,0.0342898842353,0.0488958223198,0.135212645468,0.00399205216916,0.0228683818958,0.0156658418389,0.0146881440685,0.0120217815035,-0.0176570084564,-0.0208328051489,0.0213584374999,0.0973731905338,0.0139821714965,0.0625821062679,-0.0110479983038,-0.0525705242945,0.0172569123372,-0.0217091290376,-0.0687161035179,0.0646272669637,0.0423350018819,-0.161158014893,0.0374861986775,-0.0794952113125,-0.0671651236226,0.0703224273433,-0.0987385657854,-0.0196754420835,0.000148888670541,-0.0306879392809,-0.0574586081908,0.00832737169025,0.0302636808117,0.105223254573,0.0479673941457,-0.0132223398315,-0.0809352333771,-0.0155008899301,-0.0290311309924,-0.0297202304149,0.0519894130283,-0.00738814470056,-0.0997319218384,0.0334478465863,0.118147547093,-0.0460751716764,0.0490857464897,0.0586791443278,-0.125590090827,-0.04055495211,0.0348500727962,-0.0678231764503,0.0399264610402,0.0284346314138,0.034521788801,-0.0185005309426,0.100348939167,-0.0105477431696,0.0783166555713,0.0471546482841,0.00533663970067,-0.0398105087573,0.0118143092582,-0.0560488228099,-0.0412934561141,-0.0620062594243,-0.0518152821262,-0.0767112766423,-0.0187386448273,-0.0602792588342,0.0545311842579,0.0710167911885,0.0752723344591,0.0660095153647,-0.0022603270972,0.00752434476273,0.127554530376,0.180557412252,-0.0218152274011,-0.0252608594993,0.085376786247,-0.0244092379014,0.0679551919714,0.121938201351,0.0552633439578,-0.0160849708707,0.0147440279394,-0.0512726416406,-0.0436188460755,0.0920701621468,0.0416766790839,0.150116495878,0.0500549401928,0.0528390098482,0.00930250474191,-0.0534962527647,0.0540376783835,0.0632081676043,0.0842389960349,0.0636686021058,0.0458473166666,-0.0292610107801,0.00613885671701,0.0264602029605,-0.00911555024627,-0.0482422240036,0.0604088446218,0.0206662334178,-0.0448469413834,0.0279480097844,-0.00133554352342,0.0510040211018,0.00234914735578,-0.0313855427708,0.0420688110766,-0.0154105848344,0.00373828000178,0.00573471104194,0.0061626141114,-0.0237330970576,0.0636768362027,0.0339738838928,-0.0260470132774,-0.0109698418757,-0.0757022623065,-0.0298085107327,-0.119748336526,0.0979883180693,-0.0323799787054,-0.0807011690483,0.0270013586089,-0.0479781929614,-9.57045035481e-05,0.0432805731758,0.049007185106,-0.0139048249795,-0.0809920621444,-0.0217687924939,0.0464876864336,0.0043175014753,0.041018491271,-0.0863601533956,-0.0377348414074,-0.0120333902303,-0.0798645308071,0.0332414542225,0.00799935766539,-0.0697947702145,0.0226781877554,0.00170756272198,-0.0561492517953,0.113768357384,-0.0349365983065,-0.0178816238216,-0.0738517502626,0.0687916952273,-0.0863438201869,-0.0409098281887,0.00972392852199,-0.0298723587302,0.0504690747723,-0.0627072375441,0.0294992596501,-0.0299476804692,-0.0608397173655,0.00339204297554,0.118163340361,-0.018233530226,0.0709194668626,0.00180083749201,-0.0255424386169,0.0629630344894,0.00843522486138,0.0740450490624,0.100721363321,-0.0648400036316,0.0160855108114,-0.0568368663808,-0.00324247937902,0.0315527894279,0.0830167050904,-0.036698425077,0.0630819564466,0.0273524551022,0.0218240014388,0.0325433107918,-0.0226069155722,-0.0383654922404,0.0259421297805,0.147615355193,-0.0180230883064,-0.00799503813914,-0.0802662467487,0.108067257655,-0.0110218111759,-0.0753432016867,0.0759604889854,-0.0338919478792,-0.0185799022375,-0.0788004425117,0.092570417281,0.0839702405108,-0.0342626172258,0.0824068419775,-0.0329875470699,-0.0381141498065,-0.0334910418488,-0.0518297255421,-0.00767350340366,-0.00908531356249,-0.0621612224286,-0.0899946297821,0.0183134414617,0.0155955145521,0.121300126332,0.0806736320684,0.019107289396,0.0118664135436,-0.0113229631469,-0.047740349047,0.0494070112548,0.0136981626454,-0.0174078257857,-0.0686368672082,-0.018804787573,0.024737791867,-0.0400798042221,0.0220475369225,-0.0364744846378,0.0123022807396,-0.0478641304712,-0.0552204186657,-0.0211840366274,0.0207496542686,-0.0355872269484,-0.118622425011,-0.0340980702726,-0.0563263523717,-0.00699668763386,-0.00904738272258,0.0874506987893,-0.100215573794,0.0111053670119,0.0895691564462,-0.0811016701231,-0.0897430173778,0.0142000376019,0.0112234790578,-0.0547606590901,-0.0442513867012,0.0450996336692,-0.0248877604191,0.181256230608,0.0089645018126,-0.0457506672667,0.0246823129517,-0.0190370970943,-0.0842272523229,0.0236607449928,-0.0180838316443,-0.0801249172491,-0.0405637261477,0.0736241652231,0.0474009962658
must 0.0173482961249,-0.0264556993031,0.0492373778567,-0.0742042195097,0.0297631140033,0.046975072624,0.115520562047,-0.0455073458396,0.0148987077387,0.0457399300959,0.00883429397378,-0.0359680624993,-0.0949885970453,0.100507371329,-0.104383003696,-0.105590647152,-0.0044473236001,-0.113053316361,0.0111002175055,0.060506642289,-0.0257075798131,-0.00526911165664,-0.030255057928,-0.0562891530379,0.101060247408,0.0612745900572,0.00674798280171,0.0274091934412,0.0127999496182,0.0581944045308,-0.0215353916648,0.0913532197286,0.0257350788851,0.0254762981445,0.0384052039371,-0.0652878625158,-0.0470582934997,-0.0407831500042,-0.00304023950611,-0.00960687316466,-0.00855322451168,0.0676440987892,0.0163162125336,-0.0344301407154,-0.0537592384151,-0.035684098398,0.0525452267529,-0.0390101835208,0.0383905860094,-0.0359064066853,0.0436112124602,-0.0676180470368,0.0609995993374,0.00456759585705,0.0201754901891,0.0745043935902,0.092985651481,-0.125111948892,-0.00134716506345,-0.0454619000049,-0.00503768525607,-0.0366904197008,-0.0158187687946,-0.0644343781605,0.00285570625988,-0.0187527750436,-0.0278076405211,-0.0525401611343,0.0881795373574,0.0675492993568,0.0385557251733,0.0189726228876,-0.0770075328008,0.0668270868873,0.0537560543121,-0.020954871782,-0.029465834562,-0.00422197594176,-0.0629827166235,-0.046226953134,0.065613364689,-0.0538944180637,-0.0629727301184,0.0368976758644,-0.0424494490347,-0.0329152313128,-0.104944129496,0.000769250355849,-0.0147235820697,0.024695469232,0.0465319033691,-0.071965505586,0.0660857697993,-0.0262736265001,0.0755741074905,0.0661859243141,-0.0388373735632,-0.129901708304,0.0679868240654,0.0123754507859,-0.0411745052182,-0.0173320861456,0.0799574595652,-0.0339264735022,0.013394363769,-0.0824561120852,0.0677713181801,0.0208560198548,-0.104660020663,-0.151202200001,-0.0204027193629,-0.0979226032944,0.138309911394,0.0282770062604,0.119061863591,-0.0232280319116,0.0814519617618,0.037125483966,-0.0860202812786,0.058396016148,-0.0136603811075,-0.107101359328,-0.017495343794,-0.0347106312497,0.030364909484,0.0926746225036,-0.0017529934732,0.0923572253201,0.0069844748208,0.051765700428,-0.0971462610726,-0.0777419027548,-0.00480032484524,0.0966905001374,0.0544999765753,0.0443817654036,-0.0117542612229,-0.0304982076171,0.0787650129647,0.0014581744751,-0.0175814593089,-0.116026255507,0.0783461586788,-0.00446107313609,0.101477364911,0.0853815791487,-0.0773802175922,0.0111152696291,-0.0236017298267,-0.0866796800785,0.0889270779196,0.0726984282204,-0.0381920137632,-0.00284210145584,0.0604665515367,0.0793668084453,0.0107153752297,-0.0268975659703,-0.122289675714,-0.0163619478323,-0.0446386646288,-0.0403731243677,-0.0180395359555,-0.0218630648173,-0.214018330141,0.0301989019284,0.111093790384,0.0280164887363,-0.0971455374128,-0.100006019827,-0.000839011159521,-0.024671443727,0.0608648538846,-0.0955520385571,-0.0136435922004,-0.0075170884256,0.0113037106382,0.0379843234038,-0.0244495696357,-0.00941003770201,-0.00103107046756,0.054686391337,-0.0132154750691,-0.036206001838,0.0385852504927,0.00478281227834,0.00788818116547,-0.092553047659,-0.035869644768,0.0325861108407,0.0481390070288,0.0537259500648,-0.032104732349,-0.0933620993033,-0.0994994579749,0.000659543531816,0.0333139678567,-0.0408644893645,0.0355350244815,-0.00841254504867,0.0235607706826,-0.00632753646422,0.0392216369112,-0.0894248111225,0.0362860386106,-0.10032703531,0.122491287331,0.0179139086161,-0.0141987839906,0.083410619347,0.0099035736782,-0.0328726801172,0.146398256857,0.0260461078624,0.0097426317411,0.0258670744306,0.0515341292955,0.0123588066108,-0.0109799452486,-0.0441565624772,-0.0687931258024,-0.0379125363527,-0.0175868143914,0.0170808314668,0.0612051187175,-0.018284711892,0.022049479579,-0.0537580805595,-0.000963191179336,0.0290005213176,0.00934056636226,0.0895282944724,-0.0268859874137,0.0101682884291,-0.0182906459023,0.0789913737467,0.00145730608336,0.0942799893798,-0.00205519380114,0.00528705841941,0.0573988129586,-0.0030447261968,-0.0367814561023,0.0657015064513,-0.0817307155125,-0.103217043044,0.0278624939332,-0.0322428066368,0.00383380483087,-0.0334115171962,-0.0308868129239,-0.0879893595648,-0.0144941819165,0.0443575951667,-0.0447366481642,-0.0377476866527,0.0137321681586,-0.00230051446965,-0.00275178871416,-0.0434852956568,0.0729638666311,0.0544040192872,-0.029270156955,0.0591399384112,0.0424940264777,0.09731979469,0.0522000410335,0.00829039127627,-0.0477544542169,-0.0463428834322,0.0808653631367,0.102853186902,-0.0324916008723,0.00299247796002,-0.0273883520393,0.0239100088969,0.000614531892932,-0.00778542147541,-0.00438248368299,0.0599579634369,-0.106235283292,0.042956300351,0.0321095085036,-0.0349248345473,-0.0094097482381,0.0425005394158,-0.0273249594418,-0.0412255955993,0.054428913184,-0.0670903543186,-0.0517668582837,0.0234471560957,0.0392146897773,-0.0639913536376,-0.0499614718418,-0.085463063241,-0.026572642725,-0.0129559706688,-0.0568093196944,-0.0269616822276
playground -0.0118380216138,0.0371938561372,-0.0243628446585,-0.0229003658618,-0.00267747785634,0.0102494546007,-0.117714911122,0.0884266777689,0.0994028557143,-0.036146492987,0.0663702720032,0.104476009683,-0.0271665913734,-0.0697779054051,-0.0256605778201,-0.00906570663192,-0.0561043789675,-0.0681810288533,0.0294372631218,-0.046059772558,0.0418211852944,-0.0719810169916,-0.0129061586105,-0.0237414356837,-0.0196874646911,0.105319608494,0.0663270985308,0.0182789978954,0.0122919753213,-0.0283380556764,0.0297232196355,-0.0185449031311,0.064554276531,0.0180013509203,0.0363629022754,0.0866917906193,0.00819663727779,-0.0473130677521,0.0377959364026,-0.0417281545903,0.040680610798,0.0493640786535,0.116751004642,-0.0237806350289,0.111758597712,-0.067762481006,-0.0377471630238,-0.0144761194828,0.0218392739088,-0.0611320111155,0.0609967101497,0.00388073517661,0.0255823597718,0.0351880057717,-0.00192961938075,-0.0128891782489,-0.0165226143306,0.0149416342875,-0.00346869044646,-0.00668032712221,-0.0984615295027,-0.102041676152,-0.0759032998613,-0.0408253051552,-0.0214998473205,0.00476064305937,-0.0848087769116,0.0290031800501,0.126515254445,0.039912159118,0.0218844344447,0.017150887707,0.000998589771276,0.0383582753965,0.0438039134654,-0.0354226599166,-0.0835775200591,-0.00647240801462,0.0515623129022,0.0414420174344,0.0964000413569,-0.0500355255022,-0.0494101424002,0.0240490692547,-0.0175510100556,-0.0550667704931,0.0482014658156,-0.00649553020903,-0.00769517468643,-0.0175701581229,0.0309739858397,0.00178131218064,0.0305707925746,-0.00811408381805,-0.0102100746133,0.014340818517,-0.0196914388182,0.0352302760334,-0.0788177802104,0.0607956554436,-0.0548662577134,-0.0100487611788,0.0690163181265,-0.0871713955112,0.0048200743247,-0.0294040249673,0.0520975555744,0.0877440311073,-0.0992892318059,-0.034029367061,-0.00183442097093,-0.0911317938733,0.0658259972238,-0.0258571164726,0.00500613573288,-0.00535658149198,0.191562503386,0.0991358666257,-0.0977346255158,0.0298045086003,0.0273250145336,0.0802266082904,-0.0352971136266,0.0286838047398,-0.00981771987682,0.117342246379,-0.0314010238677,-0.0369395119986,-0.0262229168139,0.0337652682466,-0.0787484136272,0.0277995614455,-0.129890191618,0.0372597905197,-0.00289984833544,0.104573375798,0.095619125369,0.03745361954,0.0731383912073,-0.0304454269267,0.0239764511128,0.00395534038203,-0.0197824824588,0.0231953544828,0.0498604832648,0.0821473762061,0.0256282428763,0.00551789492645,0.0365019967262,-0.0410373790321,0.0149819174856,0.0598875673864,-0.00890656090318,-0.003129083216,-0.0634716881628,0.100384826408,-0.0140792486927,-0.0582079567328,-0.0535706922577,-0.0375520695084,0.0678874853695,-0.0878394101592,-0.00258805999513,-0.00437135923935,-0.0816809581906,-0.0502636765299,0.0667172855616,-0.0524369821628,-0.0281821615062,-0.083342685272,-0.0471519349598,-0.00153545822284,-0.00256150559998,0.0249280739267,-0.00543353504526,0.095028967485,-0.0744932072863,0.0340396636632,-0.0342961755074,0.00055457138166,0.0748483497412,-0.0173745226811,0.0798461759354,-0.0951826939494,-0.018189399392,0.0419723827688,0.00796902817653,-0.00961449746498,0.0361249965719,0.0365616086336,0.11818999996,-0.0392831631731,-0.0495736235404,-0.00525867345,-0.0319424083729,-0.0745306002101,0.101896981795,-0.0066629854764,-0.105425103506,-0.0633161552769,-0.0920539720177,-0.0226060998095,0.036063578243,0.0590071175772,0.0629368067748,0.049710008359,0.0178848367375,0.0291565452302,0.0213356436117,0.044477708662,0.0719284501278,-0.0797908994394,0.0649081544908,0.0035779789435,-0.00771197440581,0.0256166817791,0.00129430096078,0.030777266545,0.0126061120095,-0.0378849929796,0.00967085781386,0.06296589016,0.0285055109438,0.0255016127335,0.108535219297,-0.0303572735605,-0.127548527508,0.0416295239797,0.089483976237,0.135274411358,-0.0570314344498,-0.0426909772171,0.0515287134634,-0.121036739506,-0.00744552724361,0.012678368867,0.0510771081038,0.0891676718431,-0.0249952728042,0.0176910077171,0.00815870242758,-0.0132907457347,0.0150579678282,0.151282195579,0.0304058662972,-0.130730900156,0.0225253527712,-0.0395848355533,0.0492600287786,-0.0830334259217,-0.0756796648872,0.0573345519672,0.0470813038815,0.0203724597006,0.0207344665569,-0.107056302066,-0.11638683008,-0.0238872138938,-0.0150633870925,-0.119816863108,-0.0284686599464,-0.00990171847372,-0.0414270241364,0.0484984415001,0.064001872855,0.0859677769067,0.0142400202007,0.0483837337388,-0.0258231557495,-0.0799896057976,0.0446504025515,0.0354170600101,-0.0574414921164,0.0353807509392,-0.0778289451149,0.022486153426,0.0449800744641,-0.0370059883075,0.00875644728163,-0.0290537598504,-0.0758279720873,-0.0474781746716,-0.0545653079018,0.0696066566527,0.0105149985521,-0.12149972532,0.0862035149044,0.0120916431838,0.104510692974,-0.0729429364077,0.00067054363802,-0.00621282525389,-0.0669813843759,-0.111798519626,-0.0411522674356,-0.037808942637,0.0177587485211,0.0722575801139,0.0460084701891,0.0376340810417
brown 0.0180031750722,-0.0400722230738,-0.0377829744746,-0.00433155678895,0.0208221536135,-0.0643750172243,-0.0894022548305,-0.0319304685767,0.0264606566218,0.0640760318945,0.116032694357,-0.0269541734899,0.0447346108606,0.0426597291017,0.0177316680047,-0.0364086974142,-0.0309923861817,-0.049029590625,-0.00493808028505,0.0382371846895,-0.0385805719794,0.0649034733397,0.0169047724853,-0.0349177742208,0.0691702469409,0.044338996675,-0.00035430580465,-0.0653258378865,0.0907730743613,-0.0760660169263,-0.0510203998201,0.0138894426532,0.00702024105382,-0.00993748622812,-0.0637020727633,0.0755941551125,-0.0389738204868,-0.0766057555069,-0.00138064619408,0.0302934192605,-0.0627561654327,0.0770585099199,0.166381969469,0.0241038952062,-0.0514698786786,0.0181183654032,0.0317308417314,-0.06139499059,-0.0739552860438,0.0799275316539,0.0507745512623,-0.0115383224703,-0.0634853402448,0.014137474914,0.0552380401049,0.0666935638381,0.0507809203959,-0.156539292344,0.0828615185508,-0.0498977945254,0.0324212558161,0.0111410705075,-0.0729384083672,-0.126235318519,0.00881324315615,0.00802601824042,0.0420726769569,-0.112544592835,-0.081632457737,0.0140031771821,0.0332228567763,-0.00701696549939,-0.00727828195315,-0.0544349833427,0.0228495398331,-0.111119908631,-0.097921789939,-0.0757981493636,0.0148688334291,-0.0184333645546,-0.0520429187294,-0.0305658362043,0.0481575652445,0.01966351722,-0.00935043408338,0.0364017823548,0.000824165890735,-0.0364430907357,-0.0220197327098,0.0503627412798,-0.0911080907898,-0.0207284363616,0.0213913721841,-0.00898520976395,0.0293333178607,-0.0814102659612,-0.0781075972151,0.0710396786467,0.0124565695634,0.0422925030545,0.0141207331913,0.0175274917783,0.054580745515,-0.00142049877304,-0.0272897358442,0.0528667206696,0.0441391878545,0.119899122416,-0.0477359285987,0.0997275303086,-0.0883502559313,0.0705776434962,0.0931673226776,0.0127892203137,-0.0309390674345,0.0328368872787,0.0354451384847,-0.0179875252011,-0.0501587470286,0.0400210880295,0.0295276674238,-0.018791127889,0.0422712119507,0.0343516492294,-0.00649906394827,0.0363624757016,0.067283709562,-0.00466184186108,0.135000702186,0.00485036821631,-0.0604305217843,0.0813975276939,-0.0873239155419,-0.0163073477515,0.0157799834875,-0.0111882020963,0.124765322479,-0.0289848352639,0.0863649059936,-0.0323073393119,0.0889036426555,0.00977662011034,0.026561288933,0.0613631449219,-0.0141200052903,0.0379625840428,0.0875473811444,-0.0181938851304,0.0670462318655,0.0530326820943,0.0496912526208,0.0407679144406,-0.0024603053307,-0.0526104995228,-0.0336839820505,-0.0410787281613,-0.00413611537437,0.0253424187329,-0.0360685856787,0.000468222308868,-0.0555852488749,-0.0185569257469,-0.0365519119331,0.0376450372379,-0.0691642417578,-0.0895321851564,-0.013299842855,0.000781037757349,0.0855401941772,-0.097348567913,-0.0386566376324,0.0267854824365,-0.0712980834965,0.0805049391106,-0.0388821049626,0.0360594869164,-0.020710238837,0.0693769708208,0.12168939489,0.0370972917464,-0.00215476889207,0.0764141355725,0.0389878325807,0.0387356148893,-0.119916955991,-0.0235745292146,-0.195354430416,-0.0676500257329,0.0386597312116,-0.0470535214249,-0.0272178556218,0.0352900955748,-0.00864273235031,-0.0769303993464,-0.12712990883,-0.0894650362905,-0.04204538067,-0.0239575871082,-0.0835630331255,-0.0755810528947,0.00807114810152,-0.0434054636612,0.0272178556218,0.00787916421661,-0.0157335797997,0.0811069132255,0.0793341103755,0.0473785292149,0.0266954046896,0.0255149312665,-0.0138990873412,-0.0332323194891,0.0311605313093,-0.0378957991274,0.0258446704129,0.0483717501095,0.119569929196,-0.00735998883877,0.0783825618123,-0.0630939114899,-0.026324903088,0.0843781002539,0.0523657428164,-0.116847397535,0.0160729636342,0.0143543894076,0.00290996616444,-0.0779465491221,0.00222446541143,0.0846221290593,-0.0321422877634,-0.0538364667574,0.0906942790796,0.0102470261222,0.0130581797278,-0.0298814273027,0.126168715579,0.116548594181,-0.0756483837359,0.0715295560099,0.0502752111863,0.0676511175844,-0.0983053937584,-0.0641548271762,0.0241375606268,-0.027509016016,-0.0457598593985,0.0325844876121,0.0918318063446,0.0163017065188,0.0336608711942,-0.0513707021694,0.0655747800235,-0.0261296436487,0.0159031807293,-0.0755977946174,0.0185860417863,0.00969764285342,-0.0402214427758,-0.0920594573778,0.0252072111249,0.00417924350775,0.0189448969721,0.0228497218084,0.035408379485,0.0967848085998,-0.0103918784183,0.0557415656115,-0.0692235656881,-0.0127861267345,0.0907716185593,0.0216699762863,-0.0223052518713,0.000400891467717,-0.0819611050319,0.0591585148123,-0.0418330155575,-0.0475767002581,-0.0308155062423,-0.015905182457,0.00803366120077,-0.104070551538,0.0202480217113,0.0447808325732,0.0411375061659,-0.114877879444,0.0802301564886,0.0680702065767,0.0293060215738,-0.0909949021866,0.00708229461283,0.0140279258157,-0.0157450442402,-0.0288212395175,-0.0276780710199,-0.014010456192,0.0242058013442,-0.0304834014177,0.0163075297267,0.0690899958573
woman -0.0923953735088,0.062354665309,-0.0682686456655,0.048195826923,-0.0095468221514,0.105997991417,-0.014845581153,0.0151306377161,0.072575366664,0.00120951798016,0.149595694754,-0.0258451283883,0.0146608603837,0.0479136861009,-0.00676829247491,-0.0733037873761,-0.113669992093,-0.0400013940617,0.0148815991303,0.0490117198657,0.0486700636239,0.0238102841857,-0.0545149237669,0.068213075072,-0.0436013051345,0.133555174326,-0.0357794010668,-0.0117240231214,0.0670014989217,-0.0148994366047,-0.010707458591,0.00960856725532,0.0514741489129,-0.0597749205643,0.0573469658668,0.00388170886656,-0.0786130087425,0.0356509369478,0.0715052897102,0.0058419444019,-0.0451022257023,0.0326794538216,0.0290673652421,0.0376176900219,-0.00313013374049,-0.0558396992744,-0.0120471558319,0.00773083003938,0.0160659045263,0.0284042914317,-0.0337920662914,-0.00866609684962,-0.00168701345049,-0.0280652079027,-0.0222076557106,0.0599160767324,-0.00770630351199,-0.0667687541827,0.144065220098,0.0177952819787,-0.00562394988222,-0.02769559485,-0.108722151099,-0.0929776641416,-0.109614367851,-0.0185979683296,0.0672939305944,-0.0590288338919,0.0495305502528,0.00501318789593,-0.0188578123087,-0.129812220429,-0.0227613034758,0.0181184146892,0.0540226780773,-0.0324755234645,-0.0495677688293,-0.1263689018,0.14630982614,-0.0534362711042,0.0445444615969,0.0700842947491,-0.180258827904,0.0878787191569,-0.0861760979163,-0.0857423385612,-0.102763748571,0.025485463158,-0.0720994148213,0.0178841263226,0.000425698188706,-0.0197947942607,0.024358271983,-0.109326738575,-0.039054121259,-0.021232426097,-0.0176808820222,0.0184684751256,-0.00301950709596,0.0458568880836,-0.0280156403053,-0.0652055739684,-0.0428989545774,-0.124810523983,-0.000185749854299,-0.0701319756905,0.0403401345623,-0.0182767222751,-0.0878262358186,-0.0598584479688,0.0647704425,-0.0495142564059,0.0499855773658,0.0380457894091,0.0419012566065,-0.014114416214,0.0751813530779,-0.0190830104238,-0.00171359814801,0.082342927562,0.0802993361363,0.134567107973,0.0650849995016,0.0141840509701,-0.00596440552468,0.0295458897975,0.0468542430261,0.0334896867964,0.0427727201427,0.00837469426195,-0.0867474116417,-0.0196050995803,0.0606614773481,0.0577649459175,-0.00796528992011,-0.00462316465616,0.133496859505,0.0233127215566,-0.0632115501401,-0.0167939822101,0.0507690541289,0.0441614704384,-0.0453769914148,0.0339716416353,-0.0274534168313,0.0892136140009,0.0720007941692,0.0383738960308,-0.065645679348,-0.0230317813338,0.0215128517773,-0.0497991414548,-0.0185619503524,-0.00282655364621,0.0283879975848,-0.0389481254973,-0.0275192782755,0.0505514026376,0.0402641537817,-0.0335474870742,-0.00767920427194,-0.0159605948213,-0.0863086783755,0.0770839598496,-0.109090906581,0.00196075007788,0.0114959092652,-0.0207082787704,0.00355531738666,-0.0648733510065,-0.0437623569472,0.0809910528144,-0.0348729486384,-0.042169333266,0.00687686094931,0.00771470770669,0.00937685160144,-0.0327782459879,0.112907268546,0.0707099784689,-0.0238847213388,0.0190627717508,-0.0365002751551,0.0650844849591,-0.0474641474415,-0.0371004032624,-0.0441911423911,-0.0650795110479,0.0596349649954,0.0679506583803,-0.104315780363,-0.0358552103333,0.0688571108087,-0.125921249797,-0.0793501766777,-0.0764694245514,-0.0625042256718,-0.0398351968236,-0.00139784054712,-0.0992506236718,-0.0349307489162,-0.0105265111336,0.0368045413061,-0.036131176645,0.00701733106073,0.065765396244,0.0260879924637,0.00788244857235,-0.00236672413616,0.0336365029324,0.0539302319356,-0.0723362759005,0.0242152291589,0.0638574725328,-0.0468681356745,0.0453092433146,0.0645030518971,0.0179481011109,0.0822961041915,0.101609458156,-0.0258916087304,0.0642037596573,0.0292023468999,-0.083472176907,0.0748539325129,0.0146876165954,-0.030909255995,0.065078653477,0.0733888584082,-0.0368355853722,0.049940297623,-0.0325051954172,0.104120597229,-0.00500769944225,-0.0448897196363,-0.036414175038,0.0349345222282,0.15395078275,-0.0840393742922,0.04540717791,-0.0183967821994,-0.0147565652948,0.0229129220087,-0.0174109187067,0.0180155061827,-0.113339312759,-0.11662055049,0.0344210087805,-0.0368690306369,-0.0361822878699,-0.0173210452777,-0.0278091372356,-0.0549642909121,0.0831401254593,0.0164374042349,-0.0477666984507,-0.0735370466576,-0.0335068382141,0.0567238548597,-0.0508843116563,-0.0149018378032,-0.0675674957076,0.0611645284309,0.0208751620651,-0.00623368278345,-0.0568559207764,0.0579577278531,0.0681614493045,-0.0232475461691,-0.139026819618,0.0638504404515,-0.0417685046331,-0.00878392708961,0.048339727318,-0.0840908285455,0.0444873473758,0.0425456353716,-0.0316160659207,-0.0688315551962,0.0310598454429,0.0188993187396,-0.0333886649458,-0.0515029632947,0.0329230039537,0.0189056647642,0.0479807481443,0.0869861593769,-0.0252765588897,0.0200299401981,-0.0247308007767,0.0251559844229,-0.0181552902374,0.0185816744828,-0.0372676295855,0.0386944560286,-0.0658888864518,-0.039044516465,-0.0329171724717,-0.0518072294457,0.0179050510523
garden -0.0157998568978,-0.018249464096,-0.0283394124907,-0.0277556992531,-0.062062164127,-0.0237445243377,-0.0536642089825,0.0622522416478,0.0380513964535,-0.0368158925684,0.0230856563357,-0.040045019812,-0.0551078207915,0.00395826326515,-0.0361996572019,-0.0297951569074,0.00726878008537,-0.0480254110412,0.0772707249075,0.0437380507919,0.00829381692837,0.0255607083084,0.0938893643172,0.0332514335285,-0.148795817522,0.128734550675,0.0554407934697,-0.0300984721001,0.00551814589799,0.0331572373103,-0.0106397914357,-0.0487966741729,0.0282249952596,-0.0173270488932,-0.00333714115381,0.14294857464,0.0295546953629,-0.0818135439524,-0.0675737381958,-0.0351614767005,-0.00473272805726,0.0145628364368,0.0884625499939,0.0411908772067,0.0517147348354,-0.0147716183945,-0.0456265248835,-0.0288169654108,-0.000272309639697,-0.117178241832,0.0680913961248,-0.077255222131,-0.0792950168021,-0.010432526054,-0.0227378549147,0.115264659983,0.0573661709098,-0.0381474462645,-0.0793597240432,-0.0762829284298,-0.0988302002984,0.0253423213696,-0.0104392663916,0.0287121531609,-0.0116119166284,-0.0316465591421,-0.0054556292666,-0.0716806259054,0.129137791373,0.100652282065,0.00134216972784,-0.0249050419668,0.0397600720392,0.0606185523181,0.0980203487338,-0.0310773376304,-0.0460257213789,0.0156613429598,0.00791804310626,-0.0292100956023,0.0584722603126,-0.0203967671521,-0.19934447395,0.124911094162,-0.0225789514554,-0.0259150815586,-0.00665776848046,-0.00423950385219,0.0238471459779,0.0293609106564,0.0292936757887,0.0034084202241,-0.0307608787793,0.00324463002003,0.0428525389376,0.000278038926671,0.0268085133096,0.0294332007774,0.00714509489012,0.0214969587595,-0.0671084863919,-0.0206377342219,0.0694332288357,-0.0382347336367,-0.0305244614374,-0.0961276619312,0.0174254578224,-0.0335938426794,-0.151492289586,-0.0827165806845,-0.098219020185,-0.0199463440909,0.0345561943826,0.0371412823669,0.0439604819332,0.0234300875879,0.0971402291496,0.0877598697975,-0.0514427622126,0.0383572392728,0.0135334183744,0.017729110032,0.0206662121483,0.0183209116748,-0.0335771603438,0.0534132999147,-0.109259524692,-0.0889082548188,0.059811565397,-0.0125808401607,-0.0348610261513,0.0221999759729,-0.0515115136563,0.0384888443648,0.0116766238695,-0.0108802529802,0.0178389775352,0.016373459629,0.0564708855659,0.0238068724606,0.0604131405292,-0.00290845568142,-0.0475016868084,0.0163281308585,0.042435649056,0.0852693150482,0.131562796339,-0.0314714788725,0.0400468734048,0.02018090784,0.0150526904731,0.0944262322084,-0.0087235134514,0.0521744258609,-0.0427698012933,0.0433322824674,-0.101966142374,-0.0320840070534,-0.00315565756349,-0.0335662072952,-0.0491377352563,-0.0176933862427,0.0242183700721,0.0770710424056,-0.107184343248,-0.0377152221149,0.0224149927429,-0.0801897966206,0.0334529696233,0.0480328254125,-0.0578917487354,0.066132485505,0.00975141493788,0.031620103317,0.0801911446882,0.0133207607226,-0.0457948648155,0.0597037199951,0.0598420654247,0.0692043943737,0.00522746883829,0.00701247874752,0.0781068637888,-0.021292052496,0.0537358250697,0.0505744382192,0.000743122222193,-0.0656832420029,-0.00182258729144,0.0182656409063,0.0267827315182,0.0210831020299,-0.0543084167502,-0.0358810077411,-0.0235426512261,-0.044118037325,0.0390774443471,-0.0085241679664,-0.0716998358676,-0.0190333653608,0.00157117269835,-0.0717230900324,0.0361634278872,0.0846434747006,0.0529450149588,0.00682897305591,-0.0281810145567,-0.00294721262271,0.0196634184195,-0.0506750377581,0.0781459577469,-0.115067673616,0.00525375615499,-0.0193004512388,-0.0208104553733,0.0505673608647,0.0608559807106,-0.0927807472878,0.0418706402553,-0.0932365626191,0.00817215383439,0.124859362071,0.076679765807,0.0172958748318,-0.0241349583941,-0.0366003702732,-0.150085749634,0.0576715082038,-0.0148369996693,0.127965983678,-0.0432481967556,-0.0219416525338,0.0605444086043,-0.0238761294296,0.0137942694401,0.0947074727954,0.0721693003826,0.0175287534964,-0.0666280688283,0.00294822367335,-0.0361804472397,0.00511692730138,-0.0359404912205,0.0272970192783,0.0487326409656,-0.120431802799,-0.0470665980153,-0.00847917621281,0.0539867341374,-0.111047567753,0.0718026260163,0.0513497455535,-0.00324665212131,0.119343406783,0.109878624702,-0.0948631745943,-0.0992288912684,0.0195468105787,0.0566383829557,-0.0425222623944,-0.00125740998231,-0.0195827028765,-0.0547001988741,0.0257164101073,-0.00101273572684,0.117204866166,-0.0659122449734,0.0124606936427,0.00416603417217,-0.0630068224439,0.0375419954382,-0.10818578891,-0.121978878791,0.00828016774469,-0.0749400846682,0.0161102494451,-0.0181426297448,-0.0759705137813,0.0183081050333,0.0299543973835,-0.0727073478328,-0.0669327320885,-0.0548319724745,-0.0057700660164,-0.022222219087,-0.0565180679292,0.108445460416,-0.0323911979403,0.0757760550411,0.00999524665115,-0.0497994679018,-0.0396754808021,0.00244943868975,-0.0637836463542,-0.0202946510372,-0.0523714122277,-0.0385486648611,0.0566678719327,0.0571117231648,0.06476840968
very 0.0524255520985,-0.0383575581866,0.0965828278834,-0.00641731032342,-0.0462875599246,0.0378373402143,0.0504991992029,-0.00261329190869,-0.0383929562047,-0.00662486593801,0.049363321503,-0.0859396224245,-0.106971723349,0.110497994174,0.0638069210062,0.0113539445046,-0.11104152893,-0.0964728886463,-0.00255324817153,-0.00949270946482,-0.0481362304801,-0.0321231577587,-0.0584934731103,-0.0322230695708,0.0929707802903,0.0577084344702,-0.0147047958004,-0.00315344391848,-0.0737704361928,0.0858612152104,0.0966756117669,-0.00480760659306,0.0111324954699,-0.0399562679932,0.0278745499018,0.0153238382737,-0.0362627928773,0.0506853710318,-0.125970310824,-0.0286127133506,0.0234926860245,-0.0414727045906,0.0194785749359,-0.00253005220063,-0.00901030575758,-0.0179721657634,0.0502766628571,0.0266446801948,0.001774975023,-0.00492261994876,0.0120596094317,-0.114272534376,0.00149299900179,0.00245659829279,0.0103835797221,0.00378807118474,0.0319784245653,-0.103589702467,0.0488422578443,-0.0418271680209,-0.00386454540129,0.0170967594868,-0.0554194029047,-0.0133983310646,0.0418144827243,0.0308067864103,-0.0689552184218,-0.0135592531127,-0.075331210922,0.059185486242,-0.00898662653729,0.0337486879067,-0.0193286468115,0.0755213695584,0.0293298554508,-0.0761065845742,0.00579778460072,0.0936112065492,0.0698527333582,0.0545609103568,-0.0467241757518,-0.0615047208946,0.0818667965346,0.110582079569,-0.0236484131417,0.0435430658055,0.0776534658834,0.00328500856591,0.0148850478242,-0.0816394276948,-0.0269304013989,-0.0534384428276,-0.0444340568751,-0.00582883337426,0.042661135662,0.0474362437334,-0.0296403431863,0.00703538629794,0.0399350050199,0.0121722065405,0.049726000173,-0.1091921335,-0.0732976974734,-0.0813827014544,-0.0864251672528,0.02242035562,-0.00627487256463,0.039861188675,0.0385637848653,0.0256305813422,0.135194212814,0.0160171803413,0.0546778567101,0.116900082142,-0.00711790113191,-0.0959840818846,0.0531706018512,0.12314221456,0.0525490223186,0.116080732795,0.0657812364041,0.0272080281755,0.129409717572,0.109589847751,0.0032208572089,0.125687972366,-0.100228340497,0.0793344488993,0.0167699620843,-0.0469717202537,-0.0923719134791,0.090441211339,-0.0421400720033,-0.0346981521529,-0.0774889194648,0.0399324679606,0.0463326229306,0.0197212869439,0.0234559590706,-0.0544944635652,0.0348565371417,-0.0219452006536,-0.00168835256918,0.14560425044,0.0152453102472,-0.00116426860173,0.0141194599723,-0.0559619711614,-0.073774664625,0.0222488020852,0.0604203092552,0.0841528077914,0.0550097282312,-0.100683078176,-0.142464216693,0.025538643145,-0.0713549140985,-0.00129208806636,-0.0519580083101,-0.0555462558705,-0.044235320562,0.084769192393,-0.0199677441347,0.124287032374,-0.0785927818923,-0.0144442035649,0.0512431616445,0.0353842454796,-0.00340243816858,-0.00162589258505,-0.0879686658162,-0.0447195364544,-0.00941104031729,0.000922039843148,0.00288536131734,0.038465201989,0.0332864598616,0.0167333559427,0.0293489438019,-0.0544050624273,-0.0399438243214,-0.0995260583156,-0.0180655537088,0.0528835517113,-0.0581647427102,0.0387058601871,-0.0694973034291,-0.0550527374272,0.0286193580298,-0.00318727137604,-0.0914081933758,0.0380512988833,0.0425457598693,-0.021745256217,0.000271344534553,-0.0687562404839,0.0120764023482,-0.0416883546326,-0.00221183247489,-0.029576433454,0.0446059728469,-0.0355709005579,0.0323292636251,0.0199981888465,0.0987335293099,-0.0646155180541,0.0198975521602,0.0433614848458,0.0276319587061,-0.0412425570669,0.0709846242505,0.0124516455023,0.0524259145355,-0.0487462120273,-0.0538635814817,-0.044355649661,0.0336834492385,0.0337689843812,0.0272940465676,-0.02680596468,0.080479991587,0.0116611703066,-0.0528637384862,0.090812226061,0.0464732485041,0.0617441709692,0.026181485651,-0.0984231623869,0.00441387914956,-0.00734430347286,-0.0495310090427,0.0395529963742,-0.0755503645221,0.0319809616246,-0.0674416813207,0.0307118279044,0.074717484192,0.0978054488494,-0.0545438758157,-0.0403277659646,-0.030612157717,0.0611352767332,0.0706685791471,-0.000619525722702,0.0115183701108,-0.0688765695829,-0.058080053254,-0.0013847511376,0.0911302041621,-0.00459799716855,0.00843596385319,-0.0808830215814,0.0921089049966,0.0586942632333,0.0104345625331,-0.093868053602,-0.0519079919978,0.0213329236718,0.0429698112123,-0.0632098663803,0.0455700553873,0.0415435006268,-0.0764716794911,0.112497800978,0.0777635259328,0.0834057042287,-0.0878667001942,-0.0612258859945,0.0771305900394,-0.0323069133406,0.0173509486679,-0.0533979706909,-0.00915286432872,-0.0336108410171,0.0291569729803,0.0854317273118,0.0625823670426,-0.0672948943174,-0.00615164396924,-0.0197784311847,0.0728456176656,-0.0582599428408,-0.0220203459343,0.0612024483989,-0.0429763350791,0.0845295006938,-0.0486578982006,0.0150871668832,0.0812637012912,0.00388701649809,-0.0079454657186,-0.0480807776122,0.0190115143969,-0.13730987866,-0.0264721601613,-0.0424904278137,-0.00561910313741,0.0052483300401,-0.00651323532807,0.0535184206023
spoon 0.0122696459181,0.0442056642595,0.0345026118511,-0.072107731874,-0.0324733132108,0.0394969894802,-0.0804818421104,-0.0189955918196,0.014140220753,0.0106796474498,0.0136677956128,-0.0470003862696,-0.062689790798,0.0592994108796,-0.0232194195958,-0.0734059151472,-0.0648233936533,-0.159877658481,-0.0152794830483,0.0461935566897,0.0113999183333,-0.0381503017894,0.0346627158635,-0.119365625336,0.0556625654249,0.117621240856,0.0567698857867,0.0127122980214,0.0239862231725,0.135142968768,-0.0119212422359,-0.0612750786192,-0.05825558004,-0.00970206654633,-0.0271746985235,0.0310118711663,0.00672101659076,0.0209649500414,0.00105664704755,-0.0115052084105,0.0142102169653,0.00439773385866,0.0577389882757,-0.0764506517974,0.0545660895466,-0.0933035708299,0.0327956901323,-0.0923277644783,0.0332738332729,0.00125086189022,0.0983281158407,-0.0754158908895,-0.0641760765686,-0.0522260471581,0.034472247297,0.0761519355673,0.0110507259614,-0.102350236222,0.096881264556,0.00931265099886,0.00133308279315,0.0338198037291,-0.0552102518725,-0.0431876630081,-0.0056148792635,-0.00793638744374,0.0781309552382,0.0200689985236,0.0777786081074,-0.0239755758614,0.000320799542147,-0.0397897905374,0.0540483147478,-0.0395232134133,0.0117901225705,-0.0263006331453,0.0351935040426,-0.0843296620643,0.0764405960035,-0.0301141450966,0.0222745693155,-0.0878468238546,0.0238123170901,0.137280909417,-0.0768637280364,-0.0127150584354,-0.0266188694459,-0.0331752470584,0.0570853616733,-0.0115215737221,0.0772353980652,-0.0177267872383,-0.0536602794073,-0.133710905415,0.0644525123142,-0.0328824460011,-0.0593893215073,0.05540486106,-0.0762030032264,-0.00709603855091,-0.0301995207584,0.0318405868858,-0.0272462721153,-0.143659437498,-0.00162213757421,0.0317112417723,-0.0424039026024,0.0613728761441,-0.012439608552,-0.010410901429,-0.132763294721,-0.0372251687521,-0.0178224158664,0.00948616273647,0.109655277548,0.0133542914506,0.0347165439366,0.0568345583434,-0.0742373912807,0.0638775575109,0.0201198690103,0.0534274187686,-0.0197915769158,-0.00994518015141,-0.0247163526775,0.0834124159241,0.019091811965,-0.072039707386,-0.0496689179251,0.028455530623,-0.0346707999331,0.0336399824737,-0.0881808339495,-0.0461501787553,0.0203925584797,-0.048143789186,0.0815323768126,0.00482638671953,-0.0515757724869,0.0140509016426,-0.0568631483457,0.0145980551333,-0.043414608474,-0.0320935591123,-0.0387297915585,0.0939532539838,-0.0480091204169,0.0990748078297,0.023627566524,0.0179858718101,-0.0547043074194,0.0381493159273,-0.0170412187023,0.0200772797656,0.0396322497665,-0.00334601612184,-0.130572906206,0.0255797707445,0.0151933186968,-0.0138462366612,0.00282153746043,-0.122863661401,-0.00894196683215,0.0565380110101,-0.130291935495,-0.0507734778729,-0.0209475988677,-0.0114707032354,0.0456820914086,-0.0545223172674,0.0214943580136,0.0269323736082,-0.018734338351,-0.0628784848127,0.0691284564703,0.0102330518979,-0.00488573562069,0.0880968384947,0.080972407114,0.0187463658692,0.0223934642903,0.00250330115986,0.00392156244239,-0.0123828228924,0.0148593086019,0.0644732154192,-0.018728817523,-0.0530281445997,0.0972671309997,-0.0135648716048,-0.0640283944192,0.0228560308089,0.0433446122617,-0.117667773549,-0.138296347426,-0.0393491101584,0.0472038682164,-0.00360786110769,-0.0708515463282,-0.0922384453679,-0.0572007075443,0.0099443914617,0.0108551309117,0.0489259722122,0.0673539046084,0.00631898200782,0.0767040183688,0.0341096471999,0.0970336788436,0.0892581841021,0.0754342279254,0.0379265110824,0.146331912602,-0.0961201789796,-0.052096899217,0.0333351538984,0.0455097627056,0.0157477675674,0.161287835694,0.00972967068641,-0.0269530767132,0.121733074692,-0.0299950529494,-0.00709584137848,0.0306125969973,0.00882090296068,0.00207149354013,0.0578423066286,-0.00077193005993,0.062112667098,0.0369781116984,-0.0356645489757,0.0152589771157,0.0353920566787,-0.00508803453295,0.041508148257,0.0682835726116,0.161648069722,-0.058517030681,0.0586205462062,0.0257418464813,0.0144326274653,-0.0175124608079,0.0724381928652,0.16334355544,-0.141756329212,-0.0179083830455,0.0432351815635,0.0443259394413,-0.0132714790303,-0.0574576232194,0.0788819850206,0.0189597064375,-0.0687601383727,-0.0130338862533,-0.0446384577414,-0.038882994536,0.0179700980158,0.0644022333448,-0.0513269408814,0.0704297945024,-0.042788783184,-0.0369992091483,0.0640489003518,0.0446467389834,0.020756144439,-0.0333659127973,0.0212362593039,-0.0796943354285,-0.0235451484486,0.010544189991,-0.0935107990529,-0.0854241662182,0.00404933017644,-0.06442944314,0.077259650274,-0.0212049088876,0.0211528553664,0.00190113656139,0.0102787959015,-0.0146118572034,0.00138888259059,0.0238117255728,0.0745191506819,-0.0410499195318,-0.012389526755,0.0287029820215,0.0529439519724,0.103837902199,-0.0364918844883,-0.0154155320244,0.00844706403511,-0.0124486784837,-0.0364270147591,0.0232038429739,0.017865399456,-0.00601789970858,-0.0117962349158,0.0962656922323,0.0342311054162
fan 0.0733839072385,0.0561551736877,0.135740934582,0.0594514410121,0.0211156614939,0.00291403617497,-0.023249661149,0.11595007598,-0.041005764335,0.0484563722923,0.0394160340019,-0.116622584101,-0.0266040832777,-0.0256611801692,0.0368288907865,-0.0254008918572,-0.0760098203234,-0.118475585044,-0.0257481638508,-0.109864531932,-0.0381175747397,-0.0640319188432,-0.0830326342504,-0.0281028535323,0.0272991243144,0.0873629304449,-0.0443641628606,0.00997843658596,-0.0316400242339,0.0789101047925,-0.03640490747,0.0885631395677,-0.0111314259959,0.0283497215048,0.0324913045311,-0.00910014992667,0.0542766575317,-0.0566601760906,-0.0561265104936,-0.0351513483558,0.0664653080461,0.168651748983,0.0759468607062,0.0231040256136,0.00460880965881,-0.0129524500804,-0.0206313694915,-0.0802002798945,0.0368095058518,0.0346973763795,0.00858686336367,-0.0801177696594,-0.0523434659187,0.032221903643,0.0135918215609,0.0593954400895,0.0950897323016,0.063289161044,0.010625595177,0.0238877071639,-0.0213113333567,0.0380693609277,0.00102789859163,-0.0325429976904,0.109975539678,0.0308758933015,-0.0110653183979,-0.0316269352609,0.0344084248734,0.0391022300154,-0.04461914931,-0.0845912161413,-0.0206600326856,0.0387988640706,-0.101520228778,-0.0417790078436,-0.0689363073362,-0.0352499298616,-0.0199772522059,-0.0351422357796,0.0311539097162,-0.0691280028021,-0.0819220597404,0.0575944636725,-0.160963716996,-0.0242361389399,0.0214775136094,-0.0460054206698,0.111800871526,-0.00219298287537,0.0271428850539,-0.0248095685056,-0.0313532266095,0.0233006915756,0.0074855671131,-0.0408372645176,-0.00847419878561,-0.0152014338784,-0.030916320003,0.105614260725,0.02496497935,-0.0314774890117,0.0142939869754,-0.13531976788,-0.00630408019226,0.0272215845754,0.0735202645146,-0.0377389886208,0.0732550057065,-0.0396015991893,0.0212816760634,0.00352822380862,0.0274981098412,-0.00903520211108,0.0381669483342,-0.0338873511999,0.0719572091771,0.104434596319,0.00108887001034,0.133769635832,0.0733438119033,0.0655868557037,0.0323410298659,-0.0422419267129,0.0216760020866,-0.0217957910424,-0.00819137755803,0.0707316505243,0.0327853922165,-0.0253747139112,-0.100861638046,-0.0462952005919,-0.0588226732566,0.0158731135835,-0.0360763576784,0.00807771888075,-0.00422674419262,0.120470079442,0.0324023326511,0.0511450793111,0.0906999558372,-0.0193102116305,0.0157700586312,-0.0212568235829,-0.000446350548975,-0.00051759432628,-0.000719893517185,0.0704617525865,0.0345822265534,-0.0465559859535,0.0393477725223,-0.0168993553431,-0.0189303000459,-0.0254641828408,0.0263550614235,0.00634682645865,-0.0189649278354,0.0613110692829,-0.0122287458496,-0.002784306227,-0.0385952394141,0.0213411563333,-0.0718576335721,-7.47231245686e-05,-0.141001044912,0.0427623376536,0.0117954842736,-0.0562279086138,-0.0671567040524,-0.0483142161041,-0.00826113018651,-0.0659954304823,-0.0418943233529,0.0621933323391,0.119488903513,0.0805695877541,0.0280377400335,0.0693109170583,0.128298445102,0.00424646049378,0.0100075968297,-0.0334617110513,0.0227027408958,0.0371110492813,-0.0429026713266,-0.024778917113,-0.0343023876235,-0.136642251207,-0.023762947712,-0.0122428289218,-0.00461212332287,0.00847718108326,0.0241345751364,-0.105336575676,-0.0361025356244,-0.108491018179,-0.193196390047,-0.062119768997,-0.0663967152001,0.00763087128216,-0.019144197061,-0.0590615884353,0.0293030626551,0.0820275999408,0.0350555834645,0.0534276967994,0.0825823073045,0.0964914121993,0.0359346985398,-0.0611284863932,0.0646040229433,-0.0306653099505,0.139423906502,0.0543155930844,0.00824191093496,-0.0738131924175,0.102118013774,0.0274202387358,0.0496807711627,-0.034736974665,0.0174563822717,0.0591817087575,0.028577535909,0.046701621489,0.0617353839659,0.0641797082603,-0.0236332177641,-0.00606665616231,0.0339403698248,0.00473406616031,0.0254403244596,-0.0792553885876,0.0454754001033,-0.0107515144113,0.00375885482725,0.0484205847204,-0.0297903369552,0.119837335289,-0.0815187868243,-0.0182011282694,-0.00924015223324,-0.00508895958121,-0.0177580913844,0.00705479078521,0.0290310108357,-0.126456710617,-0.0122903800011,-0.0965861829914,0.0373877402304,-4.10894343526e-05,0.0678479343755,0.0719712922494,-0.00343660099734,0.0390086190057,-0.0650929540754,-0.0288514102436,-0.165228071276,0.010175102548,0.00530252522992,-0.0146863248002,0.0181660034303,-0.0519867499826,-0.0590480024127,-0.0170754765879,-0.015671974175,0.0708923632312,-0.0587524235785,-0.0222510884843,0.00504422511639,-0.0694259012012,0.0225387145248,0.0428783158957,-0.0762986061463,-0.00556231649228,-0.0220575705032,0.0730896538699,-0.0462201461009,0.0964857789704,-0.019329430882,-0.0191652388278,0.0660842366792,-0.0606422061923,-0.0510504742022,0.0531052772863,-0.0148301378204,-0.0216117170038,-0.0497656009627,0.0751916766668,0.0532779191838,0.0241531316552,0.00387715263421,-0.00749583947169,-0.0274933050284,-0.0212467169075,0.067024985906,-0.00382943587174,-0.0506296388665,0.0578388463969,0.100152348254,-0.0442374152102
