#global bias W0
6.02272
#unary interactions Wj
-5.72325
505.615
-63.3369
496.262
-8.46224
7947.91
#pairwise interactions Vj,f
1268.43 573.811 -137.142 -116.571 6.41073
-1032.79 3.05178 158.858 6.95958 73.6594
333.248 -126.77 104.1 5.58914 -201.593
-40.0809 52.6742 -157.572 87.946 110.024
-111.51 133.78 353.997 -85.6362 159.546
6.88456 -1.89788 -176.98 -65.2299 70.4463